svm_type c_svc
kernel_type linear
nr_class 3
total_sv 1010
rho 0.411497 0.205344 -0.273138
label 2 1 0
nr_sv 333 407 270
SV
1 0.4195983803044157 0:1 1:1 2:1 3:1 5:1 6:1 7:1 8:1 9:1 10:1 12:1 13:1 
0 0.8279030086574493 0:1 1:1 18:1 39:1 43:1 49:1 56:1 102:1 103:1 110:1 113:1 114:1 117:1 118:1 
1 0.1090104147638569 0:1 1:1 15:1 21:1 29:1 58:1 67:1 68:1 72:1 132:1 133:1 134:1 135:1 136:1 138:1 
0.08970117431534086 0.6743894762391751 1:1 15:1 21:1 29:1 52:1 67:1 68:1 92:1 138:1 140:1 141:1 142:1 143:1 144:1 145:1 146:1 147:1 148:1 149:1 150:1 151:1 
0.1681115806611322 0 33:1 40:1 61:1 82:1 133:1 149:1 160:1 161:1 162:1 163:1 164:1 165:1 166:1 167:1 168:1 
1 0.6624402271194455 0:1 1:1 3:1 9:1 10:1 12:1 13:1 29:1 52:1 64:1 186:1 187:1 188:1 189:1 190:1 191:1 
0.158485122278208 0 0:1 1:1 6:1 15:1 21:1 27:1 29:1 133:1 134:1 149:1 200:1 202:1 204:1 205:1 207:1 
1 0 0:1 1:1 3:1 9:1 10:1 12:1 13:1 33:1 40:1 186:1 189:1 190:1 191:1 277:1 279:1 
0.1695247120212883 0 1:1 14:1 15:1 18:1 21:1 26:1 33:1 40:1 48:1 58:1 133:1 134:1 263:1 270:1 281:1 282:1 
1 0 0:1 1:1 3:1 5:1 6:1 9:1 10:1 12:1 13:1 40:1 49:1 186:1 190:1 191:1 
0.1701426441131413 0 0:1 21:1 27:1 29:1 114:1 133:1 134:1 149:1 160:1 174:1 205:1 240:1 313:1 315:1 316:1 317:1 
0.04626867751661795 0 34:1 35:1 36:1 39:1 43:1 49:1 117:1 235:1 392:1 393:1 394:1 395:1 396:1 
0 0.06154040514761969 1:1 15:1 21:1 40:1 58:1 67:1 68:1 149:1 200:1 270:1 410:1 411:1 412:1 413:1 414:1 415:1 416:1 
0.7415390804150805 0.06880444488271566 1:1 15:1 21:1 29:1 72:1 124:1 142:1 143:1 149:1 188:1 200:1 414:1 415:1 432:1 433:1 434:1 
0 0.4421157622299644 0:1 29:1 39:1 64:1 109:1 175:1 295:1 526:1 527:1 528:1 
0.3355873848082996 0 0:1 1:1 3:1 5:1 6:1 9:1 10:1 12:1 13:1 531:1 533:1 534:1 535:1 
1 0.1822883274779618 0:1 1:1 15:1 18:1 21:1 33:1 40:1 133:1 134:1 358:1 362:1 363:1 539:1 540:1 542:1 
0.2304854365758034 0 0:1 27:1 29:1 39:1 72:1 109:1 175:1 295:1 391:1 494:1 526:1 527:1 556:1 
0.406227268227164 0 0:1 1:1 3:1 9:1 18:1 29:1 138:1 142:1 149:1 188:1 200:1 218:1 340:1 528:1 577:1 578:1 579:1 581:1 
0.2133389772891228 0 0:1 39:1 43:1 49:1 54:1 55:1 56:1 95:1 99:1 114:1 117:1 160:1 178:1 181:1 612:1 614:1 
0.2432084147416577 0.1334737335516748 0:1 1:1 3:1 6:1 9:1 10:1 12:1 13:1 40:1 49:1 531:1 533:1 534:1 635:1 637:1 
0.175828184909319 0 0:1 1:1 15:1 21:1 33:1 40:1 49:1 82:1 124:1 133:1 134:1 149:1 200:1 205:1 657:1 
1 1 0:1 1:1 3:1 5:1 6:1 9:1 10:1 85:1 310:1 531:1 533:1 534:1 
0 0.7654297167406281 1:1 15:1 21:1 29:1 67:1 68:1 142:1 143:1 149:1 200:1 205:1 338:1 581:1 685:1 686:1 
0.1784613261993891 0 1:1 15:1 18:1 33:1 40:1 52:1 149:1 200:1 205:1 293:1 681:1 687:1 688:1 689:1 690:1 691:1 692:1 
0.9136651291944798 0.6419500499688717 0:1 36:1 39:1 40:1 67:1 68:1 95:1 102:1 103:1 328:1 
0.9092606802793121 0 0:1 1:1 14:1 15:1 21:1 26:1 33:1 40:1 48:1 49:1 124:1 133:1 134:1 270:1 281:1 706:1 
0 0.670443899262628 0:1 1:1 6:1 15:1 36:1 39:1 40:1 102:1 103:1 113:1 295:1 324:1 
0.1684823997407723 0 1:1 6:1 15:1 31:1 34:1 35:1 36:1 39:1 184:1 295:1 737:1 738:1 739:1 740:1 
0 0.07647196970537323 0:1 1:1 15:1 18:1 31:1 34:1 35:1 36:1 39:1 180:1 184:1 740:1 747:1 748:1 
1 0 0:1 1:1 15:1 21:1 40:1 67:1 68:1 132:1 135:1 142:1 143:1 769:1 770:1 772:1 773:1 774:1 
0.07162039878563371 0 0:1 33:1 34:1 40:1 56:1 114:1 160:1 181:1 270:1 281:1 282:1 565:1 680:1 779:1 780:1 781:1 783:1 
0.07917891139491695 0 0:1 1:1 15:1 31:1 33:1 34:1 35:1 36:1 39:1 40:1 49:1 51:1 124:1 315:1 
0.2569626939301274 0.9932095561416324 0:1 1:1 15:1 21:1 40:1 49:1 51:1 58:1 66:1 67:1 68:1 69:1 138:1 142:1 143:1 642:1 645:1 646:1 647:1 648:1 649:1 650:1 651:1 
0.8002068732787013 0 1:1 15:1 40:1 67:1 68:1 132:1 135:1 414:1 415:1 567:1 690:1 797:1 798:1 799:1 800:1 801:1 
0.3506800299670192 0.4085074764578437 0:1 1:1 15:1 21:1 40:1 67:1 68:1 132:1 135:1 142:1 143:1 149:1 200:1 225:1 226:1 818:1 820:1 
1 0.6713202714313116 1:1 15:1 18:1 33:1 40:1 107:1 108:1 109:1 149:1 200:1 205:1 488:1 838:1 839:1 840:1 
0.2468038629610317 0.2293173595529019 1:1 14:1 15:1 21:1 26:1 48:1 133:1 134:1 832:1 833:1 834:1 835:1 
0.02098838056504558 0 6:1 34:1 35:1 36:1 39:1 40:1 340:1 341:1 463:1 523:1 880:1 
0.6813359320293378 0 1:1 14:1 15:1 21:1 26:1 33:1 40:1 48:1 82:1 124:1 133:1 134:1 333:1 335:1 
0 0.01970529267848425 0:1 1:1 6:1 15:1 21:1 133:1 134:1 149:1 184:1 200:1 205:1 295:1 
0.1066755866636731 0.5933680918254037 0:1 1:1 15:1 19:1 20:1 21:1 67:1 68:1 132:1 135:1 138:1 149:1 184:1 200:1 205:1 624:1 899:1 900:1 
0 0.2008113248052085 1:1 15:1 18:1 21:1 43:1 47:1 49:1 52:1 133:1 134:1 149:1 150:1 200:1 205:1 906:1 907:1 908:1 
0 0.2508736088370924 29:1 39:1 54:1 55:1 56:1 58:1 61:1 64:1 114:1 160:1 178:1 187:1 188:1 334:1 
0.7756955343465928 0.395539703299969 0:1 1:1 17:1 27:1 29:1 49:1 82:1 86:1 106:1 124:1 142:1 151:1 244:1 345:1 346:1 348:1 578:1 696:1 697:1 936:1 941:1 944:1 
0 0.3074566080911786 29:1 34:1 35:1 36:1 39:1 49:1 66:1 67:1 68:1 117:1 195:1 803:1 955:1 975:1 976:1 
1 0 0:1 1:1 15:1 21:1 27:1 29:1 67:1 68:1 72:1 133:1 138:1 142:1 143:1 149:1 328:1 329:1 
0.9769153898307513 0.5080832995646409 1:1 15:1 21:1 29:1 64:1 67:1 68:1 133:1 138:1 140:1 142:1 143:1 146:1 147:1 149:1 328:1 329:1 
0.02140236452141028 0 1:1 15:1 18:1 29:1 30:1 31:1 34:1 35:1 36:1 39:1 188:1 568:1 571:1 572:1 
0.2307652278567322 0 18:1 33:1 34:1 35:1 36:1 39:1 40:1 520:1 521:1 1029:1 1030:1 
0.2715558469225482 0.07777958197623416 0:1 1:1 3:1 5:1 6:1 9:1 10:1 29:1 40:1 85:1 207:1 240:1 251:1 253:1 254:1 270:1 310:1 1046:1 
0 0.2230666979556901 1:1 3:1 9:1 18:1 33:1 39:1 40:1 44:1 45:1 65:1 409:1 1029:1 1088:1 1089:1 1090:1 
0.1303997131138353 0.2576095119787061 29:1 39:1 56:1 64:1 114:1 160:1 181:1 187:1 188:1 397:1 399:1 400:1 407:1 598:1 
0 0.005837907631390013 9:1 27:1 39:1 44:1 45:1 135:1 340:1 341:1 409:1 861:1 1095:1 1096:1 
1 1 0:1 1:1 3:1 5:1 6:1 9:1 10:1 85:1 251:1 253:1 254:1 310:1 
0.05187006222965958 0 0:1 1:1 15:1 17:1 18:1 21:1 27:1 133:1 134:1 149:1 200:1 205:1 1154:1 1155:1 1156:1 
1 1 0:1 1:1 3:1 40:1 49:1 67:1 68:1 109:1 132:1 135:1 251:1 253:1 504:1 886:1 1149:1 1166:1 
0.05278523615173535 0 1:1 3:1 9:1 18:1 29:1 33:1 39:1 40:1 44:1 45:1 65:1 72:1 409:1 1067:1 1068:1 1069:1 1070:1 
0.04883220767281216 0 0:1 1:1 15:1 17:1 18:1 27:1 29:1 31:1 34:1 35:1 36:1 39:1 72:1 315:1 1171:1 1173:1 
0.07079293759822279 0 0:1 1:1 15:1 18:1 21:1 33:1 40:1 47:1 52:1 133:1 134:1 149:1 200:1 205:1 1076:1 1198:1 1200:1 
0.4892637233142392 0 0:1 1:1 15:1 21:1 40:1 67:1 68:1 132:1 135:1 142:1 143:1 149:1 200:1 205:1 1284:1 
0.6905486543326169 0.006512582362541088 0:1 1:1 15:1 18:1 19:1 20:1 21:1 40:1 52:1 60:1 138:1 149:1 200:1 205:1 1290:1 
1 0 0:1 1:1 14:1 15:1 21:1 26:1 40:1 66:1 67:1 68:1 69:1 142:1 143:1 414:1 415:1 879:1 
0 0.5450993760663294 0:1 1:1 15:1 18:1 21:1 27:1 43:1 47:1 49:1 133:1 134:1 149:1 200:1 205:1 305:1 
1 0.2612508197747158 0:1 1:1 15:1 21:1 49:1 52:1 67:1 68:1 142:1 143:1 327:1 328:1 329:1 330:1 331:1 992:1 1230:1 
0 0.09605084437068041 1:1 3:1 9:1 17:1 18:1 27:1 29:1 39:1 44:1 45:1 65:1 177:1 204:1 409:1 1414:1 1415:1 1416:1 
0.1392900876608931 0 0:1 33:1 40:1 56:1 61:1 82:1 114:1 133:1 149:1 160:1 167:1 501:1 504:1 1166:1 1418:1 
0 0.00842217837105344 1:1 3:1 9:1 39:1 40:1 44:1 45:1 49:1 65:1 66:1 67:1 68:1 69:1 99:1 409:1 808:1 1473:1 
0 0.02004626805522781 0:1 1:1 3:1 9:1 18:1 33:1 39:1 40:1 44:1 45:1 49:1 65:1 270:1 281:1 409:1 916:1 1477:1 
0 0.223855426037348 0:1 1:1 3:1 9:1 27:1 29:1 39:1 44:1 45:1 65:1 66:1 67:1 68:1 69:1 72:1 409:1 1489:1 
0 0.07148035923945684 0:1 1:1 3:1 9:1 39:1 40:1 44:1 45:1 65:1 124:1 180:1 184:1 409:1 832:1 1281:1 1531:1 
0.9188381552746565 0.9181734011144455 0:1 26:1 36:1 39:1 40:1 52:1 295:1 706:1 728:1 1387:1 1533:1 1534:1 
1 0.3767183004857569 0:1 1:1 9:1 14:1 15:1 18:1 26:1 33:1 40:1 44:1 45:1 48:1 52:1 1080:1 1281:1 1550:1 
0.1585720618355518 0 0:1 1:1 15:1 19:1 20:1 21:1 40:1 66:1 67:1 68:1 69:1 83:1 138:1 142:1 149:1 200:1 345:1 411:1 551:1 574:1 1074:1 1568:1 1571:1 1572:1 1573:1 1578:1 1579:1 1581:1 
1 0 1:1 15:1 18:1 33:1 40:1 107:1 108:1 109:1 149:1 200:1 205:1 270:1 281:1 282:1 1583:1 
0 0.2323793194189074 0:1 1:1 15:1 19:1 20:1 21:1 40:1 67:1 68:1 138:1 149:1 200:1 205:1 225:1 410:1 413:1 551:1 574:1 624:1 629:1 684:1 798:1 936:1 944:1 1585:1 1586:1 
0.2965649614361403 0 0:1 29:1 40:1 72:1 133:1 149:1 160:1 161:1 162:1 164:1 165:1 166:1 167:1 270:1 295:1 313:1 556:1 1641:1 
0.04368470018872931 0.4305273041788737 0:1 1:1 15:1 19:1 20:1 21:1 29:1 64:1 67:1 68:1 132:1 135:1 138:1 149:1 200:1 205:1 1568:1 1572:1 1573:1 
0.5476524624968145 0 1:1 15:1 33:1 40:1 107:1 108:1 109:1 124:1 149:1 200:1 205:1 1042:1 1044:1 1675:1 1676:1 
1 0.2172369629879118 1:1 15:1 17:1 18:1 27:1 29:1 72:1 107:1 108:1 109:1 149:1 200:1 205:1 315:1 1042:1 1044:1 1677:1 
1 1 1:1 14:1 15:1 26:1 27:1 29:1 30:1 48:1 67:1 68:1 109:1 404:1 405:1 780:1 781:1 1319:1 
1 0.3656161295202197 0:1 5:1 39:1 49:1 109:1 175:1 184:1 338:1 427:1 428:1 1686:1 
1 0.9587358731879422 1:1 9:1 14:1 15:1 18:1 26:1 29:1 33:1 40:1 44:1 45:1 48:1 64:1 270:1 281:1 282:1 1563:1 
0.06961950372064105 0 0:1 27:1 39:1 52:1 54:1 55:1 56:1 67:1 82:1 114:1 160:1 178:1 410:1 565:1 1234:1 1752:1 1754:1 
0.1493158658936747 0.03838280807201069 0:1 1:1 15:1 18:1 21:1 27:1 43:1 49:1 142:1 143:1 149:1 200:1 205:1 598:1 1759:1 1760:1 1761:1 
0.8097843711868493 0.1623963568964417 0:1 1:1 3:1 18:1 33:1 40:1 44:1 65:1 109:1 504:1 988:1 1166:1 
1 0.2534960087457512 0:1 36:1 39:1 40:1 52:1 97:1 295:1 362:1 494:1 728:1 1443:1 1715:1 
1 0.08922598440042021 0:1 1:1 15:1 17:1 21:1 27:1 29:1 124:1 133:1 134:1 240:1 358:1 362:1 363:1 947:1 948:1 1235:1 
0.01868650414445579 0 0:1 1:1 15:1 18:1 21:1 33:1 40:1 133:1 134:1 149:1 200:1 205:1 948:1 1075:1 1856:1 
1 0.09884909559246133 0:1 1:1 15:1 21:1 40:1 67:1 68:1 132:1 135:1 142:1 143:1 227:1 270:1 770:1 772:1 773:1 774:1 
1 0.10018274064826 0:1 1:1 15:1 21:1 27:1 40:1 58:1 67:1 68:1 132:1 135:1 142:1 143:1 270:1 770:1 772:1 773:1 774:1 1791:1 
0.5354383992028585 0.04993784098762666 0:1 1:1 15:1 18:1 21:1 33:1 40:1 52:1 142:1 143:1 149:1 200:1 205:1 225:1 1907:1 1909:1 
0.02820616694785607 0 1:1 15:1 17:1 18:1 27:1 29:1 31:1 34:1 35:1 36:1 39:1 195:1 304:1 1916:1 1917:1 1918:1 
0.4167760142149347 1 0:1 1:1 15:1 21:1 67:1 68:1 142:1 143:1 149:1 184:1 200:1 205:1 225:1 338:1 685:1 1921:1 
0.29221265144341 0.5268252686375606 0:1 1:1 15:1 21:1 52:1 67:1 68:1 142:1 143:1 149:1 184:1 200:1 205:1 225:1 338:1 685:1 1965:1 
0 0.05522778771505017 1:1 3:1 27:1 43:1 44:1 49:1 65:1 109:1 124:1 504:1 567:1 988:1 1166:1 1276:1 1381:1 1975:1 1976:1 
0.9293600478269806 0.125442791616798 0:1 39:1 40:1 109:1 174:1 175:1 338:1 1020:1 1987:1 
0.1320350378526768 0.05538660148667288 10:1 12:1 27:1 29:1 56:1 74:1 75:1 76:1 78:1 86:1 87:1 117:1 142:1 159:1 177:1 188:1 190:1 345:1 500:1 911:1 1991:1 1992:1 1993:1 1994:1 1995:1 
0.2651885997674184 0 33:1 40:1 74:1 76:1 78:1 82:1 253:1 411:1 412:1 1077:1 1149:1 1663:1 2010:1 2011:1 
1 0.3799763597550245 0:1 1:1 9:1 14:1 15:1 18:1 26:1 33:1 40:1 44:1 45:1 48:1 270:1 715:1 820:1 2029:1 
1 0.1421199619573393 1:1 15:1 21:1 27:1 29:1 67:1 68:1 92:1 142:1 143:1 797:1 801:1 891:1 892:1 894:1 1044:1 1087:1 
0.2499048734930947 0.02848475370138175 1:1 3:1 27:1 29:1 30:1 44:1 65:1 67:1 68:1 109:1 404:1 405:1 780:1 781:1 818:1 820:1 988:1 
0 0.229028321843037 0:1 1:1 6:1 15:1 21:1 49:1 58:1 117:1 133:1 134:1 149:1 159:1 184:1 200:1 202:1 205:1 1739:1 1740:1 2070:1 
0 0.3799042430153382 0:1 1:1 39:1 67:1 68:1 171:1 184:1 225:1 241:1 242:1 243:1 244:1 351:1 1853:1 2073:1 
0 0.4772844126789468 1:1 3:1 9:1 39:1 44:1 45:1 49:1 58:1 65:1 66:1 67:1 68:1 69:1 409:1 1423:1 
0.2960205596954772 0.5951832143998739 0:1 1:1 3:1 27:1 29:1 44:1 52:1 65:1 67:1 68:1 72:1 109:1 171:1 351:1 780:1 781:1 988:1 2184:1 2185:1 
0.9922427896072632 0.3833119714116006 0:1 1:1 14:1 15:1 21:1 26:1 48:1 52:1 67:1 68:1 142:1 143:1 1301:1 1302:1 2188:1 
0.1502841948175068 0 0:1 1:1 15:1 21:1 40:1 67:1 68:1 142:1 143:1 149:1 200:1 205:1 2193:1 2194:1 
0.4714441598474585 0.8549948541668866 0:1 1:1 3:1 33:1 40:1 44:1 65:1 82:1 109:1 124:1 270:1 498:1 679:1 988:1 1531:1 
0.2176926034756511 0 0:1 9:1 17:1 18:1 27:1 29:1 39:1 44:1 45:1 92:1 409:1 1067:1 1070:1 
0.106878752686763 0.09761597419034919 0:1 1:1 15:1 18:1 21:1 33:1 40:1 142:1 143:1 184:1 642:1 645:1 646:1 647:1 984:1 1281:1 2223:1 
0.3349251689811188 0 0:1 1:1 3:1 9:1 18:1 33:1 39:1 40:1 44:1 45:1 65:1 409:1 2245:1 2248:1 
1 0 0:1 1:1 10:1 15:1 18:1 21:1 27:1 29:1 40:1 72:1 138:1 142:1 143:1 149:1 188:1 200:1 205:1 270:1 402:1 432:1 2256:1 
0 0.009694245634850981 0:1 1:1 5:1 6:1 10:1 15:1 19:1 20:1 21:1 52:1 83:1 85:1 142:1 149:1 200:1 205:1 368:1 411:1 936:1 1578:1 2284:1 2290:1 
0 0.3362383064830969 1:1 15:1 21:1 49:1 67:1 68:1 117:1 133:1 134:1 145:1 328:1 329:1 954:1 971:1 2300:1 2301:1 2302:1 
0.1211806395450817 0 9:1 29:1 39:1 40:1 44:1 45:1 72:1 82:1 270:1 340:1 341:1 409:1 861:1 1056:1 1057:1 
0.4955823781374908 0 1:1 3:1 9:1 17:1 18:1 27:1 29:1 39:1 44:1 45:1 65:1 72:1 95:1 409:1 1468:1 1767:1 2324:1 
0.4479832221905183 0 0:1 1:1 14:1 15:1 21:1 26:1 27:1 48:1 52:1 67:1 68:1 142:1 143:1 810:1 1301:1 1302:1 2316:1 
0.2160816793387219 0 1:1 15:1 18:1 21:1 33:1 40:1 133:1 134:1 149:1 200:1 205:1 477:1 556:1 850:1 2339:1 
0.172737087771856 0.1799116876438956 0:1 1:1 19:1 21:1 40:1 67:1 68:1 86:1 138:1 142:1 143:1 169:1 171:1 345:1 351:1 414:1 415:1 712:1 968:1 2240:1 2344:1 
0 0.4096803086417454 0:1 1:1 3:1 9:1 17:1 18:1 27:1 29:1 39:1 44:1 45:1 65:1 72:1 409:1 1221:1 
0.03764090059326766 0 0:1 1:1 15:1 18:1 21:1 33:1 40:1 49:1 58:1 133:1 134:1 149:1 200:1 205:1 452:1 2427:1 2428:1 
0.2197415986963076 1 1:1 15:1 21:1 27:1 29:1 67:1 68:1 132:1 135:1 142:1 143:1 149:1 177:1 200:1 205:1 862:1 1251:1 
0 0.3369747006485863 1:1 15:1 21:1 40:1 52:1 67:1 68:1 132:1 135:1 142:1 143:1 149:1 200:1 205:1 1284:1 2188:1 2454:1 
0.1359804070785444 0.0005892468520171225 1:1 14:1 15:1 17:1 18:1 21:1 26:1 27:1 29:1 48:1 92:1 133:1 134:1 2463:1 2464:1 2465:1 2466:1 
0 0.2638144711795588 0:1 1:1 3:1 9:1 17:1 18:1 27:1 29:1 39:1 44:1 45:1 65:1 177:1 409:1 1266:1 1267:1 2483:1 
0.09789469802454497 0 1:1 3:1 9:1 17:1 18:1 27:1 39:1 44:1 45:1 65:1 409:1 1237:1 1323:1 1324:1 1325:1 
0.3309091440519871 0.271507833437299 29:1 39:1 56:1 61:1 82:1 114:1 117:1 160:1 177:1 188:1 500:1 976:1 2505:1 2506:1 2507:1 
0.7097664721418749 0.2195808632881736 1:1 9:1 14:1 15:1 18:1 26:1 40:1 43:1 44:1 45:1 48:1 49:1 95:1 117:1 754:1 1345:1 1347:1 2160:1 2543:1 
0 0.01918700141012757 1:1 3:1 9:1 39:1 44:1 45:1 49:1 52:1 65:1 66:1 67:1 68:1 69:1 409:1 2545:1 2546:1 2547:1 
1 1 0:1 1:1 9:1 14:1 15:1 18:1 26:1 29:1 43:1 44:1 45:1 48:1 49:1 72:1 1516:1 
0.4716564255562204 0.132533149023391 0:1 1:1 15:1 21:1 27:1 29:1 67:1 68:1 138:1 140:1 141:1 142:1 143:1 144:1 146:1 147:1 149:1 177:1 317:1 
1 0.7784169766653297 1:1 14:1 15:1 21:1 26:1 40:1 48:1 67:1 68:1 132:1 135:1 142:1 143:1 270:1 1643:1 
1 0.04284597572820387 1:1 14:1 15:1 18:1 21:1 26:1 33:1 40:1 48:1 58:1 142:1 143:1 1763:1 1764:1 1766:1 
0.1213021950919794 0.6466305724497817 0:1 1:1 15:1 21:1 49:1 67:1 68:1 142:1 143:1 184:1 797:1 801:1 894:1 1301:1 1302:1 1381:1 2634:1 
0 0.1408802393292508 1:1 3:1 9:1 17:1 18:1 27:1 29:1 39:1 44:1 45:1 65:1 72:1 409:1 586:1 591:1 2647:1 2667:1 
0 0.1673649631906866 0:1 39:1 56:1 58:1 61:1 114:1 160:1 180:1 184:1 397:1 399:1 400:1 2703:1 
1 0.6495182576595927 0:1 17:1 27:1 29:1 72:1 142:1 149:1 160:1 161:1 162:1 164:1 165:1 166:1 181:1 1128:1 1571:1 2453:1 
0 0.7349838399440404 0:1 1:1 15:1 18:1 56:1 133:1 149:1 167:1 180:1 184:1 200:1 498:1 679:1 2756:1 2757:1 
0.7326954025439716 0 1:1 15:1 21:1 29:1 33:1 40:1 58:1 72:1 124:1 133:1 134:1 149:1 200:1 205:1 270:1 281:1 334:1 
0.2036030408501845 0 0:1 1:1 15:1 17:1 18:1 21:1 27:1 29:1 49:1 72:1 133:1 134:1 149:1 200:1 205:1 1128:1 1430:1 1778:1 2762:1 
0 0.04010137696236246 0:1 1:1 3:1 9:1 18:1 33:1 39:1 40:1 44:1 45:1 65:1 196:1 198:1 270:1 409:1 2498:1 
0.4564809910013279 0 1:1 15:1 18:1 21:1 33:1 40:1 47:1 133:1 134:1 149:1 200:1 205:1 1154:1 2550:1 2551:1 
0.2735254310440286 0 0:1 1:1 15:1 17:1 18:1 21:1 27:1 29:1 72:1 133:1 134:1 149:1 200:1 205:1 1128:1 
0 0.4044116473762609 1:1 15:1 21:1 27:1 67:1 68:1 142:1 143:1 149:1 171:1 200:1 205:1 351:1 591:1 1757:1 
0.06631471270960818 0.03262221245945403 1:1 3:1 9:1 17:1 18:1 27:1 39:1 44:1 45:1 58:1 65:1 409:1 1237:1 1323:1 1324:1 
1 0 1:1 3:1 33:1 40:1 44:1 65:1 82:1 109:1 124:1 332:1 472:1 780:1 781:1 988:1 
0.2218040953713293 0 1:1 39:1 40:1 67:1 68:1 132:1 135:1 225:1 241:1 242:1 243:1 244:1 1416:1 1853:1 2073:1 
0.03225837327378311 0 1:1 15:1 18:1 21:1 33:1 40:1 49:1 133:1 134:1 149:1 200:1 205:1 1205:1 1623:1 1878:1 2913:1 2914:1 
1 0.3884585874730453 0:1 1:1 39:1 40:1 67:1 68:1 129:1 132:1 135:1 225:1 241:1 242:1 243:1 244:1 2073:1 
0.03352999971411096 0 1:1 15:1 18:1 21:1 52:1 60:1 142:1 143:1 149:1 200:1 205:1 2956:1 2957:1 2958:1 2959:1 
0 0.1915243840531288 0:1 1:1 15:1 21:1 52:1 67:1 68:1 142:1 143:1 149:1 171:1 200:1 351:1 2857:1 2959:1 
0.1199293892897539 0 1:1 15:1 21:1 29:1 72:1 133:1 134:1 149:1 184:1 200:1 258:1 261:1 262:1 1128:1 2638:1 2639:1 2642:1 2650:1 
0 0.3432772861227803 0:1 39:1 54:1 55:1 56:1 61:1 114:1 160:1 178:1 180:1 184:1 792:1 2985:1 2987:1 
0.3295613547249315 0 1:1 17:1 21:1 27:1 29:1 82:1 86:1 124:1 240:1 348:1 567:1 678:1 696:1 697:1 742:1 743:1 
0.1190608265378083 0 1:1 15:1 21:1 27:1 29:1 67:1 68:1 72:1 142:1 143:1 149:1 200:1 205:1 338:1 596:1 685:1 3047:1 
0.04935783193395996 0 0:1 1:1 15:1 18:1 27:1 31:1 34:1 35:1 36:1 39:1 52:1 60:1 1430:1 3067:1 
0.5018022259813866 1 0:1 1:1 15:1 21:1 27:1 29:1 49:1 67:1 68:1 138:1 140:1 142:1 143:1 146:1 147:1 195:1 305:1 404:1 405:1 801:1 1809:1 
0.01478607709878168 0 29:1 34:1 35:1 36:1 39:1 66:1 67:1 68:1 95:1 117:1 159:1 177:1 3029:1 
0.2053564961425063 0.3114812958705463 0:1 27:1 29:1 36:1 39:1 149:1 151:1 174:1 494:1 565:1 577:1 728:1 971:1 1329:1 
0.4864770969704914 0.3446411149550431 0:1 9:1 39:1 184:1 253:1 254:1 295:1 494:1 760:1 861:1 2008:1 3131:1 
0 0.139815398620855 34:1 35:1 36:1 39:1 49:1 52:1 67:1 68:1 132:1 315:1 981:1 1009:1 3133:1 
0.03070199050028971 0 1:1 15:1 18:1 21:1 33:1 40:1 133:1 134:1 149:1 200:1 205:1 1019:1 1020:1 1797:1 2554:1 
1 0.6798365959175716 0:1 1:1 10:1 15:1 21:1 33:1 40:1 58:1 124:1 142:1 143:1 358:1 362:1 2292:1 
0.1444538039611364 0.2238308599914086 0:1 9:1 27:1 29:1 39:1 52:1 72:1 253:1 254:1 295:1 861:1 1003:1 1220:1 1284:1 1848:1 2766:1 3131:1 
0 0.3314630365291514 1:1 15:1 17:1 18:1 27:1 29:1 31:1 34:1 35:1 36:1 39:1 64:1 302:1 303:1 305:1 745:1 
0 0.07842529369310774 0:1 1:1 10:1 14:1 15:1 18:1 21:1 26:1 29:1 43:1 48:1 49:1 133:1 134:1 581:1 1423:1 3102:1 
0.5276579767461708 0 0:1 39:1 47:1 49:1 109:1 175:1 295:1 526:1 527:1 1134:1 3052:1 
0.1240563579882421 0 1:1 15:1 31:1 34:1 35:1 36:1 39:1 40:1 82:1 99:1 124:1 270:1 562:1 565:1 612:1 
0.5312862726670959 0.3086056144073636 0:1 1:1 15:1 18:1 21:1 33:1 40:1 133:1 134:1 315:1 358:1 362:1 363:1 682:1 684:1 
0 0.6275309854877535 1:1 15:1 31:1 34:1 35:1 36:1 39:1 82:1 124:1 562:1 565:1 1349:1 3089:1 
0.3976817870136424 0 1:1 15:1 18:1 33:1 40:1 149:1 200:1 205:1 681:1 690:1 1360:1 1763:1 1764:1 1766:1 3266:1 
0.6513060560516607 0 0:1 1:1 15:1 21:1 29:1 49:1 66:1 67:1 68:1 69:1 72:1 138:1 142:1 143:1 149:1 200:1 205:1 1360:1 3273:1 
0 0.3123263564819851 0:1 39:1 49:1 51:1 56:1 102:1 103:1 117:1 118:1 958:1 959:1 
0 0.7108781826837631 10:1 29:1 36:1 39:1 64:1 67:1 68:1 102:1 103:1 132:1 3291:1 
0 0.4572300541642436 0:1 39:1 52:1 56:1 60:1 61:1 102:1 103:1 113:1 114:1 160:1 1217:1 2022:1 
0 1 0:1 36:1 39:1 67:1 68:1 95:1 102:1 103:1 351:1 565:1 1666:1 
0 0.2372458987764481 0:1 39:1 43:1 49:1 56:1 82:1 102:1 103:1 117:1 118:1 666:1 668:1 
0.3447663618971695 1 0:1 1:1 15:1 36:1 39:1 82:1 102:1 103:1 113:1 189:1 
0 0.5589858480663312 39:1 49:1 56:1 67:1 82:1 102:1 103:1 565:1 971:1 1038:1 1777:1 3326:1 
0.1162224047156604 0.1784851696496311 18:1 29:1 30:1 36:1 39:1 102:1 103:1 145:1 188:1 568:1 1395:1 1705:1 
0 0.3932441107047431 39:1 43:1 49:1 52:1 56:1 102:1 103:1 113:1 114:1 160:1 181:1 561:1 566:1 792:1 1971:1 3158:1 
0 0.02151495436902601 0:1 1:1 14:1 15:1 21:1 26:1 29:1 48:1 49:1 52:1 124:1 133:1 134:1 195:1 378:1 447:1 958:1 974:1 
0.3246008257281307 0 0:1 1:1 14:1 15:1 18:1 21:1 26:1 27:1 29:1 48:1 92:1 133:1 134:1 295:1 556:1 3337:1 
0 1 1:1 15:1 18:1 36:1 39:1 102:1 103:1 113:1 562:1 565:1 1659:1 1664:1 1666:1 2588:1 
0.03265626096992616 0.8051398521291759 0:1 1:1 15:1 18:1 29:1 36:1 39:1 52:1 60:1 102:1 103:1 113:1 195:1 304:1 1139:1 
0.0651223623996227 0 0:1 1:1 15:1 21:1 40:1 52:1 67:1 68:1 142:1 143:1 149:1 200:1 205:1 338:1 685:1 1886:1 2178:1 
0.09717995281007155 0 27:1 29:1 39:1 54:1 55:1 56:1 67:1 195:1 204:1 351:1 1123:1 1234:1 3356:1 
0 0.2453974206564938 1:1 17:1 18:1 27:1 29:1 39:1 56:1 102:1 103:1 113:1 114:1 195:1 304:1 1123:1 3357:1 3358:1 
1 0.3992320717574154 1:1 29:1 39:1 72:1 82:1 124:1 188:1 432:1 3359:1 3360:1 3361:1 3362:1 3363:1 
0.397348272618385 0 1:1 10:1 29:1 39:1 72:1 124:1 188:1 432:1 3359:1 3360:1 3361:1 3362:1 3363:1 3364:1 
0 0.5130724777614871 0:1 36:1 39:1 49:1 102:1 103:1 295:1 519:1 728:1 3373:1 
0 1 0:1 1:1 6:1 15:1 36:1 39:1 102:1 103:1 113:1 295:1 1702:1 
0 0.9992556473216969 1:1 15:1 18:1 36:1 39:1 52:1 60:1 102:1 103:1 113:1 422:1 425:1 426:1 2201:1 
0 1 0:1 1:1 6:1 15:1 36:1 39:1 49:1 102:1 103:1 113:1 295:1 2733:1 
0.1557634516177321 0.6002042017073296 36:1 39:1 67:1 68:1 102:1 103:1 556:1 685:1 3339:1 
0.6136331825757587 0.6259281665050915 1:1 29:1 39:1 82:1 124:1 188:1 340:1 581:1 3359:1 3360:1 3361:1 3362:1 3363:1 
0 0.6372090428488386 1:1 18:1 29:1 86:1 87:1 142:1 188:1 218:1 244:1 340:1 345:1 346:1 348:1 528:1 581:1 696:1 697:1 1995:1 
0 0.2372059812311195 0:1 5:1 10:1 36:1 39:1 102:1 103:1 184:1 728:1 3348:1 3391:1 
0.11932303148108 0 0:1 1:1 15:1 18:1 36:1 39:1 43:1 47:1 49:1 102:1 103:1 113:1 2733:1 3400:1 
0 0.1123478784284134 0:1 1:1 6:1 15:1 21:1 52:1 133:1 134:1 149:1 200:1 205:1 295:1 315:1 
0 0.6422448403796949 29:1 39:1 56:1 61:1 82:1 102:1 103:1 113:1 114:1 160:1 180:1 184:1 195:1 3383:1 3384:1 
0 0.4543672954222236 0:1 5:1 36:1 39:1 102:1 103:1 182:1 184:1 728:1 1921:1 
0 0.1430437026931937 0:1 29:1 54:1 56:1 64:1 114:1 160:1 178:1 181:1 187:1 188:1 376:1 377:1 380:1 3418:1 
0.7325085163881236 0.07602048597176929 0:1 1:1 14:1 15:1 26:1 48:1 82:1 109:1 124:1 794:1 958:1 3426:1 
0 0.243494445390995 1:1 18:1 39:1 49:1 52:1 56:1 60:1 102:1 103:1 113:1 114:1 973:1 3122:1 3123:1 3124:1 3373:1 
0 0.7088347693329394 1:1 15:1 18:1 29:1 36:1 39:1 102:1 103:1 113:1 188:1 340:1 581:1 760:1 973:1 
0.1217364418785559 0.312700065919146 0:1 39:1 49:1 56:1 67:1 102:1 103:1 117:1 159:1 523:1 1038:1 2096:1 3326:1 
0 1 0:1 1:1 15:1 18:1 29:1 36:1 39:1 102:1 103:1 113:1 117:1 177:1 188:1 500:1 754:1 
0 0.9084615062271445 0:1 39:1 49:1 56:1 67:1 102:1 103:1 113:1 114:1 160:1 535:1 543:1 1234:1 3446:1 
0 0.4255885753980262 1:1 21:1 29:1 39:1 82:1 124:1 188:1 340:1 411:1 412:1 581:1 1756:1 2010:1 
0 0.04049387192813993 39:1 54:1 55:1 56:1 66:1 67:1 930:1 3356:1 
0.03685568932513011 0 1:1 14:1 15:1 17:1 18:1 21:1 26:1 27:1 29:1 48:1 133:1 134:1 195:1 304:1 1123:1 3357:1 3358:1 
0 1 0:1 1:1 6:1 15:1 36:1 39:1 102:1 103:1 113:1 295:1 
0.7342332508222447 0.4185761519597653 0:1 1:1 15:1 19:1 20:1 21:1 68:1 149:1 184:1 200:1 519:1 713:1 714:1 3384:1 
0.2870862251360278 0 0:1 1:1 15:1 18:1 31:1 33:1 34:1 35:1 36:1 39:1 40:1 402:1 
0 0.9329986164033548 0:1 1:1 15:1 21:1 67:1 68:1 142:1 143:1 149:1 184:1 200:1 205:1 338:1 685:1 
0 0.6391401500781981 1:1 15:1 21:1 82:1 133:1 134:1 149:1 200:1 205:1 832:1 834:1 3473:1 
0 0.005057906240710707 1:1 15:1 18:1 21:1 52:1 58:1 60:1 142:1 143:1 149:1 200:1 205:1 2956:1 2957:1 2959:1 
0.2096961487030913 0.5293639026846325 1:1 15:1 21:1 49:1 66:1 67:1 68:1 69:1 138:1 142:1 143:1 149:1 565:1 812:1 971:1 2720:1 2801:1 2803:1 2804:1 2914:1 
0 0.07800306645158006 1:1 39:1 49:1 54:1 55:1 56:1 67:1 68:1 114:1 117:1 159:1 178:1 1554:1 1557:1 3520:1 
0.8971883051350769 0 1:1 21:1 29:1 39:1 72:1 82:1 124:1 133:1 134:1 188:1 432:1 1755:1 1756:1 
0.1793418753520111 0 0:1 1:1 15:1 18:1 21:1 29:1 72:1 138:1 142:1 143:1 149:1 188:1 200:1 205:1 411:1 432:1 487:1 574:1 961:1 3530:1 
0 0.2745328298087195 0:1 1:1 14:1 15:1 18:1 21:1 26:1 43:1 48:1 49:1 133:1 134:1 803:1 3004:1 3005:1 
0 1 0:1 1:1 14:1 15:1 18:1 21:1 26:1 48:1 133:1 134:1 180:1 184:1 1334:1 
0.7023449936560467 0.6330934203537744 0:1 1:1 15:1 18:1 19:1 20:1 21:1 27:1 33:1 40:1 277:1 279:1 797:1 801:1 1327:1 
0 0.2888918183712303 0:1 1:1 15:1 21:1 52:1 67:1 68:1 142:1 143:1 149:1 171:1 200:1 205:1 351:1 
0.3909618993285209 0 1:1 15:1 21:1 40:1 67:1 68:1 142:1 143:1 149:1 171:1 200:1 205:1 351:1 1886:1 2084:1 
1 0 1:1 21:1 29:1 39:1 72:1 82:1 124:1 133:1 134:1 188:1 432:1 1755:1 1756:1 
1 1 0:1 1:1 15:1 36:1 39:1 67:1 68:1 184:1 404:1 405:1 3507:1 
0.1519514506175557 0.3746828049056126 27:1 29:1 39:1 109:1 117:1 175:1 177:1 295:1 494:1 911:1 976:1 1518:1 2385:1 2386:1 2644:1 
0.04760832924832935 0.02145126666469482 0:1 1:1 15:1 18:1 52:1 60:1 565:1 690:1 975:1 2385:1 3727:1 3728:1 3734:1 
0.5089089132991634 0 0:1 10:1 17:1 27:1 29:1 30:1 39:1 56:1 114:1 160:1 181:1 397:1 399:1 400:1 
1 1 0:1 19:1 20:1 21:1 33:1 40:1 86:1 95:1 114:1 160:1 181:1 497:1 498:1 766:1 767:1 870:1 871:1 
1 0.1413826204831811 1:1 39:1 56:1 67:1 68:1 114:1 482:1 483:1 485:1 543:1 544:1 
0 0.2105452359780338 0:1 1:1 18:1 21:1 29:1 52:1 60:1 64:1 86:1 348:1 696:1 697:1 742:1 743:1 843:1 1215:1 
0.6285273187822812 0 0:1 1:1 3:1 9:1 18:1 29:1 33:1 39:1 40:1 44:1 45:1 65:1 92:1 409:1 1067:1 1068:1 1070:1 
1 0.000757625342632291 0:1 1:1 15:1 17:1 18:1 27:1 107:1 108:1 109:1 149:1 200:1 205:1 870:1 871:1 1849:1 
1 0.3203719999927045 0:1 1:1 21:1 27:1 29:1 67:1 68:1 72:1 132:1 135:1 142:1 143:1 697:1 
0.01904664128356279 0 1:1 3:1 9:1 39:1 40:1 44:1 45:1 49:1 51:1 65:1 66:1 67:1 68:1 69:1 409:1 549:1 565:1 1370:1 2182:1 
0.4486137494580861 0.2478634469900271 0:1 33:1 40:1 56:1 61:1 82:1 114:1 142:1 149:1 160:1 779:1 780:1 781:1 1571:1 2453:1 3812:1 
0 0.07993784104560411 0:1 1:1 5:1 6:1 10:1 15:1 21:1 29:1 40:1 64:1 142:1 143:1 149:1 200:1 205:1 270:1 366:1 368:1 629:1 
0 0.08419184330371071 0:1 1:1 10:1 19:1 33:1 40:1 58:1 86:1 142:1 244:1 332:1 345:1 346:1 348:1 472:1 696:1 697:1 936:1 941:1 1375:1 
0.09209080949134757 1 0:1 1:1 15:1 21:1 49:1 67:1 68:1 117:1 132:1 135:1 142:1 143:1 149:1 200:1 423:1 1232:1 2097:1 
0 0.3134553882074049 0:1 1:1 15:1 18:1 21:1 43:1 49:1 117:1 133:1 134:1 149:1 157:1 159:1 200:1 205:1 382:1 385:1 
0 0.04335418532975584 0:1 1:1 5:1 6:1 15:1 21:1 27:1 29:1 64:1 133:1 134:1 149:1 200:1 205:1 653:1 
1 0.5763096239916323 0:1 1:1 14:1 15:1 19:1 20:1 21:1 26:1 40:1 58:1 66:1 67:1 68:1 69:1 321:1 684:1 
0.1494775842650469 0.2332212239904584 0:1 1:1 15:1 18:1 21:1 40:1 43:1 49:1 117:1 149:1 159:1 200:1 205:1 270:1 1165:1 1837:1 3643:1 3644:1 
1 0.8047386073210949 0:1 1:1 9:1 14:1 15:1 26:1 44:1 45:1 48:1 49:1 67:1 68:1 117:1 235:1 1347:1 2193:1 2194:1 
1 0.1610403279116472 0:1 1:1 15:1 21:1 27:1 40:1 67:1 68:1 142:1 143:1 797:1 801:1 891:1 892:1 894:1 4008:1 
0.5725336198466412 0 1:1 15:1 21:1 33:1 40:1 58:1 124:1 133:1 134:1 149:1 200:1 205:1 334:1 2375:1 2376:1 
0.2697417814367254 0 0:1 1:1 15:1 21:1 29:1 40:1 67:1 68:1 142:1 143:1 195:1 328:1 329:1 1319:1 1772:1 1773:1 1774:1 
1 0.373582647382287 0:1 1:1 6:1 15:1 107:1 108:1 109:1 149:1 184:1 200:1 205:1 295:1 855:1 2079:1 2559:1 
0.09844971880063205 0 1:1 3:1 9:1 17:1 18:1 27:1 29:1 39:1 44:1 45:1 65:1 92:1 409:1 1276:1 1916:1 1917:1 1918:1 
0 0.1438982695792323 1:1 3:1 9:1 17:1 18:1 27:1 39:1 44:1 45:1 65:1 409:1 1414:1 1416:1 1925:1 4079:1 
0 0.1121328494174435 1:1 15:1 18:1 27:1 43:1 49:1 56:1 133:1 149:1 167:1 200:1 335:1 476:1 498:1 679:1 1017:1 2077:1 2152:1 
0.1594094506459742 0 0:1 27:1 29:1 39:1 109:1 174:1 175:1 195:1 526:1 527:1 3197:1 
0 0.114467915179604 0:1 29:1 39:1 64:1 109:1 175:1 295:1 494:1 526:1 527:1 
0.3700235292387754 0.3043381138170815 1:1 15:1 21:1 49:1 67:1 68:1 327:1 328:1 329:1 330:1 331:1 411:1 412:1 1097:1 3520:1 
0.2096207390887281 0.183580908959741 0:1 1:1 29:1 39:1 49:1 67:1 68:1 92:1 225:1 241:1 242:1 243:1 244:1 410:1 413:1 2073:1 4119:1 
0.05814262170600367 0.112660842044717 0:1 1:1 15:1 18:1 19:1 33:1 40:1 136:1 142:1 423:1 549:1 551:1 629:1 688:1 689:1 690:1 968:1 1032:1 1034:1 1571:1 2344:1 3785:1 
0.01426476552528568 0 1:1 15:1 18:1 21:1 33:1 40:1 133:1 134:1 149:1 200:1 205:1 332:1 472:1 1053:1 2898:1 
0.1516835191057327 0.09401182205556288 0:1 39:1 40:1 204:1 225:1 243:1 244:1 295:1 342:1 494:1 1169:1 2073:1 2177:1 
0.07038180565267217 0 0:1 1:1 15:1 21:1 52:1 67:1 68:1 328:1 329:1 411:1 412:1 2300:1 2301:1 2302:1 
0.3387226268270216 0.07712620112967419 0:1 1:1 15:1 18:1 27:1 29:1 40:1 43:1 49:1 56:1 99:1 112:1 149:1 200:1 318:1 411:1 498:1 612:1 679:1 1412:1 1617:1 
0 0.1249984665063156 0:1 5:1 39:1 184:1 225:1 243:1 244:1 342:1 556:1 2073:1 4141:1 4183:1 
0.8721392285195168 0.2322381287959286 0:1 5:1 18:1 39:1 494:1 4184:1 4185:1 4186:1 
0.07855493909410946 0.2736577155626647 0:1 1:1 15:1 21:1 40:1 67:1 68:1 142:1 143:1 149:1 200:1 552:1 1038:1 1942:1 3207:1 
0 0.2346679433310516 1:1 3:1 9:1 18:1 33:1 39:1 40:1 44:1 45:1 49:1 65:1 409:1 843:1 1468:1 1767:1 3008:1 3523:1 
0.1770666075103006 0.03605989691181748 1:1 15:1 18:1 21:1 40:1 43:1 49:1 133:1 134:1 292:1 293:1 797:1 801:1 894:1 1214:1 1215:1 1216:1 
0.7023329788473585 0.07949119714316263 0:1 61:1 82:1 114:1 160:1 271:1 273:1 899:1 2082:1 2639:1 
0.05533350805816424 0.06524335829935682 0:1 1:1 3:1 9:1 18:1 33:1 39:1 40:1 44:1 45:1 65:1 409:1 1114:1 4230:1 4232:1 
0.2106081011707379 0.4984598722302185 0:1 1:1 15:1 18:1 21:1 33:1 40:1 142:1 143:1 149:1 200:1 423:1 917:1 1232:1 2557:1 
0 0.1455675580127205 0:1 1:1 15:1 17:1 18:1 21:1 27:1 29:1 133:1 134:1 149:1 177:1 200:1 205:1 1196:1 
0.03426970341934956 0 1:1 3:1 9:1 39:1 40:1 44:1 45:1 65:1 66:1 67:1 68:1 69:1 270:1 409:1 735:1 
1 0.500528309168084 0:1 1:1 15:1 21:1 29:1 52:1 64:1 67:1 68:1 142:1 143:1 327:1 328:1 329:1 330:1 1728:1 2973:1 
0.5377453291802969 0 1:1 15:1 29:1 31:1 34:1 35:1 36:1 39:1 64:1 82:1 124:1 187:1 188:1 1056:1 1057:1 
0 0.06178061531245704 1:1 15:1 18:1 29:1 31:1 34:1 35:1 36:1 39:1 64:1 187:1 188:1 407:1 4293:1 
1 0.07955476326541659 0:1 1:1 15:1 21:1 27:1 29:1 30:1 67:1 68:1 133:1 134:1 149:1 200:1 205:1 513:1 514:1 
0.1292297522859043 0.2622310657825592 0:1 27:1 39:1 225:1 243:1 244:1 295:1 342:1 494:1 1797:1 1922:1 2073:1 
0.07357414094088317 0.4107016968813255 0:1 1:1 15:1 21:1 49:1 67:1 68:1 117:1 133:1 134:1 149:1 159:1 200:1 205:1 565:1 971:1 1328:1 2295:1 2562:1 
0.3327671607119528 0 0:1 1:1 15:1 21:1 27:1 40:1 49:1 67:1 68:1 142:1 143:1 149:1 200:1 205:1 1177:1 1178:1 1853:1 4008:1 
0 0.3509433937848838 0:1 1:1 6:1 15:1 49:1 117:1 133:1 149:1 164:1 165:1 166:1 167:1 200:1 295:1 706:1 954:1 1300:1 
0.03998690249334769 0 1:1 3:1 9:1 27:1 39:1 44:1 45:1 65:1 66:1 67:1 68:1 69:1 409:1 567:1 1850:1 
0.3373189610894876 0.8194410138833252 0:1 1:1 19:1 20:1 21:1 40:1 43:1 49:1 52:1 117:1 124:1 159:1 182:1 242:1 812:1 813:1 1281:1 1634:1 1659:1 1666:1 
0.01297492746504842 0 1:1 39:1 40:1 67:1 68:1 132:1 135:1 225:1 241:1 242:1 243:1 244:1 2073:1 2238:1 2240:1 
0.03938510858190066 0.2250003545091268 0:1 1:1 21:1 27:1 29:1 67:1 68:1 86:1 177:1 348:1 433:1 696:1 697:1 742:1 743:1 2878:1 3430:1 
0.1184471957906169 0 0:1 1:1 15:1 29:1 67:1 68:1 132:1 135:1 149:1 195:1 200:1 304:1 690:1 3727:1 3728:1 
0 0.05856244878784488 0:1 39:1 49:1 54:1 55:1 56:1 114:1 160:1 178:1 180:1 181:1 184:1 953:1 
0 0.06782447531165581 0:1 1:1 15:1 21:1 67:1 68:1 133:1 134:1 149:1 200:1 205:1 328:1 329:1 565:1 2882:1 
0.1482962556241091 0.3078826884305318 0:1 1:1 21:1 29:1 39:1 64:1 124:1 133:1 134:1 187:1 188:1 433:1 1755:1 1756:1 
0.1888499596511926 0 0:1 1:1 15:1 18:1 31:1 33:1 34:1 35:1 36:1 39:1 40:1 521:1 1030:1 3342:1 
0 0.03003730092071047 0:1 1:1 15:1 21:1 29:1 67:1 68:1 142:1 143:1 328:1 329:1 581:1 1772:1 1773:1 1774:1 
0.03174448783429569 0 1:1 15:1 21:1 29:1 58:1 67:1 68:1 142:1 143:1 195:1 328:1 329:1 1772:1 1773:1 1774:1 
0 0.05328716285012206 39:1 54:1 55:1 56:1 61:1 114:1 160:1 178:1 180:1 184:1 792:1 977:1 3820:1 3823:1 
0.5695011453322771 0.2705893032469848 0:1 1:1 15:1 19:1 20:1 21:1 29:1 52:1 60:1 64:1 107:1 124:1 936:1 1012:1 1797:1 3361:1 3832:1 
0.4672051376744459 0.1393958286531821 0:1 1:1 15:1 21:1 49:1 67:1 68:1 117:1 142:1 143:1 171:1 327:1 330:1 331:1 351:1 2882:1 3003:1 3530:1 
0.01078985466304584 0 0:1 29:1 34:1 35:1 36:1 39:1 52:1 60:1 72:1 2596:1 
0.3264320175080677 0.09703270164251364 0:1 56:1 86:1 89:1 114:1 138:1 142:1 160:1 180:1 181:1 184:1 218:1 348:1 629:1 912:1 914:1 1991:1 1992:1 3794:1 
0 0.5390337132984746 29:1 39:1 54:1 55:1 56:1 64:1 114:1 160:1 178:1 181:1 187:1 188:1 407:1 977:1 1056:1 1057:1 
0.1082818775041747 0 29:1 34:1 35:1 36:1 39:1 64:1 95:1 124:1 187:1 188:1 2622:1 
0.1115528514175542 0 33:1 39:1 40:1 49:1 51:1 54:1 55:1 56:1 61:1 120:1 598:1 2111:1 2497:1 4514:1 
0.1565354363966771 0 27:1 29:1 39:1 54:1 55:1 56:1 67:1 72:1 114:1 160:1 178:1 488:1 513:1 514:1 1234:1 3555:1 
0 0.3698140683458436 1:1 15:1 21:1 49:1 67:1 68:1 142:1 143:1 328:1 329:1 476:1 1772:1 1773:1 1774:1 4534:1 
0 0.155760912706544 29:1 39:1 49:1 52:1 54:1 55:1 56:1 60:1 61:1 114:1 160:1 178:1 195:1 334:1 1028:1 1233:1 3071:1 
0.5185355463762168 0 27:1 29:1 39:1 54:1 55:1 56:1 61:1 64:1 187:1 188:1 337:1 4364:1 
0.818329913974291 0 1:1 15:1 21:1 33:1 40:1 52:1 82:1 124:1 133:1 134:1 149:1 200:1 205:1 293:1 489:1 687:1 
0.7720543601296871 0 0:1 1:1 15:1 29:1 66:1 67:1 68:1 69:1 149:1 200:1 207:1 240:1 414:1 415:1 688:1 689:1 690:1 
0.05329253649897073 0.2291753539328648 0:1 1:1 15:1 17:1 18:1 21:1 27:1 49:1 52:1 142:1 143:1 149:1 200:1 205:1 336:1 337:1 2036:1 2068:1 
0.009939015630631549 0 0:1 29:1 39:1 54:1 55:1 56:1 61:1 64:1 114:1 160:1 178:1 184:1 187:1 188:1 258:1 2977:1 
0.02627194938876153 0 0:1 29:1 39:1 54:1 55:1 56:1 61:1 64:1 114:1 160:1 178:1 184:1 187:1 188:1 258:1 2977:1 
0 0.300931128761357 0:1 1:1 15:1 29:1 64:1 67:1 68:1 132:1 135:1 149:1 200:1 690:1 798:1 799:1 960:1 
0.3194502194707101 0 0:1 43:1 49:1 54:1 56:1 61:1 82:1 106:1 114:1 160:1 178:1 376:1 377:1 380:1 4078:1 
0.02100034829895255 0 0:1 1:1 3:1 18:1 33:1 40:1 44:1 65:1 109:1 218:1 504:1 988:1 1166:1 2776:1 2778:1 
0.2548657896427496 0.009131788611088999 1:1 15:1 29:1 36:1 39:1 49:1 67:1 68:1 112:1 328:1 329:1 916:1 2385:1 2386:1 3568:1 3734:1 
0.8175835355671077 0.1379788389301811 0:1 1:1 15:1 21:1 27:1 29:1 40:1 67:1 68:1 142:1 143:1 151:1 270:1 327:1 330:1 331:1 338:1 685:1 726:1 
1 0.2410647131804061 0:1 1:1 3:1 18:1 33:1 40:1 44:1 65:1 109:1 504:1 988:1 1166:1 
1 0 0:1 1:1 15:1 21:1 40:1 67:1 68:1 142:1 143:1 149:1 200:1 205:1 1177:1 1178:1 2046:1 
0.314482075900811 0.02037658176802534 1:1 3:1 18:1 33:1 40:1 44:1 65:1 109:1 721:1 780:1 781:1 988:1 1205:1 1623:1 1876:1 2544:1 
0 0.1151359521483621 0:1 29:1 30:1 39:1 56:1 102:1 103:1 113:1 114:1 151:1 160:1 181:1 188:1 568:1 738:1 
0 0.01851580496843522 17:1 27:1 29:1 39:1 56:1 102:1 103:1 113:1 114:1 160:1 181:1 240:1 479:1 706:1 2136:1 2622:1 
0 0.1496383525178085 0:1 1:1 15:1 18:1 31:1 34:1 35:1 36:1 39:1 180:1 184:1 315:1 1154:1 
0 0.4240646929703133 1:1 3:1 9:1 29:1 39:1 44:1 45:1 65:1 66:1 67:1 68:1 69:1 117:1 159:1 177:1 409:1 2359:1 
0.1110856759498176 0 1:1 21:1 29:1 39:1 64:1 82:1 124:1 133:1 134:1 187:1 188:1 1755:1 1756:1 
1 0.4760385399786772 1:1 15:1 21:1 29:1 52:1 58:1 67:1 68:1 132:1 135:1 142:1 143:1 149:1 151:1 200:1 207:1 261:1 262:1 1003:1 
0.2464721321432408 0 34:1 35:1 36:1 39:1 40:1 67:1 68:1 184:1 258:1 404:1 595:1 1925:1 4079:1 
0.4024248969625847 0 0:1 18:1 33:1 34:1 35:1 36:1 39:1 40:1 95:1 565:1 971:1 1152:1 
0.98317619171613 0.5046891083931878 1:1 3:1 9:1 27:1 29:1 66:1 67:1 68:1 69:1 85:1 240:1 251:1 253:1 254:1 310:1 1408:1 2024:1 
0.7281228413498435 0.2388735688013413 0:1 1:1 39:1 52:1 67:1 68:1 150:1 230:1 338:1 685:1 697:1 
1 1 1:1 3:1 9:1 66:1 67:1 68:1 69:1 85:1 251:1 253:1 254:1 310:1 2168:1 
0 0.3422258150601752 1:1 15:1 21:1 27:1 29:1 40:1 67:1 68:1 117:1 142:1 143:1 149:1 151:1 200:1 270:1 338:1 614:1 685:1 812:1 813:1 1319:1 4105:1 
0.03492984411698882 0 0:1 1:1 40:1 67:1 68:1 184:1 270:1 338:1 685:1 690:1 697:1 
0.1254051619059488 0.6526268190061064 0:1 1:1 15:1 21:1 29:1 52:1 67:1 68:1 117:1 132:1 135:1 142:1 143:1 149:1 151:1 159:1 200:1 2858:1 2859:1 
-1 0.2034730682466848 0:1 1:1 14:1 15:1 17:1 18:1 19:1 20:1 21:1 26:1 27:1 29:1 30:1 
-0 1 0:1 1:1 9:1 14:1 15:1 18:1 26:1 43:1 44:1 45:1 47:1 48:1 49:1 51:1 52:1 
-0.5517042371380532 0 0:1 18:1 33:1 34:1 35:1 36:1 39:1 40:1 49:1 51:1 95:1 96:1 97:1 99:1 
-1 0.9604197549860007 0:1 18:1 36:1 39:1 43:1 49:1 51:1 58:1 102:1 103:1 106:1 
-0 1 0:1 1:1 3:1 9:1 29:1 39:1 44:1 45:1 65:1 66:1 67:1 68:1 69:1 73:1 195:1 
-0.003265862602056327 0 0:1 19:1 20:1 21:1 29:1 52:1 60:1 61:1 82:1 92:1 114:1 149:1 160:1 205:1 212:1 214:1 215:1 
-0.1088479694179267 0 0:1 1:1 15:1 21:1 27:1 29:1 67:1 68:1 117:1 132:1 135:1 142:1 143:1 151:1 235:1 259:1 261:1 262:1 263:1 
-0.6297334171218741 0 0:1 1:1 6:1 15:1 40:1 107:1 108:1 109:1 129:1 149:1 200:1 205:1 295:1 
-0.7697506816855568 0 1:1 15:1 21:1 40:1 58:1 67:1 68:1 142:1 143:1 327:1 328:1 329:1 330:1 331:1 332:1 
-0.4643497687913226 0 1:1 15:1 33:1 40:1 107:1 108:1 109:1 124:1 149:1 200:1 205:1 333:1 334:1 335:1 
-0.007801844530893909 0.06948314254239957 0:1 1:1 15:1 18:1 21:1 33:1 40:1 133:1 134:1 358:1 359:1 362:1 363:1 364:1 
-0.0685775472762513 0 0:1 39:1 49:1 67:1 68:1 171:1 225:1 243:1 244:1 246:1 351:1 440:1 
-0.03568302695006666 0 0:1 5:1 39:1 40:1 58:1 109:1 175:1 270:1 461:1 462:1 463:1 465:1 
-0.4326255012199016 0 0:1 1:1 3:1 9:1 12:1 13:1 66:1 67:1 68:1 69:1 186:1 190:1 191:1 
-0.006569730863656862 0 29:1 39:1 56:1 57:1 61:1 92:1 188:1 482:1 483:1 484:1 
-0.5647318519729784 0.1049123977949829 0:1 10:1 33:1 40:1 58:1 61:1 86:1 114:1 160:1 229:1 230:1 332:1 472:1 497:1 498:1 
-0 0.1125034306142445 0:1 33:1 40:1 49:1 56:1 58:1 114:1 160:1 181:1 182:1 225:1 336:1 337:1 501:1 504:1 505:1 
-0.0492228626372146 0 1:1 9:1 14:1 15:1 26:1 40:1 44:1 45:1 48:1 66:1 67:1 68:1 69:1 431:1 
-0 0.04337597021575067 0:1 1:1 39:1 52:1 56:1 67:1 68:1 114:1 271:1 273:1 274:1 513:1 514:1 515:1 
-0.164897434477616 0.09389733480156891 1:1 15:1 18:1 21:1 29:1 87:1 92:1 125:1 142:1 143:1 149:1 188:1 200:1 205:1 484:1 547:1 548:1 
-0.4506976226492528 0 0:1 1:1 27:1 29:1 39:1 56:1 64:1 67:1 68:1 114:1 482:1 483:1 485:1 543:1 544:1 554:1 
-0 0.2692958817597528 1:1 29:1 39:1 67:1 68:1 117:1 159:1 177:1 225:1 241:1 242:1 243:1 244:1 246:1 252:1 255:1 576:1 
-0 0.1157411529424055 1:1 3:1 9:1 39:1 40:1 44:1 45:1 65:1 66:1 67:1 68:1 69:1 301:1 670:1 671:1 
-0 0.2516595291906918 0:1 1:1 15:1 36:1 39:1 40:1 49:1 67:1 68:1 270:1 410:1 413:1 567:1 673:1 674:1 675:1 677:1 
-0.1162707350069983 0 0:1 1:1 33:1 40:1 79:1 80:1 81:1 82:1 83:1 84:1 86:1 87:1 124:1 345:1 411:1 696:1 697:1 
-0.3158690637945594 0.50285458032397 0:1 1:1 9:1 14:1 15:1 26:1 29:1 40:1 44:1 45:1 48:1 66:1 67:1 68:1 69:1 177:1 723:1 
-0 0.4480550776733422 0:1 1:1 21:1 67:1 68:1 85:1 89:1 132:1 135:1 142:1 143:1 184:1 223:1 224:1 310:1 730:1 
-0.1228706551305797 0 0:1 27:1 36:1 39:1 40:1 67:1 68:1 556:1 685:1 862:1 863:1 
-0.55695121615498 0 0:1 36:1 39:1 40:1 125:1 126:1 338:1 340:1 341:1 728:1 871:1 
-0.4591458442125264 0 1:1 15:1 21:1 29:1 67:1 68:1 72:1 142:1 143:1 797:1 801:1 891:1 892:1 893:1 894:1 
-0 0.1104037497211576 0:1 1:1 15:1 49:1 67:1 68:1 107:1 108:1 109:1 252:1 255:1 358:1 362:1 363:1 565:1 908:1 964:1 
-1 0 1:1 15:1 21:1 33:1 40:1 82:1 124:1 142:1 143:1 149:1 200:1 205:1 293:1 687:1 
-0 0.1157932667425908 1:1 3:1 9:1 39:1 40:1 44:1 45:1 65:1 66:1 67:1 68:1 69:1 301:1 520:1 521:1 
-0 0.1516474769713388 1:1 3:1 9:1 39:1 40:1 44:1 45:1 65:1 66:1 67:1 68:1 69:1 73:1 927:1 
-1 1 0:1 1:1 15:1 29:1 36:1 39:1 52:1 67:1 68:1 195:1 404:1 405:1 
-0 0.1461843588650849 1:1 3:1 9:1 40:1 52:1 66:1 67:1 68:1 69:1 85:1 129:1 251:1 253:1 254:1 310:1 1076:1 
-0 0.01903596502608414 1:1 3:1 9:1 27:1 29:1 66:1 67:1 68:1 69:1 72:1 85:1 251:1 253:1 254:1 310:1 1077:1 
-0 1 0:1 1:1 3:1 9:1 27:1 29:1 67:1 68:1 72:1 85:1 132:1 135:1 225:1 251:1 253:1 254:1 310:1 551:1 
-0 0.2830936597571164 0:1 1:1 3:1 9:1 27:1 29:1 30:1 39:1 67:1 68:1 132:1 135:1 251:1 253:1 254:1 1092:1 1093:1 
-0.171790514223308 0 0:1 10:1 39:1 40:1 56:1 295:1 482:1 483:1 959:1 1118:1 
-0.2192769101543104 0.3319653102687822 0:1 9:1 39:1 40:1 135:1 174:1 253:1 254:1 861:1 911:1 1093:1 1143:1 
-0 0.01905529125748145 1:1 3:1 9:1 27:1 29:1 66:1 67:1 68:1 69:1 72:1 85:1 251:1 253:1 254:1 310:1 1156:1 
-0.2470865121757118 0 1:1 3:1 17:1 18:1 27:1 29:1 44:1 65:1 72:1 109:1 780:1 781:1 988:1 1029:1 1171:1 1172:1 1173:1 
-0.03865526431057616 0.06087844530735637 0:1 1:1 14:1 15:1 21:1 26:1 27:1 48:1 67:1 68:1 142:1 143:1 1177:1 1178:1 1180:1 
-0.08571335279639727 0 1:1 15:1 21:1 40:1 67:1 68:1 138:1 142:1 143:1 327:1 328:1 329:1 330:1 331:1 688:1 1105:1 1212:1 
-0.2028676911583311 0.1651143888401804 1:1 9:1 14:1 15:1 18:1 26:1 43:1 44:1 45:1 47:1 48:1 49:1 52:1 1214:1 1215:1 1216:1 1217:1 
-0 0.05718268398844046 1:1 3:1 9:1 27:1 29:1 66:1 67:1 68:1 69:1 72:1 85:1 225:1 251:1 253:1 254:1 310:1 551:1 1078:1 
-0.3593720263256185 0 0:1 1:1 10:1 15:1 21:1 40:1 142:1 143:1 149:1 200:1 202:1 414:1 415:1 441:1 442:1 769:1 969:1 1226:1 1230:1 
-0.5015908063617038 0 19:1 20:1 21:1 40:1 67:1 129:1 149:1 160:1 161:1 162:1 164:1 205:1 270:1 402:1 543:1 1234:1 1235:1 
-0.8866756363020813 0 0:1 1:1 3:1 6:1 27:1 29:1 44:1 65:1 67:1 72:1 109:1 780:1 781:1 948:1 988:1 1128:1 1245:1 
-0 0.6641843294622095 1:1 3:1 9:1 39:1 44:1 45:1 65:1 66:1 67:1 68:1 69:1 73:1 1248:1 
-0 0.2011295368062097 0:1 1:1 3:1 9:1 39:1 40:1 44:1 45:1 49:1 65:1 66:1 67:1 68:1 69:1 73:1 1205:1 1258:1 
-0 0.1367519417570513 0:1 10:1 12:1 15:1 52:1 244:1 295:1 326:1 1268:1 1269:1 1270:1 1271:1 1273:1 1274:1 
-0.2070334283947091 0 1:1 3:1 9:1 12:1 13:1 27:1 29:1 66:1 67:1 68:1 69:1 92:1 251:1 253:1 254:1 1044:1 1277:1 
-0.0688083611207084 0.07735156232218185 0:1 29:1 39:1 64:1 109:1 175:1 295:1 461:1 462:1 466:1 1174:1 
-0.1090145280200729 0.3598934526413416 0:1 1:1 3:1 9:1 27:1 29:1 39:1 67:1 68:1 151:1 251:1 253:1 254:1 320:1 1301:1 1302:1 
-0 0.2282379439964372 0:1 19:1 20:1 21:1 29:1 114:1 149:1 160:1 205:1 212:1 214:1 295:1 313:1 581:1 1307:1 
-0.06722042566250278 0 0:1 5:1 10:1 39:1 40:1 109:1 175:1 270:1 427:1 428:1 1321:1 
-1 0.4873762691347381 0:1 1:1 9:1 14:1 15:1 17:1 18:1 26:1 27:1 44:1 45:1 48:1 706:1 1345:1 1347:1 
-0 0.1054204283250961 0:1 1:1 2:1 3:1 7:1 8:1 9:1 27:1 29:1 30:1 49:1 66:1 67:1 68:1 69:1 85:1 310:1 997:1 
-0 0.2864239137319088 0:1 9:1 39:1 40:1 44:1 45:1 68:1 95:1 301:1 713:1 714:1 1430:1 
-0.2242329227580515 0 0:1 5:1 29:1 39:1 49:1 109:1 112:1 175:1 222:1 427:1 428:1 466:1 1443:1 
-0 0.3392193550935366 0:1 1:1 19:1 27:1 67:1 68:1 132:1 135:1 149:1 225:1 241:1 242:1 243:1 244:1 551:1 936:1 1454:1 1457:1 
-0.1798340187194138 0 0:1 1:1 6:1 10:1 15:1 19:1 20:1 21:1 27:1 149:1 200:1 202:1 205:1 441:1 442:1 551:1 936:1 1457:1 
-0 0.4308672011065478 0:1 1:1 3:1 9:1 18:1 39:1 44:1 45:1 52:1 60:1 65:1 73:1 1329:1 1480:1 
-0 0.7334539784589477 0:1 39:1 109:1 174:1 175:1 338:1 427:1 428:1 565:1 
-0.08083304423477558 0 1:1 15:1 18:1 33:1 40:1 52:1 58:1 107:1 108:1 109:1 149:1 200:1 205:1 270:1 281:1 282:1 1502:1 
-0.2395363242159582 0.1333670105455481 0:1 39:1 49:1 109:1 175:1 261:1 295:1 494:1 1146:1 1516:1 1517:1 1518:1 
-0 0.08805171778914925 0:1 1:1 3:1 9:1 18:1 33:1 39:1 40:1 44:1 45:1 52:1 65:1 73:1 1003:1 1198:1 1200:1 
-1 0.8841394078125424 0:1 1:1 3:1 9:1 12:1 13:1 27:1 66:1 67:1 68:1 69:1 531:1 533:1 534:1 
-0 0.3285333591555627 0:1 1:1 3:1 9:1 39:1 52:1 67:1 68:1 132:1 135:1 251:1 253:1 254:1 320:1 1563:1 
-0.600083027051774 0.1779961693751192 0:1 1:1 5:1 6:1 10:1 15:1 40:1 142:1 149:1 200:1 205:1 244:1 477:1 936:1 1571:1 1634:1 1635:1 
-0.1646237491016522 0.6068174163575861 0:1 1:1 15:1 21:1 40:1 52:1 68:1 138:1 142:1 143:1 416:1 519:1 619:1 622:1 623:1 713:1 714:1 1643:1 1646:1 
-0 0.2661420478679206 0:1 1:1 27:1 39:1 56:1 67:1 68:1 114:1 271:1 273:1 274:1 513:1 514:1 1652:1 
-0 0.7412760948638143 1:1 3:1 9:1 29:1 39:1 67:1 68:1 72:1 251:1 253:1 254:1 320:1 441:1 513:1 514:1 
-0 0.04625902479008124 0:1 1:1 3:1 9:1 18:1 33:1 39:1 40:1 44:1 45:1 65:1 73:1 95:1 245:1 1656:1 
-1 0 1:1 14:1 15:1 21:1 26:1 27:1 29:1 48:1 72:1 82:1 124:1 142:1 143:1 188:1 432:1 1319:1 
-0.09195840517782444 0 0:1 1:1 15:1 27:1 36:1 39:1 67:1 68:1 141:1 144:1 1048:1 1049:1 1050:1 1674:1 
-0.06071984347968913 0.2678847708417513 0:1 1:1 3:1 6:1 9:1 39:1 40:1 44:1 45:1 49:1 65:1 295:1 301:1 523:1 669:1 1691:1 
-0 1 0:1 1:1 3:1 9:1 18:1 33:1 39:1 40:1 44:1 45:1 65:1 301:1 
-0.01149877007971934 0 1:1 15:1 21:1 40:1 67:1 68:1 107:1 132:1 135:1 142:1 143:1 149:1 200:1 1584:1 1702:1 1703:1 
-0.02348031919827345 0 0:1 17:1 27:1 29:1 74:1 76:1 92:1 1083:1 1084:1 1086:1 1273:1 1276:1 1660:1 1663:1 1719:1 1720:1 1721:1 
-0.08033783607909949 0 0:1 1:1 15:1 18:1 33:1 40:1 49:1 107:1 108:1 109:1 149:1 200:1 205:1 270:1 281:1 282:1 437:1 
-0.1002601507186351 0 0:1 1:1 9:1 14:1 15:1 18:1 26:1 33:1 40:1 44:1 45:1 48:1 270:1 324:1 1734:1 1736:1 
-0.6326427179394635 0 0:1 1:1 15:1 21:1 33:1 40:1 82:1 124:1 138:1 142:1 143:1 149:1 200:1 205:1 293:1 687:1 
-0.3148285281011577 0 1:1 14:1 15:1 17:1 18:1 21:1 26:1 27:1 29:1 30:1 48:1 142:1 143:1 1763:1 1764:1 1765:1 1766:1 
-0.4622226951021669 0.1090183035824253 0:1 1:1 15:1 17:1 18:1 19:1 20:1 21:1 27:1 29:1 30:1 138:1 149:1 200:1 205:1 1468:1 1765:1 1767:1 
-0.2779419606855198 0 0:1 1:1 15:1 29:1 36:1 49:1 52:1 67:1 68:1 89:1 92:1 140:1 146:1 149:1 328:1 329:1 511:1 577:1 992:1 
-0 0.07077788970913319 0:1 1:1 3:1 6:1 9:1 39:1 40:1 44:1 45:1 65:1 73:1 198:1 295:1 1783:1 1792:1 
-0 0.2764223404094314 29:1 61:1 82:1 86:1 92:1 160:1 161:1 162:1 164:1 188:1 244:1 345:1 346:1 348:1 484:1 
-0 1 0:1 9:1 39:1 44:1 45:1 49:1 301:1 340:1 341:1 413:1 861:1 
-0.7961109529392613 0.6864731510735367 1:1 14:1 15:1 26:1 48:1 52:1 67:1 68:1 109:1 504:1 513:1 514:1 1166:1 1831:1 1832:1 
-0 1 0:1 1:1 3:1 9:1 17:1 18:1 27:1 29:1 39:1 44:1 45:1 65:1 207:1 301:1 590:1 
-0.4888364446814822 0 0:1 1:1 3:1 6:1 9:1 29:1 39:1 40:1 44:1 45:1 65:1 92:1 270:1 295:1 301:1 706:1 1641:1 
-0.1371715353872624 0 1:1 15:1 29:1 40:1 52:1 64:1 67:1 68:1 107:1 108:1 109:1 149:1 200:1 205:1 631:1 1003:1 1004:1 1281:1 1848:1 
-0 0.3073507299698855 0:1 1:1 15:1 67:1 68:1 107:1 108:1 109:1 149:1 200:1 205:1 543:1 544:1 565:1 1853:1 
-0.02388667172846883 0 0:1 1:1 6:1 15:1 29:1 52:1 72:1 107:1 108:1 109:1 149:1 200:1 205:1 295:1 761:1 
-0 0.02136943778613352 0:1 19:1 20:1 21:1 29:1 52:1 67:1 72:1 149:1 160:1 161:1 162:1 164:1 205:1 631:1 761:1 1234:1 1848:1 
-0 0.09199691553479532 19:1 20:1 21:1 29:1 52:1 67:1 72:1 75:1 87:1 114:1 149:1 160:1 205:1 631:1 761:1 1004:1 1234:1 1848:1 
-0.3273646365927032 0 0:1 5:1 10:1 39:1 56:1 114:1 160:1 313:1 482:1 483:1 485:1 
-0.5776461250403562 0 1:1 15:1 21:1 27:1 40:1 67:1 68:1 132:1 135:1 142:1 143:1 770:1 772:1 773:1 774:1 1853:1 1886:1 1887:1 
-0 1 1:1 3:1 9:1 39:1 40:1 67:1 68:1 132:1 135:1 251:1 253:1 254:1 270:1 320:1 1468:1 
-0.905330531806848 0 0:1 1:1 15:1 21:1 29:1 30:1 52:1 58:1 67:1 68:1 89:1 132:1 133:1 134:1 135:1 149:1 205:1 770:1 772:1 774:1 
-0.08919929688936129 0.4862769400398708 1:1 3:1 9:1 29:1 64:1 67:1 68:1 85:1 310:1 338:1 685:1 700:1 701:1 702:1 977:1 
-0.8078080369257263 0 0:1 29:1 39:1 72:1 109:1 175:1 295:1 494:1 
-1 0 0:1 1:1 15:1 21:1 40:1 67:1 68:1 132:1 135:1 138:1 142:1 143:1 225:1 270:1 770:1 772:1 773:1 774:1 
-0.1363511966489172 0.1030546349304354 0:1 1:1 15:1 21:1 40:1 49:1 52:1 60:1 138:1 140:1 142:1 143:1 146:1 147:1 182:1 395:1 1643:1 1747:1 1909:1 1910:1 
-1 0 0:1 1:1 15:1 18:1 21:1 29:1 72:1 138:1 140:1 142:1 143:1 146:1 147:1 149:1 188:1 432:1 
-0.5393832193328069 0.786349772423678 0:1 1:1 12:1 15:1 18:1 19:1 20:1 21:1 29:1 43:1 49:1 149:1 200:1 205:1 657:1 1929:1 1930:1 
-0.1282279978493873 0.7591955145260684 0:1 1:1 3:1 5:1 10:1 12:1 184:1 189:1 244:1 1271:1 
-1 0.2091405671931096 0:1 1:1 3:1 5:1 9:1 10:1 12:1 13:1 184:1 189:1 
-0.7833564243316196 0 0:1 1:1 3:1 5:1 9:1 10:1 12:1 13:1 184:1 189:1 318:1 
-1 0 0:1 1:1 15:1 21:1 29:1 72:1 124:1 138:1 142:1 143:1 149:1 188:1 200:1 414:1 415:1 432:1 433:1 
-0.2321422399242069 0 0:1 1:1 15:1 21:1 29:1 72:1 124:1 138:1 142:1 143:1 149:1 182:1 188:1 200:1 414:1 415:1 432:1 441:1 
-1 0 0:1 1:1 15:1 21:1 27:1 40:1 49:1 54:1 67:1 68:1 132:1 135:1 142:1 143:1 149:1 200:1 205:1 578:1 1918:1 
-0 0.002469823889590022 0:1 29:1 39:1 72:1 85:1 202:1 244:1 318:1 508:1 519:1 1960:1 
-0 0.1432108194617423 0:1 29:1 39:1 72:1 85:1 244:1 487:1 508:1 713:1 714:1 
-0.05158334020606791 0 0:1 1:1 15:1 21:1 29:1 52:1 67:1 68:1 72:1 142:1 143:1 327:1 328:1 329:1 330:1 331:1 755:1 
-0.6167640843061536 0.8269608826799794 0:1 26:1 36:1 39:1 40:1 204:1 295:1 463:1 728:1 1387:1 
-0.3860823908904705 0 0:1 1:1 9:1 14:1 15:1 18:1 26:1 33:1 40:1 44:1 45:1 48:1 52:1 270:1 281:1 282:1 1983:1 
-0.06668050924484535 0.04721427004738463 1:1 9:1 14:1 15:1 18:1 26:1 33:1 40:1 44:1 45:1 48:1 488:1 838:1 839:1 840:1 
-0 0.3236473855770758 1:1 3:1 9:1 39:1 40:1 44:1 45:1 49:1 65:1 66:1 67:1 68:1 69:1 73:1 911:1 1993:1 1996:1 
-0 0.3289231436061825 0:1 1:1 3:1 9:1 27:1 39:1 44:1 45:1 52:1 65:1 66:1 67:1 68:1 69:1 73:1 343:1 
-0 0.07646228053481939 0:1 17:1 27:1 29:1 44:1 74:1 75:1 76:1 86:1 87:1 89:1 151:1 244:1 319:1 345:1 346:1 348:1 1628:1 1660:1 2004:1 2006:1 2007:1 
-0.02167345842373129 0 9:1 27:1 29:1 39:1 44:1 45:1 144:1 151:1 301:1 319:1 340:1 341:1 545:1 861:1 2007:1 
-0 0.2753708259585328 0:1 1:1 3:1 6:1 9:1 27:1 29:1 39:1 44:1 45:1 65:1 207:1 295:1 301:1 2022:1 2023:1 
-0.01479044944016575 0.9301312696369989 1:1 9:1 14:1 15:1 26:1 27:1 29:1 44:1 45:1 48:1 67:1 68:1 92:1 119:1 404:1 405:1 871:1 
-0 0.02617890375670288 0:1 1:1 3:1 9:1 17:1 18:1 27:1 39:1 44:1 45:1 65:1 73:1 2043:1 2044:1 2046:1 
-0.5224907614406173 0.03294666719946537 0:1 29:1 52:1 61:1 82:1 114:1 151:1 160:1 166:1 188:1 271:1 273:1 753:1 1578:1 2081:1 2082:1 
-0.1352278018412402 0 19:1 20:1 21:1 29:1 40:1 67:1 82:1 114:1 132:1 149:1 160:1 161:1 164:1 205:1 240:1 270:1 1234:1 
-0.1439879518063269 0 9:1 29:1 39:1 40:1 44:1 45:1 73:1 117:1 151:1 207:1 270:1 282:1 340:1 341:1 861:1 2013:1 2097:1 
-0 0.449471978802519 1:1 3:1 9:1 40:1 182:1 202:1 225:1 226:1 251:1 253:1 254:1 441:1 442:1 1226:1 2110:1 
-0.02052123323292841 0.1477843940462132 1:1 3:1 9:1 40:1 49:1 67:1 68:1 132:1 135:1 225:1 226:1 251:1 253:1 254:1 270:1 2106:1 2111:1 2112:1 
-0.2904818337004608 0 0:1 1:1 2:1 3:1 6:1 7:1 8:1 9:1 27:1 29:1 72:1 85:1 295:1 310:1 571:1 1347:1 
-1 0 1:1 15:1 18:1 21:1 33:1 40:1 133:1 134:1 358:1 362:1 363:1 488:1 539:1 540:1 542:1 
-0.8168957825794888 0 1:1 15:1 21:1 40:1 67:1 68:1 142:1 143:1 797:1 801:1 891:1 892:1 894:1 1430:1 
-0 0.1913506059826615 1:1 3:1 9:1 27:1 39:1 44:1 45:1 65:1 66:1 67:1 68:1 69:1 73:1 2046:1 2119:1 
-0 0.5667640656591179 0:1 1:1 3:1 9:1 39:1 49:1 52:1 67:1 68:1 132:1 135:1 251:1 253:1 254:1 320:1 2133:1 2134:1 
-0.006343916952729734 0 0:1 10:1 12:1 13:1 26:1 33:1 40:1 52:1 58:1 74:1 76:1 78:1 142:1 270:1 330:1 336:1 337:1 1571:1 1663:1 1719:1 1720:1 1721:1 2148:1 2149:1 
-0.5771295770720068 0 1:1 3:1 9:1 29:1 39:1 40:1 44:1 45:1 65:1 66:1 67:1 68:1 69:1 73:1 240:1 270:1 2168:1 
-0.07662478133820846 0 0:1 1:1 10:1 15:1 18:1 21:1 33:1 40:1 52:1 138:1 142:1 143:1 149:1 200:1 368:1 414:1 415:1 474:1 1409:1 2173:1 
-0 1 0:1 1:1 3:1 9:1 39:1 40:1 44:1 45:1 65:1 66:1 67:1 68:1 69:1 301:1 
-0.2492140125049363 0.211107613715989 1:1 9:1 14:1 15:1 26:1 44:1 45:1 48:1 52:1 60:1 69:1 124:1 832:1 1281:1 2190:1 
-0.1220656016799255 0 0:1 1:1 3:1 9:1 39:1 40:1 44:1 45:1 52:1 65:1 67:1 68:1 252:1 255:1 301:1 2188:1 
-0.2119622633299043 0.4913271915894469 0:1 1:1 3:1 9:1 18:1 33:1 39:1 40:1 44:1 45:1 52:1 65:1 301:1 2188:1 2208:1 
-0.1800238155121572 0 1:1 15:1 21:1 27:1 29:1 67:1 68:1 72:1 142:1 143:1 567:1 797:1 801:1 891:1 892:1 894:1 2216:1 
-0 0.2027688694958734 9:1 39:1 40:1 253:1 254:1 295:1 320:1 494:1 861:1 2238:1 2239:1 2240:1 
-0 0.1349336299424754 0:1 1:1 3:1 9:1 17:1 18:1 27:1 39:1 44:1 45:1 65:1 73:1 2253:1 2254:1 
-0.0162735543808926 0.09767396961889206 0:1 1:1 40:1 67:1 68:1 242:1 244:1 270:1 2148:1 2263:1 
-0.2813828780085685 0 1:1 3:1 9:1 18:1 33:1 39:1 40:1 44:1 45:1 65:1 73:1 855:1 2039:1 2043:1 2046:1 
-0.3746281890519609 0.06564330745675244 0:1 10:1 29:1 74:1 76:1 78:1 86:1 112:1 142:1 188:1 216:1 244:1 345:1 346:1 348:1 936:1 1451:1 
-0 0.0887777985553955 1:1 3:1 9:1 40:1 67:1 68:1 85:1 289:1 290:1 291:1 310:1 631:1 840:1 1251:1 1848:1 
-0.1153155195934226 0.6474522073701229 0:1 1:1 15:1 36:1 49:1 67:1 68:1 85:1 117:1 138:1 141:1 144:1 290:1 673:1 674:1 675:1 976:1 2164:1 2298:1 
-0 0.1660463850920248 1:1 3:1 9:1 17:1 18:1 27:1 29:1 39:1 44:1 45:1 65:1 207:1 301:1 1734:1 1736:1 2295:1 2323:1 
-0.05222438146682609 1 0:1 1:1 3:1 9:1 18:1 33:1 39:1 40:1 44:1 45:1 49:1 65:1 270:1 301:1 1531:1 2145:1 
-0 0.2615308052783178 1:1 3:1 9:1 27:1 29:1 39:1 49:1 67:1 68:1 132:1 135:1 240:1 251:1 253:1 254:1 270:1 320:1 823:1 2359:1 
-0.6844165985616294 0.1711645969749235 1:1 15:1 18:1 21:1 33:1 40:1 133:1 134:1 315:1 358:1 362:1 363:1 1154:1 2375:1 2376:1 
-1 0.1826069841339351 0:1 1:1 10:1 14:1 15:1 21:1 26:1 33:1 40:1 48:1 49:1 58:1 133:1 134:1 270:1 281:1 896:1 
-0 0.4213171709555147 0:1 1:1 3:1 9:1 27:1 39:1 44:1 45:1 49:1 65:1 66:1 67:1 68:1 69:1 73:1 1525:1 2390:1 
-0.08247196125052908 0 0:1 1:1 14:1 15:1 19:1 20:1 21:1 26:1 40:1 48:1 67:1 68:1 89:1 138:1 368:1 410:1 413:1 624:1 944:1 
-0.0194294972680923 0 1:1 9:1 14:1 15:1 18:1 26:1 33:1 40:1 44:1 45:1 48:1 367:1 1584:1 1981:1 2410:1 
-0.8624148746663293 0.001242094418230372 0:1 1:1 3:1 18:1 33:1 40:1 44:1 65:1 109:1 780:1 781:1 988:1 2418:1 
-0.2598987150481941 0 0:1 1:1 14:1 15:1 18:1 26:1 33:1 40:1 44:1 109:1 556:1 780:1 781:1 988:1 1869:1 1872:1 
-0 0.5438002791005705 1:1 3:1 9:1 39:1 49:1 52:1 67:1 68:1 132:1 135:1 251:1 253:1 254:1 320:1 396:1 2133:1 2426:1 
-0.1062001347446925 0 1:1 2:1 3:1 7:1 8:1 9:1 40:1 52:1 66:1 67:1 68:1 69:1 85:1 310:1 1080:1 1543:1 1886:1 
-0.1214043253825358 0 0:1 1:1 21:1 40:1 67:1 68:1 132:1 135:1 142:1 143:1 697:1 780:1 810:1 1744:1 1746:1 1747:1 
-0.1571005057736712 0 1:1 10:1 18:1 39:1 58:1 242:1 244:1 832:1 833:1 2445:1 2446:1 2447:1 
-0 0.0275539319447945 0:1 10:1 15:1 29:1 72:1 244:1 295:1 326:1 853:1 1268:1 1269:1 1273:1 1274:1 2449:1 2450:1 
-0.001932210598120106 0.368742676608123 1:1 10:1 18:1 39:1 58:1 242:1 244:1 565:1 832:1 833:1 2445:1 2446:1 2447:1 2459:1 
-1 0 1:1 10:1 15:1 21:1 29:1 58:1 72:1 124:1 142:1 143:1 188:1 327:1 330:1 331:1 432:1 
-0.03628002244561628 0.06177166456735152 0:1 1:1 6:1 10:1 29:1 72:1 242:1 244:1 295:1 576:1 853:1 1273:1 1274:1 2449:1 2450:1 
-0.0002184852153973534 0 0:1 1:1 2:1 3:1 7:1 8:1 9:1 40:1 66:1 67:1 68:1 69:1 85:1 310:1 1020:1 2459:1 
-0 0.0114258847793472 1:1 3:1 6:1 9:1 39:1 40:1 44:1 45:1 49:1 65:1 73:1 295:1 598:1 669:1 2468:1 2469:1 2470:1 
-0 0.07974725552906546 1:1 3:1 6:1 9:1 39:1 40:1 44:1 45:1 49:1 65:1 73:1 295:1 598:1 669:1 2468:1 2469:1 2470:1 
-0.2656211395375793 0 1:1 3:1 9:1 18:1 33:1 39:1 40:1 44:1 45:1 65:1 73:1 277:1 279:1 556:1 2339:1 
-1 0.3546827103033739 0:1 1:1 15:1 18:1 21:1 33:1 40:1 52:1 133:1 134:1 149:1 200:1 205:1 2035:1 
-0 0.6669638929182988 1:1 3:1 9:1 17:1 18:1 27:1 29:1 39:1 44:1 45:1 65:1 73:1 177:1 1800:1 2177:1 2472:1 2473:1 
-0 0.3789098328599622 0:1 5:1 9:1 29:1 39:1 44:1 45:1 72:1 301:1 366:1 598:1 1422:1 
-0.01232075407961182 0 0:1 19:1 20:1 21:1 33:1 40:1 114:1 149:1 160:1 181:1 205:1 212:1 214:1 333:1 335:1 2022:1 
-0 0.7359494283976129 0:1 1:1 3:1 6:1 9:1 39:1 44:1 45:1 52:1 65:1 73:1 95:1 295:1 2153:1 
-0 0.09996123003456851 1:1 15:1 18:1 43:1 47:1 49:1 107:1 108:1 109:1 149:1 200:1 205:1 1298:1 1299:1 1300:1 
-0 1 1:1 3:1 9:1 27:1 29:1 39:1 44:1 45:1 65:1 66:1 67:1 68:1 69:1 73:1 151:1 1221:1 2496:1 
-0.002029582900704354 0.1928370453386643 0:1 1:1 15:1 17:1 18:1 19:1 20:1 21:1 27:1 85:1 86:1 138:1 142:1 149:1 200:1 205:1 225:1 551:1 574:1 578:1 629:1 936:1 944:1 968:1 1056:1 1057:1 1571:1 
-0 0.121251428977128 0:1 1:1 3:1 9:1 29:1 39:1 40:1 44:1 45:1 65:1 66:1 67:1 68:1 69:1 72:1 73:1 1583:1 
-0 0.1135144308649457 0:1 9:1 27:1 39:1 49:1 253:1 254:1 295:1 320:1 466:1 861:1 1146:1 1329:1 2496:1 
-0.1127614142774688 0 0:1 1:1 9:1 14:1 15:1 18:1 26:1 33:1 40:1 44:1 45:1 48:1 984:1 2223:1 2622:1 
-0 0.05838319181145427 1:1 3:1 9:1 17:1 18:1 27:1 29:1 39:1 44:1 45:1 65:1 73:1 95:1 151:1 2624:1 2625:1 2626:1 
-0.100587758346975 0.3573289938665603 0:1 1:1 9:1 14:1 15:1 17:1 18:1 26:1 27:1 29:1 44:1 45:1 48:1 240:1 2664:1 2665:1 
-0.1458876243603429 0 0:1 5:1 10:1 39:1 40:1 56:1 114:1 160:1 270:1 283:1 285:1 286:1 313:1 402:1 567:1 
-0 0.6265195602758077 1:1 3:1 9:1 27:1 52:1 67:1 68:1 132:1 135:1 225:1 226:1 251:1 253:1 254:1 1028:1 1281:1 2674:1 
-0.08255873084902995 0 1:1 3:1 18:1 21:1 40:1 52:1 60:1 133:1 134:1 251:1 253:1 261:1 262:1 2494:1 2675:1 2676:1 2677:1 
-0.8336188045026589 0.4800539457431109 0:1 1:1 3:1 40:1 52:1 67:1 68:1 109:1 132:1 135:1 168:1 251:1 253:1 504:1 1003:1 1056:1 1057:1 1149:1 1166:1 
-0 0.1224700634576305 0:1 1:1 3:1 9:1 39:1 40:1 44:1 45:1 49:1 65:1 66:1 67:1 68:1 69:1 73:1 2691:1 2692:1 
-0.27460876678343 0.1162772731681097 0:1 19:1 20:1 21:1 29:1 40:1 52:1 60:1 64:1 114:1 149:1 160:1 181:1 205:1 212:1 214:1 270:1 1925:1 2693:1 2695:1 
-0.8146250378019488 0.07620914663685381 1:1 3:1 18:1 33:1 40:1 44:1 56:1 65:1 164:1 165:1 988:1 1067:1 1068:1 1070:1 1114:1 
-0 0.6788624408367115 0:1 1:1 3:1 6:1 9:1 27:1 39:1 44:1 45:1 49:1 65:1 73:1 295:1 1270:1 1922:1 2698:1 
-0.2400846543755483 0.21815497214423 0:1 1:1 9:1 14:1 15:1 18:1 26:1 44:1 45:1 48:1 52:1 60:1 523:1 2718:1 
-1 0 0:1 1:1 9:1 14:1 15:1 18:1 26:1 33:1 40:1 44:1 45:1 48:1 270:1 281:1 282:1 
-0 0.1339205836682214 0:1 9:1 29:1 39:1 44:1 45:1 72:1 204:1 295:1 301:1 1415:1 1422:1 
-0 0.1736992376764089 1:1 3:1 9:1 39:1 40:1 44:1 45:1 49:1 65:1 66:1 67:1 68:1 69:1 73:1 1046:1 2376:1 2737:1 
-0 0.03021540774006617 0:1 1:1 3:1 9:1 17:1 18:1 27:1 29:1 39:1 44:1 45:1 65:1 72:1 301:1 1128:1 2109:1 
-1 0.05649736680359726 0:1 1:1 15:1 18:1 21:1 33:1 40:1 52:1 142:1 143:1 149:1 200:1 205:1 1763:1 1764:1 1766:1 
-0 1 1:1 3:1 9:1 39:1 44:1 45:1 49:1 58:1 65:1 66:1 67:1 68:1 69:1 73:1 1423:1 
-0 0.2617481880811177 0:1 1:1 15:1 17:1 18:1 27:1 29:1 107:1 108:1 109:1 149:1 200:1 205:1 207:1 315:1 1218:1 1220:1 
-0 1 1:1 3:1 9:1 29:1 39:1 44:1 45:1 65:1 72:1 73:1 82:1 124:1 188:1 432:1 
-0 0.06942986053613963 0:1 1:1 3:1 9:1 29:1 39:1 44:1 45:1 65:1 72:1 73:1 124:1 188:1 432:1 855:1 
-0.1282067672954836 0 0:1 1:1 15:1 21:1 40:1 52:1 66:1 67:1 68:1 69:1 138:1 142:1 143:1 688:1 1430:1 2546:1 2801:1 2803:1 2804:1 
-0 0.08616749347474283 1:1 9:1 14:1 15:1 17:1 18:1 26:1 27:1 29:1 30:1 44:1 45:1 48:1 52:1 95:1 1219:1 1818:1 1820:1 2602:1 
-0 0.1146296725023607 0:1 1:1 3:1 9:1 18:1 33:1 39:1 40:1 44:1 45:1 65:1 73:1 184:1 2813:1 
-0.1595019700172456 0 0:1 5:1 39:1 109:1 175:1 182:1 427:1 428:1 1563:1 
-0 0.6358676717383785 0:1 1:1 3:1 9:1 39:1 40:1 44:1 45:1 58:1 65:1 66:1 67:1 68:1 69:1 73:1 270:1 
-0.06806725927644032 0 0:1 5:1 10:1 39:1 40:1 49:1 109:1 175:1 427:1 428:1 1306:1 
-0 0.07356573267169104 1:1 3:1 9:1 27:1 29:1 67:1 68:1 72:1 132:1 135:1 225:1 226:1 251:1 253:1 254:1 1266:1 1267:1 
-0.1762163965691036 0 0:1 1:1 15:1 21:1 27:1 52:1 67:1 68:1 142:1 143:1 797:1 801:1 891:1 892:1 894:1 1070:1 2890:1 
-0.08427384296710186 0 1:1 3:1 9:1 29:1 40:1 66:1 67:1 68:1 69:1 72:1 85:1 310:1 531:1 533:1 534:1 2545:1 2806:1 
-0.3252541984108335 0 1:1 40:1 67:1 68:1 109:1 132:1 135:1 225:1 226:1 241:1 242:1 504:1 1166:1 1194:1 2898:1 
-0.1635284955897637 0.2594466999999124 1:1 3:1 9:1 27:1 66:1 67:1 68:1 69:1 85:1 310:1 531:1 533:1 534:1 1354:1 2901:1 
-0 0.04487713387210585 0:1 1:1 3:1 9:1 18:1 33:1 40:1 85:1 225:1 310:1 367:1 531:1 533:1 534:1 551:1 
-0.2927853183270286 0.05654483401477974 0:1 19:1 33:1 40:1 49:1 61:1 79:1 80:1 82:1 83:1 84:1 142:1 149:1 160:1 162:1 166:1 936:1 1995:1 2922:1 2924:1 
-0 0.1677471409399663 1:1 3:1 9:1 27:1 29:1 39:1 67:1 68:1 72:1 132:1 135:1 251:1 253:1 254:1 542:1 1093:1 2117:1 
-0 0.1312650911117187 0:1 1:1 3:1 9:1 17:1 27:1 39:1 44:1 45:1 65:1 73:1 82:1 124:1 2951:1 
-0 0.4366921819999507 0:1 1:1 14:1 15:1 18:1 26:1 48:1 107:1 108:1 109:1 180:1 184:1 
-1 0.4021802106507573 0:1 5:1 6:1 36:1 39:1 49:1 95:1 362:1 494:1 1715:1 
-0 0.03525821572981923 0:1 1:1 3:1 9:1 18:1 33:1 39:1 40:1 44:1 45:1 65:1 73:1 843:1 1001:1 1002:1 
-0.8279239428185245 0.2734310068134069 1:1 15:1 21:1 27:1 40:1 68:1 107:1 142:1 143:1 149:1 200:1 519:1 713:1 714:1 1534:1 1728:1 1789:1 1791:1 2973:1 
-1 0.4527220314469258 0:1 1:1 15:1 21:1 67:1 68:1 133:1 138:1 142:1 143:1 149:1 171:1 184:1 351:1 414:1 415:1 575:1 740:1 
-0.6423232720192575 1 1:1 15:1 49:1 67:1 68:1 109:1 117:1 149:1 200:1 205:1 396:1 404:1 405:1 423:1 424:1 3003:1 
-0.2003796750404724 1 0:1 1:1 15:1 27:1 29:1 36:1 39:1 64:1 67:1 68:1 338:1 358:1 362:1 685:1 1715:1 
-0 1 0:1 1:1 39:1 49:1 67:1 68:1 117:1 225:1 235:1 241:1 242:1 243:1 244:1 246:1 338:1 685:1 
-1 0.4073239367639925 0:1 1:1 15:1 21:1 27:1 29:1 66:1 67:1 68:1 69:1 72:1 133:1 134:1 149:1 200:1 205:1 225:1 1571:1 
-0.313776024776977 0 27:1 29:1 39:1 56:1 92:1 114:1 160:1 174:1 313:1 315:1 1044:1 1677:1 2197:1 2199:1 2200:1 3044:1 
-0.8832122077708423 0.07102564072458839 1:1 14:1 15:1 21:1 26:1 33:1 40:1 48:1 49:1 82:1 124:1 133:1 134:1 592:1 595:1 3052:1 
-0 0.4538567776078848 0:1 27:1 29:1 39:1 177:1 225:1 243:1 244:1 246:1 295:1 315:1 342:1 494:1 2620:1 
-0.3451522285273792 0 0:1 5:1 39:1 82:1 109:1 175:1 184:1 427:1 428:1 2079:1 
-1 0 0:1 1:1 10:1 15:1 18:1 21:1 33:1 40:1 133:1 134:1 358:1 362:1 363:1 820:1 2029:1 
-0.4004812877441257 0 1:1 15:1 18:1 33:1 40:1 107:1 108:1 109:1 149:1 200:1 205:1 1042:1 1044:1 2084:1 3088:1 
-0.5262819713948256 0 1:1 3:1 9:1 27:1 29:1 39:1 67:1 68:1 92:1 132:1 135:1 251:1 253:1 254:1 320:1 1044:1 1087:1 
-0 0.6530809623503619 1:1 3:1 9:1 27:1 29:1 64:1 82:1 124:1 187:1 188:1 225:1 226:1 251:1 253:1 254:1 1220:1 
-0.5017996678058244 0 0:1 1:1 15:1 21:1 40:1 52:1 67:1 68:1 327:1 330:1 331:1 337:1 411:1 412:1 1177:1 1178:1 
-0.1168271491691323 0 17:1 27:1 86:1 114:1 160:1 181:1 212:1 214:1 244:1 345:1 346:1 348:1 870:1 871:1 886:1 1849:1 
-0.08254604096996673 0 19:1 20:1 21:1 40:1 67:1 114:1 149:1 160:1 205:1 212:1 214:1 543:1 544:1 800:1 1075:1 1234:1 
-0.1201065248484781 0.03298109602133002 27:1 29:1 39:1 64:1 82:1 109:1 175:1 295:1 305:1 427:1 428:1 1134:1 
-0.02628022312641025 1 0:1 17:1 27:1 29:1 86:1 92:1 114:1 160:1 181:1 244:1 345:1 346:1 348:1 497:1 498:1 1276:1 
-0 1 0:1 1:1 3:1 9:1 39:1 49:1 67:1 68:1 132:1 135:1 251:1 253:1 254:1 320:1 
-0.6565561413816412 0.2650524388632734 0:1 1:1 15:1 29:1 117:1 124:1 159:1 177:1 184:1 188:1 258:1 500:1 690:1 770:1 772:1 773:1 774:1 798:1 799:1 2977:1 
-0 0.1290920268980868 0:1 1:1 3:1 18:1 33:1 40:1 44:1 52:1 65:1 107:1 108:1 109:1 315:1 565:1 971:1 988:1 1409:1 
-1 0 0:1 1:1 15:1 21:1 33:1 40:1 82:1 124:1 138:1 142:1 143:1 149:1 200:1 414:1 415:1 
-0 0.1381792344205868 0:1 1:1 3:1 6:1 9:1 27:1 29:1 39:1 44:1 45:1 65:1 72:1 73:1 295:1 556:1 2766:1 
-0.2353283322117115 0.5435443491627728 0:1 9:1 29:1 39:1 52:1 195:1 253:1 254:1 295:1 320:1 494:1 861:1 2008:1 
-0.8064826423443039 0 0:1 1:1 21:1 27:1 29:1 67:1 68:1 72:1 132:1 135:1 142:1 143:1 288:1 697:1 
-0.1574522140326668 0 0:1 5:1 39:1 49:1 52:1 184:1 225:1 243:1 244:1 246:1 342:1 494:1 556:1 1028:1 1175:1 1290:1 2657:1 
-1 0.09369263749075847 0:1 1:1 15:1 31:1 33:1 34:1 35:1 36:1 39:1 40:1 82:1 270:1 281:1 
-1 0.7959564992134426 0:1 1:1 3:1 9:1 40:1 67:1 68:1 85:1 251:1 253:1 254:1 310:1 338:1 567:1 685:1 
-0.6258017316574072 0.1850950368402194 1:1 3:1 9:1 29:1 33:1 40:1 64:1 82:1 85:1 124:1 251:1 253:1 254:1 270:1 310:1 2543:1 3249:1 
-0 0.1330113365707983 1:1 3:1 9:1 18:1 33:1 39:1 40:1 44:1 45:1 65:1 73:1 270:1 281:1 282:1 565:1 2608:1 2813:1 
-0 0.02692039280140818 1:1 3:1 9:1 39:1 40:1 44:1 45:1 65:1 66:1 67:1 68:1 69:1 73:1 267:1 1046:1 
-0 0.3185012397957261 1:1 3:1 9:1 18:1 33:1 39:1 40:1 44:1 45:1 49:1 65:1 73:1 270:1 281:1 282:1 975:1 2833:1 
-1 0.5007866284035307 1:1 21:1 29:1 39:1 64:1 124:1 133:1 134:1 187:1 188:1 334:1 1755:1 1756:1 
-1 0 1:1 21:1 29:1 39:1 64:1 82:1 124:1 133:1 134:1 187:1 188:1 1755:1 1756:1 
-0.08941384796946893 0 0:1 39:1 40:1 43:1 49:1 56:1 97:1 114:1 160:1 181:1 271:1 273:1 274:1 2435:1 3276:1 
-0.961274749834423 0 0:1 1:1 15:1 17:1 18:1 27:1 107:1 108:1 109:1 149:1 200:1 205:1 870:1 871:1 1849:1 
-0.943522207116581 1 0:1 1:1 15:1 36:1 39:1 67:1 68:1 184:1 328:1 329:1 
-0.6421958838242797 0.1310558417523549 0:1 1:1 15:1 26:1 29:1 36:1 67:1 68:1 92:1 133:1 167:1 328:1 329:1 565:1 971:1 
-0.1379828040635782 0.3874098084612022 0:1 1:1 15:1 29:1 36:1 39:1 49:1 67:1 68:1 72:1 404:1 405:1 
-0 0.06082675694064246 0:1 1:1 3:1 9:1 18:1 33:1 39:1 40:1 44:1 45:1 65:1 293:1 301:1 687:1 691:1 
-0.5656449675488444 0.2427871805190369 0:1 39:1 52:1 56:1 60:1 114:1 160:1 181:1 339:1 
-0.9254762928620625 0.1158459669258905 0:1 1:1 15:1 21:1 29:1 67:1 68:1 72:1 142:1 143:1 964:1 2193:1 2194:1 
-0.6913062513072332 0.935428643647941 1:1 15:1 21:1 67:1 68:1 142:1 143:1 184:1 797:1 801:1 891:1 892:1 894:1 2987:1 
-0.3697825004988083 0.4223041332661429 0:1 1:1 15:1 43:1 49:1 56:1 82:1 107:1 124:1 149:1 200:1 780:1 781:1 1703:1 
-0.08617282360857881 0.4595171264384708 0:1 1:1 9:1 14:1 15:1 26:1 40:1 44:1 45:1 48:1 67:1 68:1 2998:1 2999:1 
-0.7808639057271888 0.01375547408877723 1:1 6:1 14:1 15:1 21:1 26:1 29:1 48:1 72:1 95:1 133:1 134:1 295:1 1783:1 1792:1 
-0.094352383034807 0 5:1 10:1 29:1 39:1 64:1 109:1 175:1 427:1 428:1 3391:1 3481:1 
-0.1438766060801134 0 1:1 6:1 14:1 15:1 26:1 29:1 48:1 64:1 107:1 108:1 109:1 295:1 315:1 3551:1 3552:1 
-0 0.2063419820410554 1:1 3:1 9:1 39:1 40:1 67:1 68:1 132:1 135:1 251:1 253:1 254:1 320:1 2654:1 3559:1 
-0.6151561110738555 0.1868533899372001 0:1 29:1 39:1 64:1 174:1 230:1 598:1 2324:1 
-0.06188375325545992 0 1:1 3:1 9:1 29:1 39:1 52:1 67:1 68:1 207:1 251:1 252:1 253:1 254:1 255:1 320:1 581:1 1080:1 2607:1 
-0 0.134389829542089 0:1 1:1 3:1 9:1 17:1 18:1 27:1 39:1 44:1 45:1 47:1 65:1 301:1 948:1 1078:1 1161:1 
-0.6314102311432793 0 0:1 1:1 15:1 17:1 21:1 27:1 29:1 82:1 124:1 142:1 143:1 149:1 200:1 240:1 261:1 262:1 3678:1 
-0.1496005849294542 0 1:1 3:1 9:1 40:1 67:1 68:1 132:1 135:1 225:1 226:1 251:1 253:1 254:1 552:1 1563:1 
-0.640076342234235 0.3357659176853961 19:1 20:1 21:1 33:1 40:1 61:1 82:1 86:1 160:1 161:1 162:1 164:1 766:1 767:1 1237:1 1323:1 
-0.7645652166892901 0.1515816405988149 0:1 1:1 15:1 21:1 40:1 67:1 68:1 132:1 135:1 142:1 143:1 149:1 200:1 3681:1 3684:1 
-1 0.6579569664825405 0:1 1:1 15:1 21:1 27:1 29:1 40:1 67:1 68:1 117:1 142:1 143:1 151:1 235:1 270:1 327:1 328:1 329:1 330:1 331:1 735:1 
-0.376230854552233 0 0:1 1:1 15:1 17:1 18:1 27:1 40:1 52:1 58:1 107:1 108:1 109:1 149:1 200:1 205:1 227:1 1139:1 
-0.3799978585079948 0 1:1 15:1 21:1 40:1 67:1 68:1 138:1 142:1 143:1 149:1 200:1 205:1 253:1 1070:1 1177:1 1178:1 
-0 0.3595326517009576 0:1 39:1 47:1 49:1 109:1 174:1 175:1 3706:1 
-0 0.02453556393080414 0:1 1:1 15:1 18:1 21:1 33:1 40:1 164:1 327:1 330:1 465:1 624:1 688:1 1724:1 1725:1 2013:1 
-0 0.2776631489166896 0:1 1:1 3:1 9:1 27:1 29:1 39:1 67:1 68:1 72:1 132:1 135:1 251:1 253:1 254:1 863:1 1093:1 
-0.4575153440821634 0 0:1 17:1 27:1 29:1 39:1 49:1 56:1 151:1 181:1 273:1 274:1 1092:1 
-0.3121999116336356 0 0:1 1:1 15:1 19:1 20:1 21:1 40:1 58:1 67:1 68:1 142:1 316:1 345:1 410:1 413:1 574:1 797:1 801:1 871:1 894:1 1230:1 1571:1 1579:1 2149:1 2344:1 3785:1 3788:1 3794:1 
-0 1 0:1 1:1 3:1 9:1 27:1 39:1 67:1 68:1 132:1 135:1 251:1 253:1 254:1 1093:1 
-0.01057293747419451 0 0:1 27:1 29:1 40:1 56:1 58:1 114:1 141:1 151:1 160:1 182:1 212:1 214:1 465:1 794:1 931:1 932:1 958:1 1872:1 
-0 0.1916527798032941 1:1 3:1 9:1 39:1 40:1 44:1 45:1 65:1 66:1 67:1 68:1 69:1 301:1 871:1 3757:1 
-0 1 0:1 1:1 3:1 9:1 27:1 39:1 44:1 45:1 65:1 66:1 67:1 68:1 69:1 279:1 301:1 
-0 0.07589838557236696 0:1 1:1 3:1 9:1 39:1 40:1 44:1 45:1 52:1 65:1 66:1 67:1 68:1 69:1 301:1 2904:1 3812:1 
-0 1 0:1 1:1 3:1 9:1 39:1 40:1 44:1 45:1 49:1 52:1 65:1 66:1 67:1 68:1 69:1 301:1 1003:1 1813:1 
-0.4196914598067468 0 1:1 5:1 6:1 10:1 29:1 39:1 40:1 225:1 241:1 242:1 243:1 244:1 246:1 270:1 581:1 3836:1 3837:1 
-0 0.04288029231387506 0:1 36:1 39:1 40:1 52:1 182:1 261:1 295:1 459:1 728:1 1003:1 1517:1 3863:1 
-0.01396535058141955 0.1631611908455262 0:1 39:1 56:1 82:1 184:1 285:1 286:1 295:1 959:1 3863:1 
-0.009760361207988438 0 1:1 29:1 39:1 40:1 52:1 67:1 68:1 132:1 135:1 151:1 225:1 241:1 242:1 243:1 244:1 246:1 270:1 1325:1 3755:1 
-0.9931149176660149 0 1:1 3:1 9:1 12:1 13:1 18:1 33:1 40:1 58:1 186:1 190:1 191:1 838:1 839:1 840:1 
-0.343549203618889 1 1:1 39:1 56:1 67:1 68:1 114:1 482:1 483:1 485:1 513:1 514:1 
-0 1 0:1 1:1 3:1 9:1 29:1 39:1 40:1 44:1 45:1 64:1 65:1 66:1 67:1 68:1 69:1 270:1 301:1 
-0 1 0:1 1:1 15:1 29:1 44:1 67:1 68:1 72:1 244:1 328:1 329:1 1269:1 1273:1 1274:1 
-0 0.1325055336643749 1:1 3:1 9:1 27:1 29:1 39:1 44:1 45:1 65:1 67:1 68:1 72:1 73:1 368:1 1301:1 1302:1 3851:1 
-0 0.2731367893548881 0:1 67:1 86:1 114:1 160:1 184:1 212:1 214:1 244:1 345:1 346:1 348:1 1038:1 1234:1 3207:1 
-0 0.06324991867272053 1:1 3:1 9:1 39:1 40:1 44:1 45:1 65:1 66:1 67:1 68:1 69:1 301:1 332:1 3865:1 
-0.04090842739242329 0 1:1 15:1 18:1 33:1 40:1 49:1 107:1 108:1 109:1 149:1 200:1 205:1 270:1 281:1 706:1 3056:1 3400:1 
-0 0.04667837195602037 0:1 1:1 15:1 18:1 21:1 33:1 40:1 133:1 134:1 358:1 362:1 363:1 556:1 3552:1 
-0.7842475087336679 0.6137889327795873 0:1 1:1 15:1 21:1 33:1 40:1 82:1 124:1 133:1 134:1 358:1 362:1 363:1 
-0 0.5803114335560677 1:1 21:1 27:1 29:1 67:1 68:1 72:1 142:1 143:1 171:1 242:1 351:1 549:1 1489:1 1744:1 1747:1 1750:1 
-0.2215369391109248 0.1636955240119392 0:1 1:1 21:1 40:1 67:1 68:1 132:1 135:1 142:1 143:1 551:1 697:1 1454:1 1862:1 2494:1 3869:1 
-0.1934617271145816 0.03632408619685717 29:1 33:1 39:1 40:1 56:1 58:1 61:1 114:1 160:1 270:1 281:1 581:1 3162:1 3164:1 3165:1 3821:1 
-0.0218562092443806 0 0:1 33:1 39:1 40:1 49:1 56:1 61:1 114:1 160:1 270:1 281:1 389:1 3162:1 3164:1 3165:1 
-0.04326659199839993 0 0:1 29:1 39:1 56:1 72:1 487:1 2639:1 2640:1 3164:1 3165:1 
-0.003306853444085998 0 0:1 1:1 9:1 14:1 15:1 18:1 26:1 33:1 40:1 44:1 45:1 48:1 567:1 678:1 2216:1 
-0.7247294644419559 0 0:1 1:1 15:1 21:1 27:1 29:1 52:1 67:1 68:1 142:1 143:1 149:1 200:1 240:1 261:1 262:1 1177:1 1178:1 
-0 0.8635263407857067 0:1 1:1 3:1 9:1 27:1 39:1 44:1 45:1 65:1 66:1 67:1 68:1 69:1 73:1 1347:1 
-0 0.2406508475265557 1:1 2:1 3:1 7:1 8:1 9:1 29:1 58:1 66:1 67:1 68:1 69:1 72:1 85:1 225:1 310:1 551:1 
-0 1 0:1 9:1 29:1 39:1 44:1 45:1 73:1 117:1 171:1 177:1 340:1 341:1 861:1 954:1 
-0.6591316813297073 0.4551628122341992 26:1 33:1 40:1 56:1 95:1 114:1 142:1 160:1 181:1 497:1 498:1 679:1 1571:1 2245:1 2248:1 2453:1 2559:1 
-0 0.2043485812239291 0:1 9:1 39:1 44:1 45:1 49:1 52:1 295:1 301:1 463:1 861:1 992:1 2221:1 
-0.47311463366676 0.1041811569460061 0:1 1:1 3:1 40:1 49:1 67:1 68:1 109:1 132:1 135:1 251:1 253:1 780:1 781:1 1149:1 2551:1 
-0 0.6208947037951797 0:1 39:1 49:1 109:1 117:1 157:1 159:1 174:1 175:1 321:1 322:1 
-0 1 0:1 1:1 3:1 9:1 39:1 44:1 45:1 49:1 65:1 66:1 67:1 68:1 69:1 117:1 159:1 301:1 1321:1 
-0.5345506988635772 0.1369844555087716 0:1 1:1 39:1 40:1 49:1 67:1 68:1 242:1 244:1 270:1 328:1 329:1 566:1 1020:1 4058:1 
-0.1478345620491077 0 0:1 1:1 15:1 21:1 27:1 40:1 52:1 67:1 68:1 142:1 143:1 327:1 328:1 329:1 330:1 331:1 465:1 1003:1 
-0 0.6681389645235961 1:1 3:1 9:1 29:1 39:1 49:1 67:1 68:1 112:1 132:1 135:1 251:1 253:1 254:1 320:1 1325:1 2653:1 
-0 0.08610506766239083 9:1 27:1 29:1 30:1 39:1 253:1 254:1 295:1 315:1 320:1 494:1 861:1 1205:1 4073:1 
-0 0.4432936683100085 0:1 1:1 3:1 52:1 67:1 68:1 109:1 132:1 135:1 251:1 253:1 780:1 781:1 1149:1 1485:1 
-0 0.2408768221702986 1:1 39:1 52:1 67:1 68:1 132:1 135:1 225:1 241:1 242:1 243:1 244:1 246:1 2677:1 4105:1 
-0.3532131917891229 0 0:1 1:1 15:1 40:1 58:1 67:1 68:1 107:1 108:1 109:1 149:1 200:1 205:1 1301:1 1302:1 
-0 0.02719920331387909 1:1 29:1 39:1 52:1 67:1 68:1 85:1 92:1 242:1 244:1 318:1 508:1 1003:1 1301:1 1302:1 3213:1 
-0.01903993949503108 0 1:1 39:1 40:1 58:1 67:1 68:1 132:1 135:1 225:1 241:1 242:1 243:1 244:1 246:1 879:1 
-0.572013048396087 0.3240008984627037 0:1 1:1 15:1 40:1 49:1 66:1 67:1 68:1 69:1 565:1 688:1 689:1 690:1 1205:1 1349:1 3002:1 
-0.2047991469606329 0 1:1 15:1 33:1 40:1 52:1 82:1 107:1 108:1 109:1 124:1 149:1 200:1 205:1 870:1 871:1 1409:1 
-0.01651135540292292 0 0:1 1:1 15:1 43:1 49:1 107:1 108:1 109:1 124:1 149:1 200:1 205:1 523:1 
-0 0.315406275860315 0:1 1:1 15:1 18:1 21:1 29:1 30:1 133:1 134:1 188:1 358:1 362:1 363:1 568:1 3466:1 
-0.004357650264466761 0.004817451089605871 0:1 5:1 39:1 109:1 175:1 427:1 428:1 565:1 1686:1 4151:1 
-0 0.3987028456788689 0:1 1:1 3:1 9:1 52:1 67:1 68:1 132:1 135:1 225:1 226:1 251:1 253:1 254:1 
-0.131938791091561 0 1:1 3:1 9:1 40:1 67:1 68:1 132:1 135:1 225:1 226:1 251:1 253:1 254:1 884:1 886:1 
-0 0.4127863105587897 1:1 3:1 9:1 39:1 40:1 67:1 68:1 132:1 135:1 251:1 253:1 254:1 320:1 886:1 
-0.2605148443633954 0.8230441856970437 0:1 1:1 9:1 14:1 15:1 26:1 40:1 44:1 45:1 48:1 66:1 67:1 68:1 69:1 270:1 633:1 
-0 0.1623092967598716 0:1 1:1 12:1 15:1 27:1 29:1 40:1 49:1 67:1 68:1 99:1 112:1 244:1 513:1 514:1 1271:1 1617:1 2148:1 2263:1 3671:1 4169:1 
-0 0.08741150006463333 1:1 3:1 9:1 29:1 39:1 44:1 45:1 65:1 66:1 67:1 68:1 69:1 72:1 73:1 1942:1 
-0 0.1519260535921576 1:1 3:1 9:1 39:1 40:1 44:1 45:1 65:1 66:1 67:1 68:1 69:1 73:1 128:1 270:1 
-0 0.1619141337555777 1:1 3:1 9:1 27:1 29:1 39:1 44:1 45:1 65:1 66:1 67:1 68:1 69:1 72:1 73:1 335:1 1508:1 
-0.008220165089690583 0 0:1 1:1 9:1 14:1 15:1 18:1 26:1 33:1 40:1 44:1 45:1 48:1 555:1 1007:1 
-0.334261194111294 0 1:1 9:1 14:1 15:1 18:1 26:1 33:1 40:1 44:1 45:1 48:1 270:1 281:1 282:1 1999:1 
-1 1 0:1 1:1 9:1 14:1 15:1 26:1 27:1 29:1 44:1 45:1 48:1 67:1 68:1 207:1 404:1 405:1 
-0 1 0:1 1:1 3:1 9:1 27:1 39:1 44:1 45:1 49:1 65:1 66:1 67:1 68:1 69:1 73:1 198:1 
-0 0.08950992988394106 1:1 3:1 9:1 39:1 40:1 44:1 45:1 49:1 65:1 66:1 67:1 68:1 69:1 73:1 451:1 452:1 1510:1 
-0.03296582038489067 0.1422962563229939 1:1 9:1 14:1 15:1 26:1 40:1 44:1 45:1 48:1 49:1 66:1 67:1 68:1 69:1 452:1 1510:1 4213:1 
-0.06572695111076204 0.5721815105232743 1:1 3:1 9:1 39:1 40:1 44:1 45:1 49:1 65:1 66:1 67:1 68:1 69:1 73:1 1516:1 2381:1 
-0 0.5843829937356249 0:1 1:1 3:1 9:1 39:1 44:1 45:1 52:1 65:1 66:1 67:1 68:1 69:1 73:1 1436:1 
-0.9290304677586241 0 0:1 1:1 3:1 9:1 27:1 66:1 67:1 68:1 69:1 85:1 186:1 190:1 191:1 310:1 2256:1 
-0 0.0559287727136606 0:1 1:1 21:1 49:1 52:1 67:1 68:1 142:1 143:1 242:1 252:1 255:1 504:1 505:1 1744:1 1747:1 2086:1 3056:1 
-0.04569707681028103 0 1:1 15:1 40:1 67:1 68:1 107:1 108:1 109:1 149:1 200:1 205:1 513:1 514:1 3337:1 
-0 0.2246484339192678 0:1 1:1 3:1 9:1 18:1 33:1 39:1 40:1 44:1 45:1 49:1 65:1 156:1 301:1 2751:1 2753:1 
-0 1 1:1 3:1 9:1 29:1 30:1 39:1 40:1 44:1 45:1 65:1 66:1 67:1 68:1 69:1 270:1 301:1 
-0.03235675644601643 0 10:1 19:1 20:1 21:1 27:1 29:1 61:1 72:1 114:1 149:1 160:1 184:1 188:1 205:1 212:1 214:1 432:1 1281:1 2023:1 3925:1 
-0.1542021304804987 0 1:1 15:1 21:1 27:1 29:1 67:1 68:1 107:1 132:1 135:1 142:1 143:1 149:1 200:1 239:1 240:1 1703:1 
-0 0.06427273667376925 17:1 27:1 49:1 86:1 114:1 160:1 181:1 212:1 214:1 244:1 333:1 335:1 345:1 346:1 348:1 406:1 2295:1 2409:1 
-0.01689411722921957 0.5807233872183234 1:1 15:1 21:1 29:1 67:1 68:1 72:1 142:1 143:1 327:1 328:1 329:1 330:1 331:1 
-0.5295911834323271 0.05197272730087595 1:1 2:1 3:1 7:1 8:1 9:1 29:1 67:1 68:1 72:1 85:1 310:1 1128:1 1301:1 1302:1 
-0.4664721685172887 0.5780387882302152 0:1 1:1 3:1 9:1 67:1 68:1 85:1 184:1 186:1 190:1 191:1 310:1 1301:1 1302:1 1850:1 
-0.08862123422347741 0 9:1 29:1 39:1 40:1 52:1 92:1 174:1 253:1 254:1 320:1 338:1 861:1 977:1 1319:1 3715:1 4310:1 
-0.1739002242212853 0 0:1 1:1 15:1 21:1 27:1 40:1 67:1 68:1 132:1 135:1 138:1 142:1 143:1 504:1 505:1 1747:1 1859:1 1861:1 4008:1 
-0 0.5843682360907363 0:1 1:1 3:1 9:1 39:1 44:1 45:1 52:1 65:1 66:1 67:1 68:1 69:1 73:1 1080:1 
-1 1 1:1 10:1 15:1 21:1 40:1 43:1 49:1 99:1 117:1 124:1 142:1 143:1 149:1 159:1 200:1 205:1 402:1 612:1 1281:1 
-0.8242010846338207 0 0:1 19:1 20:1 21:1 33:1 40:1 114:1 149:1 160:1 181:1 205:1 501:1 504:1 
-1 1 0:1 1:1 15:1 21:1 27:1 49:1 67:1 68:1 132:1 135:1 142:1 143:1 149:1 200:1 205:1 578:1 
-1 0.598042988108661 1:1 29:1 39:1 64:1 82:1 124:1 187:1 188:1 3359:1 3360:1 3361:1 3362:1 3363:1 
-1 0 0:1 1:1 17:1 27:1 39:1 124:1 3359:1 3360:1 3361:1 3362:1 3363:1 4364:1 
-0.9476883742528786 0.5598618399429659 0:1 1:1 15:1 21:1 29:1 67:1 68:1 132:1 135:1 142:1 143:1 148:1 149:1 200:1 207:1 240:1 2856:1 
-0.1812105280413809 0 1:1 9:1 14:1 15:1 26:1 40:1 44:1 45:1 48:1 66:1 67:1 68:1 69:1 948:1 
-0 0.521545804570603 1:1 15:1 21:1 29:1 67:1 68:1 117:1 142:1 143:1 177:1 259:1 261:1 262:1 954:1 1245:1 1469:1 4058:1 
-0.8240780981653328 0 0:1 1:1 15:1 29:1 67:1 68:1 72:1 132:1 135:1 690:1 1360:1 3266:1 
-0.3470342045827336 0 0:1 1:1 21:1 29:1 67:1 68:1 72:1 142:1 143:1 338:1 685:1 697:1 1744:1 1747:1 1750:1 
-0.5217734248961104 0.242179212677018 1:1 14:1 15:1 18:1 21:1 26:1 29:1 30:1 43:1 47:1 48:1 49:1 133:1 134:1 971:1 1313:1 4456:1 
-0.103353924414434 0.2491645098056352 0:1 39:1 49:1 109:1 117:1 175:1 295:1 315:1 321:1 322:1 494:1 974:1 976:1 
-0.5463087658613602 0 1:1 3:1 18:1 33:1 40:1 44:1 65:1 95:1 107:1 108:1 109:1 988:1 1042:1 1044:1 2514:1 
-0 0.3159204298656624 0:1 1:1 3:1 9:1 27:1 29:1 39:1 44:1 45:1 65:1 66:1 67:1 68:1 69:1 73:1 151:1 3678:1 
-0 0.3750441175228021 1:1 9:1 14:1 15:1 18:1 26:1 33:1 40:1 44:1 45:1 48:1 838:1 839:1 840:1 2013:1 
-0.3674668216493268 0 1:1 14:1 15:1 18:1 21:1 26:1 33:1 40:1 48:1 133:1 134:1 474:1 556:1 2173:1 3088:1 
-0.8537007371927736 0.8697145170187086 0:1 1:1 15:1 21:1 29:1 67:1 68:1 72:1 138:1 140:1 142:1 143:1 146:1 147:1 328:1 329:1 
-0.6942807889669698 0 1:1 14:1 15:1 18:1 21:1 26:1 33:1 40:1 48:1 95:1 133:1 134:1 521:1 1030:1 2554:1 
-0.8808095615708915 0 0:1 1:1 14:1 15:1 18:1 21:1 26:1 29:1 33:1 40:1 47:1 48:1 72:1 133:1 134:1 2913:1 
-0 0.01846225908760948 0:1 5:1 39:1 52:1 109:1 175:1 184:1 315:1 427:1 428:1 494:1 1547:1 
-0.3894626506496893 0 0:1 1:1 39:1 40:1 67:1 68:1 132:1 135:1 225:1 241:1 242:1 243:1 244:1 246:1 684:1 
-0.1152685790462861 0.2294444966511583 1:1 15:1 19:1 20:1 21:1 27:1 40:1 67:1 68:1 211:1 797:1 801:1 894:1 1177:1 1178:1 1181:1 2383:1 
-0.7955678292470512 0.1155170092091952 1:1 15:1 18:1 21:1 29:1 72:1 142:1 143:1 188:1 218:1 432:1 487:1 794:1 795:1 797:1 801:1 
-0 0.1312285622128155 5:1 9:1 27:1 39:1 40:1 44:1 45:1 58:1 73:1 182:1 211:1 366:1 1181:1 1422:1 
-0 0.005516436613305749 0:1 1:1 3:1 9:1 39:1 40:1 44:1 45:1 52:1 65:1 66:1 67:1 68:1 69:1 73:1 814:1 
-0.5035898527672281 0 0:1 5:1 27:1 39:1 109:1 175:1 338:1 427:1 428:1 1602:1 1686:1 
-1 0 0:1 1:1 15:1 17:1 18:1 27:1 107:1 108:1 109:1 149:1 200:1 205:1 277:1 279:1 1327:1 
-0 0.2173776621596517 0:1 1:1 3:1 6:1 9:1 29:1 39:1 44:1 45:1 65:1 73:1 92:1 295:1 1451:1 
-0.6887824830227447 0.003315983099307502 0:1 39:1 49:1 106:1 295:1 494:1 737:1 1797:1 4078:1 4184:1 4185:1 4186:1 
-0 0.6836039037291183 0:1 1:1 3:1 9:1 18:1 33:1 39:1 40:1 44:1 45:1 52:1 65:1 301:1 447:1 565:1 1738:1 
-0.3660303314792943 0.3212648666833889 0:1 39:1 40:1 49:1 109:1 174:1 175:1 270:1 1531:1 1600:1 1614:1 
-1 0 0:1 1:1 52:1 67:1 68:1 86:1 109:1 321:1 322:1 338:1 348:1 685:1 696:1 697:1 
-0.2726422484381906 0 0:1 1:1 15:1 18:1 33:1 40:1 52:1 107:1 108:1 109:1 149:1 200:1 205:1 315:1 1080:1 2004:1 2121:1 
-0.01911376324354719 0 0:1 1:1 3:1 6:1 9:1 27:1 29:1 72:1 95:1 251:1 253:1 254:1 295:1 1169:1 4320:1 4321:1 
-0 0.5715148360995054 1:1 3:1 9:1 39:1 40:1 44:1 45:1 65:1 66:1 67:1 68:1 69:1 301:1 1070:1 
-0.2736840570340078 0 0:1 1:1 14:1 15:1 18:1 26:1 33:1 40:1 44:1 109:1 452:1 706:1 780:1 781:1 988:1 2427:1 
-0 1 0:1 1:1 3:1 9:1 39:1 44:1 45:1 49:1 65:1 66:1 67:1 68:1 69:1 301:1 1385:1 
-0.08109123114614644 0 1:1 29:1 39:1 67:1 68:1 72:1 225:1 241:1 242:1 243:1 244:1 246:1 543:1 544:1 1987:1 
-0 0.08038842340049439 1:1 3:1 9:1 12:1 13:1 40:1 66:1 67:1 68:1 69:1 225:1 251:1 253:1 254:1 270:1 551:1 2171:1 
-0 -0.2483070782348308 1:1 3:1 9:1 39:1 44:1 45:1 49:1 65:1 66:1 67:1 68:1 69:1 73:1 119:1 120:1 121:1 
-0 -0.2858718511032738 0:1 1:1 3:1 9:1 39:1 44:1 45:1 49:1 65:1 66:1 67:1 68:1 69:1 73:1 222:1 
-1 -0 1:1 3:1 9:1 18:1 29:1 39:1 44:1 45:1 64:1 65:1 187:1 188:1 407:1 408:1 409:1 
-0.7201929125923899 -0.3301624620335346 1:1 15:1 18:1 40:1 52:1 60:1 109:1 135:1 149:1 200:1 205:1 211:1 422:1 423:1 424:1 425:1 426:1 
-0 -0.1717302276048523 0:1 39:1 47:1 49:1 52:1 109:1 169:1 170:1 174:1 175:1 447:1 
-0.2322253306489271 -1 0:1 1:1 3:1 9:1 17:1 18:1 27:1 29:1 85:1 207:1 310:1 586:1 590:1 591:1 
-0.1495581136598785 -0 1:1 3:1 9:1 12:1 13:1 29:1 117:1 124:1 177:1 188:1 235:1 433:1 500:1 549:1 616:1 617:1 618:1 
-0.003865694495438052 -1 0:1 1:1 3:1 9:1 29:1 39:1 64:1 67:1 68:1 251:1 253:1 254:1 320:1 631:1 633:1 
-1 -0 0:1 1:1 15:1 18:1 21:1 138:1 142:1 143:1 180:1 184:1 642:1 645:1 646:1 647:1 648:1 649:1 650:1 651:1 
-0.05583850583432937 -0 0:1 1:1 19:1 20:1 21:1 49:1 68:1 169:1 519:1 574:1 712:1 713:1 714:1 715:1 
-0.1971169873502017 -0.3685291354711879 0:1 1:1 3:1 9:1 49:1 52:1 66:1 67:1 68:1 69:1 85:1 251:1 253:1 254:1 310:1 725:1 726:1 
-0.1210937657340117 -0.8789772460342455 0:1 1:1 15:1 21:1 133:1 134:1 204:1 358:1 362:1 363:1 
-1 -1 0:1 1:1 15:1 21:1 29:1 67:1 68:1 132:1 135:1 142:1 143:1 149:1 195:1 200:1 205:1 225:1 
-0.247882778066704 -0.2740255003699353 0:1 1:1 15:1 21:1 52:1 67:1 68:1 132:1 135:1 142:1 143:1 149:1 200:1 812:1 813:1 814:1 
-1 -0.3734846185355065 0:1 29:1 36:1 39:1 64:1 67:1 68:1 102:1 103:1 132:1 315:1 
-0 -0.03213317579153798 0:1 1:1 10:1 15:1 21:1 29:1 64:1 85:1 124:1 138:1 142:1 143:1 169:1 187:1 188:1 350:1 353:1 565:1 964:1 968:1 969:1 971:1 
-0.2698462701091663 -0 39:1 56:1 102:1 103:1 113:1 114:1 160:1 181:1 434:1 562:1 565:1 972:1 973:1 974:1 
-1 -0 1:1 29:1 39:1 56:1 64:1 67:1 68:1 102:1 103:1 113:1 114:1 338:1 685:1 977:1 
-0 -0.05623734825102611 0:1 1:1 3:1 6:1 44:1 65:1 109:1 174:1 184:1 423:1 424:1 988:1 995:1 
-0.202907152893495 -0 0:1 1:1 18:1 39:1 52:1 56:1 102:1 103:1 113:1 114:1 556:1 562:1 565:1 792:1 1027:1 1028:1 
-0.0551881184043491 -1 1:1 3:1 9:1 29:1 39:1 40:1 44:1 45:1 65:1 67:1 68:1 73:1 151:1 198:1 338:1 685:1 1031:1 
-0.1423967373725405 -0.5378405550957088 1:1 3:1 9:1 18:1 33:1 39:1 40:1 44:1 45:1 65:1 301:1 598:1 1042:1 1043:1 1044:1 
-0.5890264537560598 -1 0:1 1:1 3:1 9:1 27:1 66:1 67:1 68:1 69:1 85:1 251:1 253:1 254:1 310:1 911:1 1056:1 1057:1 
-0 -0.1385685685787056 0:1 27:1 29:1 61:1 72:1 82:1 86:1 114:1 160:1 188:1 244:1 345:1 346:1 348:1 432:1 497:1 498:1 
-0.0772602186701241 -0.309327659656861 19:1 20:1 21:1 27:1 29:1 61:1 82:1 86:1 92:1 114:1 160:1 188:1 484:1 497:1 498:1 766:1 767:1 1181:1 1223:1 
-0.5950147111513147 -0.09072029821037461 1:1 15:1 21:1 33:1 40:1 49:1 82:1 124:1 142:1 143:1 149:1 200:1 423:1 1088:1 1090:1 1232:1 1233:1 
-0.8682311569590002 -0 0:1 1:1 15:1 21:1 49:1 67:1 68:1 138:1 140:1 142:1 143:1 146:1 147:1 149:1 404:1 405:1 565:1 
-0.4579390521617541 -0 1:1 15:1 19:1 20:1 21:1 49:1 67:1 68:1 99:1 132:1 135:1 149:1 200:1 205:1 1328:1 
-1 -0.5265854560606088 1:1 15:1 19:1 20:1 21:1 29:1 67:1 68:1 132:1 135:1 149:1 151:1 200:1 205:1 1334:1 
-0.2440438479932301 -0.1494284600400958 0:1 1:1 15:1 40:1 43:1 49:1 117:1 225:1 235:1 243:1 244:1 270:1 1375:1 1376:1 1381:1 
-0.3030085807424802 -0.5312847925490535 0:1 1:1 14:1 15:1 26:1 36:1 39:1 67:1 68:1 328:1 329:1 335:1 565:1 1387:1 
-0 -0.5166090216131803 0:1 1:1 3:1 9:1 27:1 49:1 67:1 68:1 85:1 225:1 251:1 253:1 254:1 310:1 404:1 405:1 551:1 1205:1 1451:1 
-0 -1 1:1 3:1 9:1 27:1 39:1 67:1 68:1 132:1 135:1 251:1 253:1 254:1 320:1 1467:1 1468:1 
-0 -0.03279544329050148 0:1 10:1 39:1 52:1 202:1 225:1 243:1 244:1 441:1 442:1 443:1 597:1 1502:1 
-0 -0.2647049210302188 0:1 10:1 39:1 52:1 202:1 225:1 243:1 244:1 441:1 442:1 443:1 597:1 1502:1 
-1 -0.8627680461017517 0:1 26:1 36:1 39:1 40:1 52:1 295:1 494:1 728:1 1387:1 1534:1 1536:1 
-0.06226615194400449 -0 0:1 1:1 27:1 29:1 39:1 67:1 68:1 177:1 225:1 241:1 242:1 243:1 244:1 597:1 1301:1 1302:1 1545:1 
-0.2954180554601673 -0.5182712512384366 0:1 1:1 40:1 67:1 68:1 242:1 244:1 1273:1 1274:1 1554:1 1557:1 
-0 -1 0:1 1:1 12:1 15:1 29:1 40:1 92:1 182:1 244:1 270:1 295:1 1226:1 1269:1 1271:1 1273:1 1274:1 
-0 -0.1596062435095893 1:1 3:1 9:1 27:1 39:1 44:1 45:1 49:1 65:1 66:1 67:1 68:1 69:1 301:1 1146:1 1358:1 1618:1 
-0.09737133957444524 -0 0:1 7:1 43:1 49:1 74:1 76:1 85:1 117:1 235:1 621:1 1658:1 1659:1 1660:1 1661:1 1662:1 1663:1 1664:1 1666:1 
-0.679281469134196 -1 0:1 1:1 15:1 29:1 36:1 40:1 67:1 68:1 72:1 171:1 225:1 226:1 351:1 358:1 362:1 1281:1 1715:1 
-0.2613665843623445 -0.06662151856193176 21:1 33:1 40:1 58:1 114:1 149:1 160:1 181:1 205:1 497:1 498:1 838:1 839:1 840:1 1724:1 1725:1 
-0.618067149878433 -0.5515289543991061 0:1 1:1 14:1 15:1 18:1 26:1 33:1 40:1 56:1 142:1 270:1 498:1 679:1 838:1 839:1 840:1 1728:1 
-0.2658341084540439 -0 1:1 15:1 18:1 29:1 43:1 47:1 49:1 56:1 64:1 149:1 200:1 423:1 780:1 781:1 1232:1 1659:1 1664:1 1666:1 
-0 -0.2143421166899644 1:1 3:1 9:1 18:1 27:1 39:1 43:1 44:1 45:1 49:1 65:1 73:1 883:1 1603:1 1604:1 1811:1 1812:1 
-0.5909093345161641 -0.6456831668535755 0:1 1:1 15:1 21:1 40:1 49:1 67:1 68:1 85:1 138:1 142:1 143:1 328:1 329:1 533:1 674:1 944:1 1281:1 
-0.3928074661011594 -0.9081324091396414 1:1 10:1 15:1 21:1 27:1 29:1 52:1 58:1 64:1 124:1 133:1 134:1 187:1 188:1 619:1 622:1 623:1 1003:1 1922:1 
-0.8305610481791 -0.900306779966313 0:1 5:1 27:1 39:1 109:1 175:1 494:1 1267:1 1925:1 
-0.5603250659953088 -0 0:1 1:1 15:1 21:1 29:1 117:1 124:1 138:1 142:1 143:1 149:1 159:1 177:1 188:1 433:1 500:1 812:1 1942:1 
-0.5546292790749441 -0.4181325540721947 0:1 1:1 15:1 21:1 67:1 68:1 138:1 142:1 143:1 149:1 184:1 225:1 629:1 1245:1 1469:1 1921:1 
-0.1613466898323299 -0 1:1 39:1 68:1 184:1 225:1 241:1 242:1 243:1 244:1 441:1 519:1 597:1 713:1 714:1 1921:1 
-0 -0.1322692332790291 1:1 3:1 9:1 27:1 29:1 39:1 44:1 45:1 65:1 66:1 67:1 68:1 69:1 117:1 151:1 235:1 301:1 1979:1 1980:1 
-0 -1 0:1 1:1 3:1 9:1 27:1 29:1 39:1 58:1 67:1 68:1 132:1 135:1 195:1 251:1 253:1 254:1 1093:1 
-0.5189514525309968 -0.7130774542614319 1:1 3:1 27:1 49:1 67:1 68:1 109:1 132:1 135:1 251:1 253:1 504:1 1149:1 1166:1 1423:1 2059:1 2060:1 
-0.2800383303117062 -0.05619591672601931 0:1 1:1 3:1 9:1 39:1 49:1 52:1 67:1 68:1 171:1 251:1 253:1 254:1 320:1 351:1 1666:1 2065:1 
-0.501421646536952 -0.3437994414697799 0:1 1:1 3:1 9:1 12:1 13:1 18:1 186:1 190:1 191:1 562:1 565:1 843:1 2068:1 
-0.1031006281536825 -0 0:1 1:1 15:1 43:1 49:1 109:1 117:1 124:1 149:1 159:1 200:1 205:1 423:1 424:1 1533:1 1787:1 2070:1 
-0 -0.4629665218536116 0:1 1:1 3:1 6:1 9:1 29:1 39:1 44:1 45:1 52:1 65:1 72:1 295:1 301:1 692:1 1477:1 2096:1 
-0 -0.334454471136317 0:1 1:1 6:1 15:1 109:1 149:1 200:1 205:1 295:1 423:1 424:1 1147:1 
-0 -0.05567299336664558 0:1 1:1 3:1 9:1 39:1 44:1 45:1 65:1 66:1 67:1 68:1 69:1 73:1 184:1 2125:1 
-0 -0.01999188500342681 39:1 85:1 182:1 184:1 202:1 244:1 402:1 443:1 508:1 1670:1 2139:1 
-0.1185552376599966 -0 5:1 9:1 39:1 44:1 45:1 49:1 73:1 117:1 182:1 366:1 368:1 754:1 1422:1 2141:1 
-0.973849113778977 -1 1:1 3:1 26:1 27:1 29:1 30:1 40:1 44:1 48:1 65:1 67:1 68:1 109:1 270:1 404:1 405:1 780:1 781:1 1531:1 
-0 -0.08579574937337654 1:1 3:1 9:1 18:1 39:1 40:1 43:1 44:1 45:1 49:1 52:1 65:1 73:1 117:1 235:1 270:1 476:1 1017:1 2151:1 2152:1 2153:1 
-0 -0.6717667455365106 0:1 1:1 9:1 14:1 15:1 26:1 44:1 45:1 48:1 49:1 67:1 68:1 404:1 405:1 1531:1 
-0.2028368159228306 -0 1:1 3:1 40:1 44:1 49:1 65:1 67:1 68:1 109:1 117:1 270:1 404:1 405:1 780:1 781:1 954:1 988:1 1666:1 2074:1 
-0.6179753501477135 -0.1230082820814374 0:1 27:1 39:1 43:1 49:1 52:1 56:1 114:1 160:1 181:1 305:1 2197:1 2199:1 2200:1 2201:1 
-0.5144252171444522 -0.2696197234047534 33:1 40:1 86:1 114:1 145:1 160:1 181:1 244:1 277:1 279:1 345:1 346:1 348:1 497:1 498:1 1327:1 
-0.6662558481809007 -0.09816018133917753 0:1 1:1 15:1 17:1 19:1 20:1 21:1 27:1 49:1 142:1 149:1 200:1 205:1 792:1 936:1 1300:1 2269:1 
-0 -0.4719705312265491 0:1 1:1 3:1 9:1 18:1 39:1 40:1 43:1 44:1 45:1 49:1 65:1 301:1 952:1 953:1 1468:1 
-0 -0.2152254904802713 0:1 1:1 3:1 6:1 9:1 39:1 40:1 44:1 45:1 49:1 65:1 73:1 117:1 235:1 270:1 295:1 1531:1 2208:1 
-0 -0.4429630221078821 1:1 3:1 9:1 27:1 29:1 39:1 44:1 45:1 65:1 67:1 68:1 72:1 73:1 513:1 514:1 2325:1 2326:1 
-0.1020458820632976 -1 0:1 1:1 9:1 14:1 15:1 26:1 27:1 29:1 30:1 44:1 45:1 48:1 52:1 67:1 68:1 404:1 405:1 
-0 -0.3498177323268882 0:1 39:1 52:1 109:1 169:1 170:1 175:1 204:1 295:1 463:1 
-0.01958326049395923 -0 1:1 3:1 9:1 18:1 27:1 39:1 43:1 44:1 45:1 47:1 49:1 65:1 301:1 591:1 1381:1 1975:1 2367:1 
-0.05691611704828699 -0.5323448490833181 0:1 39:1 40:1 49:1 109:1 169:1 170:1 174:1 175:1 892:1 2361:1 2381:1 
-0.9122529920195778 -0.6072461192136213 33:1 40:1 52:1 61:1 82:1 142:1 149:1 160:1 161:1 162:1 164:1 165:1 166:1 1571:1 2188:1 2452:1 2453:1 2454:1 
-0 -0.8527299684259133 1:1 3:1 9:1 39:1 40:1 67:1 68:1 132:1 135:1 184:1 251:1 253:1 254:1 270:1 320:1 1247:1 2125:1 
-0 -0.4162844236697809 1:1 3:1 9:1 39:1 40:1 44:1 45:1 49:1 65:1 66:1 67:1 68:1 69:1 73:1 117:1 159:1 1046:1 1070:1 2484:1 
-0 -0.1588470847841317 1:1 3:1 9:1 39:1 44:1 45:1 49:1 65:1 66:1 67:1 68:1 69:1 73:1 158:1 1334:1 
-0 -1 0:1 1:1 3:1 9:1 27:1 39:1 44:1 45:1 49:1 65:1 66:1 67:1 68:1 69:1 73:1 1349:1 2496:1 
-0.4502505009638401 -0.3159275914865197 0:1 1:1 10:1 15:1 18:1 33:1 40:1 52:1 87:1 123:1 129:1 142:1 149:1 200:1 205:1 244:1 1003:1 1634:1 1635:1 2006:1 
-0 -1 0:1 1:1 3:1 9:1 39:1 40:1 44:1 45:1 49:1 65:1 66:1 67:1 68:1 69:1 117:1 235:1 270:1 301:1 396:1 
-0.09632087081653708 -0.327219973102585 0:1 1:1 9:1 14:1 15:1 18:1 26:1 44:1 45:1 48:1 180:1 184:1 706:1 2076:1 2079:1 
-1 -1 0:1 1:1 15:1 21:1 27:1 29:1 67:1 68:1 72:1 142:1 143:1 149:1 200:1 205:1 338:1 685:1 2620:1 
-1 -1 1:1 14:1 15:1 21:1 26:1 40:1 48:1 67:1 68:1 132:1 135:1 142:1 143:1 886:1 1221:1 
-0 -0.2576234371330812 0:1 1:1 3:1 6:1 9:1 39:1 44:1 45:1 65:1 73:1 184:1 295:1 960:1 2642:1 
-0.112995711981784 -0.2096127718131202 1:1 3:1 9:1 29:1 39:1 40:1 44:1 45:1 65:1 73:1 195:1 304:1 452:1 2638:1 2639:1 2642:1 2650:1 
-0 -0.02500972054835502 1:1 3:1 9:1 27:1 29:1 39:1 44:1 45:1 65:1 67:1 68:1 73:1 171:1 195:1 335:1 351:1 406:1 
-0.1646497139389774 -1 0:1 1:1 3:1 9:1 18:1 39:1 40:1 43:1 44:1 45:1 47:1 49:1 65:1 73:1 2653:1 2654:1 
-0.06820434716525765 -0.1496194696036661 0:1 1:1 9:1 14:1 15:1 26:1 44:1 45:1 48:1 49:1 66:1 67:1 68:1 69:1 184:1 2655:1 2657:1 
-0 -0.5997462947965638 9:1 29:1 39:1 44:1 45:1 47:1 177:1 301:1 340:1 341:1 620:1 861:1 
-0.4529589022580714 -0.4843667507217882 1:1 15:1 17:1 18:1 21:1 27:1 29:1 92:1 133:1 134:1 302:1 303:1 305:1 797:1 801:1 894:1 1276:1 
-0 -0.3774527461932655 0:1 1:1 3:1 9:1 39:1 44:1 45:1 49:1 65:1 66:1 67:1 68:1 69:1 73:1 117:1 831:1 954:1 
-1 -1 0:1 1:1 15:1 18:1 33:1 40:1 107:1 108:1 109:1 797:1 801:1 894:1 
-0.02779017803193928 -0.05754232528511884 1:1 3:1 9:1 29:1 39:1 44:1 45:1 65:1 66:1 67:1 68:1 69:1 117:1 235:1 301:1 897:1 2720:1 
-0 -0.2239338469595094 1:1 3:1 9:1 17:1 18:1 27:1 29:1 39:1 44:1 45:1 65:1 177:1 245:1 301:1 1656:1 1800:1 2721:1 
-0 -0.05075190317964163 1:1 3:1 9:1 18:1 39:1 40:1 43:1 44:1 45:1 49:1 65:1 117:1 235:1 301:1 621:1 1205:1 1659:1 1664:1 1666:1 
-0 -0.4272196264566059 0:1 1:1 3:1 9:1 39:1 40:1 44:1 45:1 49:1 65:1 66:1 67:1 68:1 69:1 301:1 1300:1 2728:1 2729:1 
-0 -0.05465547780490904 0:1 1:1 3:1 9:1 39:1 44:1 45:1 49:1 65:1 66:1 67:1 68:1 69:1 301:1 2728:1 
-0.858040233696341 -1 0:1 1:1 3:1 9:1 29:1 39:1 44:1 45:1 65:1 72:1 124:1 182:1 188:1 301:1 432:1 
-0 -0.799947927161322 0:1 1:1 3:1 9:1 39:1 44:1 45:1 49:1 65:1 66:1 67:1 68:1 69:1 301:1 975:1 
-0.4958263437655077 -1 0:1 1:1 9:1 14:1 15:1 26:1 29:1 44:1 45:1 48:1 49:1 64:1 66:1 67:1 68:1 69:1 1777:1 
-0 -0.2726655331514405 0:1 5:1 9:1 29:1 39:1 40:1 44:1 45:1 52:1 73:1 117:1 159:1 177:1 366:1 368:1 1421:1 1422:1 2766:1 
-0.189559248235537 -0 0:1 1:1 21:1 49:1 67:1 68:1 86:1 117:1 132:1 135:1 142:1 143:1 159:1 668:1 696:1 697:1 2862:1 
-0 -0.4498389130597293 0:1 1:1 6:1 27:1 39:1 52:1 174:1 225:1 241:1 242:1 243:1 244:1 567:1 597:1 1003:1 
-0.01486496108046899 -0.02918685312658619 1:1 15:1 18:1 27:1 43:1 49:1 95:1 109:1 121:1 149:1 200:1 205:1 423:1 424:1 658:1 661:1 2129:1 2171:1 
-0 -0.4331383424424703 1:1 3:1 6:1 9:1 12:1 13:1 40:1 225:1 295:1 338:1 551:1 616:1 617:1 618:1 832:1 977:1 2930:1 
-0.1756062694128413 -0 0:1 1:1 15:1 18:1 52:1 60:1 109:1 149:1 184:1 200:1 205:1 423:1 424:1 1787:1 1921:1 
-0 -1 0:1 1:1 3:1 9:1 39:1 44:1 45:1 65:1 67:1 68:1 73:1 565:1 1301:1 1302:1 
-0.2372171234082937 -0 0:1 1:1 15:1 21:1 67:1 68:1 138:1 142:1 143:1 171:1 184:1 351:1 504:1 505:1 1859:1 1861:1 2184:1 2993:1 
-0 -0.9021832601938141 0:1 1:1 3:1 9:1 39:1 44:1 45:1 49:1 65:1 66:1 67:1 68:1 69:1 73:1 2995:1 
-0.5834285962797218 -0.5624659846338058 0:1 1:1 3:1 9:1 39:1 40:1 44:1 45:1 52:1 65:1 67:1 68:1 73:1 171:1 351:1 2184:1 2185:1 
-0.06768206353559454 -0.2394145215330429 0:1 1:1 9:1 14:1 15:1 18:1 26:1 43:1 44:1 45:1 48:1 49:1 117:1 159:1 2698:1 3008:1 
-0.5121554044579126 -0.09282410985840761 0:1 1:1 14:1 15:1 18:1 26:1 44:1 49:1 52:1 60:1 109:1 556:1 667:1 780:1 781:1 988:1 1502:1 1666:1 
-0 -0.3732348329354996 9:1 18:1 39:1 43:1 44:1 45:1 49:1 99:1 117:1 301:1 612:1 954:1 1282:1 3010:1 
-1 -0.1276043787093733 1:1 19:1 20:1 21:1 29:1 58:1 67:1 68:1 86:1 117:1 118:1 132:1 135:1 151:1 696:1 697:1 766:1 767:1 
-0.935506595296306 -0.08918328847546035 0:1 1:1 15:1 21:1 29:1 67:1 68:1 142:1 143:1 149:1 151:1 184:1 200:1 205:1 225:1 404:1 405:1 
-0.07062579345307489 -0 0:1 40:1 52:1 60:1 86:1 114:1 160:1 181:1 244:1 345:1 346:1 348:1 387:1 497:1 498:1 3038:1 3039:1 
-1 -0.1140196951444706 0:1 1:1 6:1 14:1 15:1 21:1 26:1 48:1 49:1 117:1 133:1 134:1 295:1 906:1 976:1 
-1 -1 1:1 9:1 14:1 15:1 26:1 33:1 40:1 44:1 45:1 48:1 82:1 124:1 1345:1 1347:1 
-1 -0 1:1 10:1 14:1 15:1 18:1 21:1 26:1 27:1 43:1 48:1 49:1 133:1 134:1 305:1 1349:1 2133:1 3089:1 
-0 -0.02372423201426266 0:1 1:1 15:1 18:1 36:1 39:1 43:1 49:1 152:1 154:1 155:1 1540:1 3052:1 3091:1 
-0 -0.1578841675664128 0:1 1:1 15:1 18:1 36:1 39:1 43:1 49:1 95:1 152:1 154:1 155:1 1423:1 3102:1 
-0 -0.5151910381405328 0:1 9:1 27:1 29:1 39:1 44:1 45:1 68:1 73:1 95:1 177:1 713:1 714:1 2019:1 
-0.6309898143516602 -0 0:1 39:1 40:1 109:1 169:1 170:1 175:1 295:1 684:1 1585:1 
-0.2059914124451336 -1 0:1 33:1 40:1 86:1 114:1 160:1 181:1 244:1 345:1 346:1 348:1 497:1 498:1 
-0 -1 1:1 3:1 9:1 39:1 44:1 45:1 65:1 82:1 301:1 
-1 -0.5713743875578939 0:1 1:1 15:1 19:1 20:1 21:1 82:1 149:1 200:1 
-0 -1 1:1 3:1 9:1 39:1 44:1 45:1 65:1 66:1 67:1 68:1 69:1 301:1 549:1 
-0 -0.3845200927557872 9:1 39:1 44:1 45:1 73:1 340:1 341:1 565:1 861:1 2112:1 2295:1 3186:1 
-0.1057105715766965 -0.4567196375762314 0:1 39:1 49:1 109:1 135:1 174:1 175:1 1652:1 1776:1 2862:1 3196:1 
-0 -0.3444304230671942 0:1 1:1 3:1 9:1 27:1 39:1 44:1 45:1 49:1 65:1 66:1 67:1 68:1 69:1 301:1 305:1 1321:1 
-0 -0.1045668170160408 0:1 1:1 15:1 18:1 36:1 39:1 43:1 49:1 152:1 154:1 155:1 
-0 -0.9449103185558627 1:1 3:1 9:1 39:1 40:1 44:1 45:1 65:1 66:1 67:1 68:1 69:1 301:1 1418:1 1583:1 
-0 -0.6162576171913816 0:1 1:1 3:1 9:1 29:1 39:1 44:1 45:1 49:1 65:1 66:1 67:1 68:1 69:1 112:1 222:1 301:1 
-0.4425927445851051 -0.2728122690526302 0:1 1:1 21:1 49:1 66:1 67:1 68:1 69:1 117:1 142:1 143:1 148:1 159:1 712:1 2856:1 
-0.9757278603092385 -0.823113115636246 0:1 5:1 9:1 39:1 82:1 184:1 861:1 2757:1 
-0.3808399429448942 -0.4114524240574029 0:1 1:1 15:1 18:1 21:1 29:1 64:1 142:1 143:1 187:1 188:1 407:1 3342:1 
-0 -0.1089651715428271 0:1 1:1 14:1 15:1 17:1 26:1 27:1 36:1 48:1 49:1 82:1 124:1 154:1 155:1 3056:1 
-0.1205531235776977 -0 0:1 29:1 36:1 39:1 52:1 67:1 68:1 154:1 155:1 195:1 351:1 830:1 1299:1 
-1 -0.5560093314565174 1:1 29:1 39:1 49:1 58:1 64:1 124:1 188:1 334:1 340:1 581:1 971:1 3359:1 3360:1 3361:1 3362:1 3363:1 
-0.4699362414071255 -0 0:1 18:1 29:1 36:1 39:1 52:1 95:1 150:1 154:1 155:1 177:1 188:1 500:1 
-0 -0.1000907783324979 0:1 1:1 15:1 52:1 67:1 68:1 244:1 328:1 329:1 426:1 1269:1 1273:1 1274:1 3230:1 
-0.2566008636872081 -0.190367914536373 0:1 1:1 14:1 15:1 26:1 67:1 68:1 99:1 109:1 132:1 135:1 504:1 565:1 1166:1 1995:1 
-0.3230565629030375 -0 1:1 15:1 18:1 21:1 43:1 49:1 117:1 133:1 134:1 157:1 159:1 797:1 801:1 894:1 1659:1 1664:1 1666:1 
-0 -0.002810689626797361 0:1 1:1 18:1 29:1 64:1 85:1 86:1 149:1 187:1 188:1 244:1 348:1 407:1 508:1 696:1 697:1 1995:1 
-1 -0.264336113320993 0:1 39:1 40:1 43:1 49:1 54:1 55:1 56:1 95:1 114:1 117:1 160:1 178:1 181:1 270:1 614:1 981:1 1691:1 3418:1 
-0.3128919644502098 -0.2057790370988781 0:1 1:1 15:1 21:1 67:1 68:1 142:1 143:1 184:1 402:1 622:1 1038:1 1581:1 3207:1 
-0.922318220480324 -0.1690279362465271 0:1 1:1 15:1 18:1 21:1 29:1 107:1 142:1 143:1 145:1 149:1 188:1 200:1 340:1 528:1 581:1 1703:1 
-0 -0.04082823859869977 0:1 1:1 3:1 9:1 39:1 44:1 45:1 49:1 52:1 65:1 67:1 68:1 150:1 301:1 1510:1 2089:1 
-0 -0.3523298703890169 0:1 33:1 40:1 86:1 114:1 160:1 181:1 244:1 345:1 346:1 348:1 481:1 497:1 498:1 2013:1 
-1 -0.01087594673151855 1:1 15:1 36:1 39:1 82:1 102:1 103:1 113:1 189:1 832:1 3473:1 
-0.4969300372145043 -0 36:1 39:1 67:1 102:1 103:1 132:1 565:1 728:1 1664:1 1666:1 2588:1 
-0.3782263460865959 -0 0:1 29:1 39:1 52:1 56:1 61:1 64:1 102:1 103:1 113:1 114:1 160:1 187:1 188:1 842:1 843:1 
-0.119814498250379 -0 0:1 1:1 15:1 18:1 36:1 39:1 102:1 103:1 113:1 120:1 562:1 565:1 1147:1 2498:1 
-0.5071589371770004 -0 39:1 56:1 61:1 82:1 102:1 103:1 113:1 114:1 160:1 180:1 184:1 2985:1 2987:1 
-0.8738192485454174 -0 0:1 36:1 39:1 102:1 103:1 1477:1 
-0.4523276491841814 -0 0:1 1:1 15:1 21:1 49:1 67:1 68:1 117:1 141:1 142:1 143:1 144:1 149:1 200:1 812:1 813:1 954:1 2053:1 
-0.8079833933192436 -0 0:1 1:1 15:1 21:1 49:1 67:1 68:1 142:1 143:1 149:1 200:1 338:1 565:1 685:1 812:1 813:1 971:1 2914:1 
-0.5966569206653516 -0 1:1 15:1 18:1 36:1 39:1 102:1 103:1 113:1 562:1 565:1 1659:1 1664:1 1666:1 2588:1 
-0.5672769427360403 -0.1561820935258648 36:1 39:1 67:1 68:1 102:1 103:1 328:1 2647:1 2648:1 
-0.4679110332404558 -0 0:1 39:1 56:1 102:1 103:1 184:1 295:1 2600:1 3523:1 
-0.948537655695085 -0 0:1 29:1 39:1 56:1 66:1 67:1 102:1 103:1 113:1 114:1 160:1 581:1 1234:1 
-0.5485177156513678 -0 0:1 1:1 15:1 18:1 36:1 39:1 58:1 102:1 103:1 113:1 180:1 184:1 
-0.3854210171763718 -0 0:1 29:1 39:1 56:1 102:1 103:1 117:1 159:1 177:1 295:1 959:1 2559:1 
-0.6346911224270186 -0 29:1 36:1 39:1 67:1 68:1 102:1 103:1 543:1 581:1 847:1 848:1 
-0.3410108194237242 -0.1954274923675829 0:1 36:1 39:1 102:1 103:1 832:1 833:1 3538:1 
-0 -0.2127507026276705 6:1 36:1 39:1 102:1 103:1 295:1 847:1 848:1 849:1 
-1 -0 0:1 1:1 6:1 15:1 29:1 36:1 39:1 102:1 103:1 113:1 195:1 295:1 706:1 
-0.7611288410210009 -0 0:1 1:1 15:1 18:1 36:1 39:1 49:1 102:1 103:1 113:1 180:1 184:1 3446:1 
-0.001838969854511155 -0 1:1 5:1 6:1 15:1 29:1 36:1 39:1 64:1 102:1 103:1 113:1 315:1 991:1 3585:1 
-0.08067462321185355 -0 1:1 15:1 18:1 29:1 36:1 39:1 64:1 102:1 103:1 113:1 145:1 187:1 188:1 2443:1 
-1 -0 0:1 1:1 5:1 6:1 10:1 15:1 36:1 39:1 102:1 103:1 113:1 3590:1 
-1 -0.1756656584328763 0:1 10:1 36:1 39:1 102:1 103:1 295:1 728:1 3481:1 
-0.3178037773811005 -0.7991418589553558 0:1 1:1 3:1 9:1 39:1 52:1 68:1 251:1 253:1 254:1 519:1 713:1 714:1 1093:1 1646:1 
-0 -0.4631044791401467 0:1 36:1 39:1 52:1 154:1 155:1 171:1 340:1 341:1 728:1 2426:1 
-0.1738268686950562 -0 1:1 5:1 6:1 15:1 29:1 36:1 39:1 64:1 102:1 103:1 113:1 315:1 991:1 3585:1 
-0.1293174783248304 -0.02085682189044635 0:1 39:1 52:1 56:1 58:1 102:1 103:1 113:1 114:1 160:1 174:1 313:1 334:1 1879:1 
-0.1980207524750071 -0.3060999925484422 1:1 3:1 9:1 39:1 49:1 51:1 67:1 68:1 117:1 251:1 253:1 254:1 320:1 954:1 3468:1 3625:1 3626:1 
-0 -0.06824333014332937 1:1 3:1 9:1 27:1 29:1 39:1 44:1 45:1 65:1 66:1 67:1 68:1 69:1 177:1 301:1 1872:1 3627:1 
-0.8377379140880057 -0 0:1 1:1 5:1 6:1 15:1 36:1 39:1 102:1 103:1 113:1 3559:1 
-0.6565888260693661 -0 1:1 6:1 15:1 29:1 36:1 39:1 52:1 64:1 67:1 102:1 103:1 113:1 204:1 973:1 1139:1 3430:1 
