svm_type c_svc
kernel_type linear
nr_class 2
total_sv 4663
rho -2.88156
label 0 1
nr_sv 2863 1800
SV
0.6553004682491751 0:1 9:0.024851715 10:1 11:0.069892473 42:1 59:1 162:1 206:1 355:1 360:1 361:1 
0.1436012778330235 1:1 7:1 8:1 9:0.034722222 11:0.024851715 23:1 76:1 101:1 104:1 127:1 129:1 162:1 167:1 542:1 545:1 548:1 551:1 572:1 573:1 574:1 
0.4232012120323876 1:1 9:0.034482759 11:0.44444444 23:1 24:1 25:1 46:1 47:1 153:1 154:1 157:1 549:1 574:1 577:1 578:1 
1 1:1 9:0 11:0.51923077 15:1 25:1 33:1 54:1 153:1 544:1 551:1 552:1 553:1 574:1 577:1 578:1 
1 1:1 7:1 8:1 9:0.66666667 11:0.19047619 46:1 47:1 153:1 551:1 574:1 577:1 800:1 829:1 830:1 831:1 832:1 833:1 
0.1625133167493019 1:1 9:0.125 10:1 11:0.040609137 76:1 80:1 129:1 173:1 278:1 279:1 600:1 601:1 939:1 940:1 
0.130338730006487 0:1 9:0.024851715 10:1 11:0 50:1 54:1 55:1 59:1 1071:1 1072:1 1073:1 
0.1015481824565196 9:0.024851715 10:1 11:0 42:1 54:1 499:1 798:1 1078:1 1079:1 1080:1 1081:1 
0.03550438928173123 1:1 9:0.024851715 11:0 127:1 129:1 206:1 245:1 474:1 476:1 823:1 885:1 1247:1 1264:1 1265:1 1266:1 
1 1:1 9:0.024851715 11:0.51923077 25:1 69:1 75:1 153:1 206:1 551:1 552:1 574:1 577:1 578:1 1285:1 1293:1 
0.04039157877567551 1:1 9:0.0080645161 10:1 11:0.0047393365 18:1 76:1 80:1 217:1 221:1 315:1 782:1 787:1 788:1 1321:1 
0.2102671709217014 9:0.024851715 10:1 11:0.95391705 42:1 75:1 206:1 504:1 505:1 1475:1 1517:1 1522:1 
0.05896311775302675 7:1 8:1 9:0 10:1 11:0.1221374 80:1 179:1 181:1 182:1 185:1 648:1 1148:1 1150:1 1151:1 
1 1:1 9:0.084645669 11:0.11428571 45:1 46:1 47:1 127:1 129:1 130:1 338:1 339:1 823:1 885:1 1328:1 1332:1 1720:1 
0.05533500902401058 9:0.024889626 10:1 11:0 42:1 444:1 499:1 804:1 1855:1 1856:1 1857:1 1858:1 
0.05427397474583903 1:1 9:0.0625 11:0.024889626 46:1 47:1 153:1 156:1 429:1 434:1 805:1 809:1 1855:1 1881:1 1885:1 1886:1 1887:1 
0.7917734294458831 1:1 9:0.013333333 11:0.024889626 27:1 46:1 47:1 60:1 127:1 129:1 139:1 278:1 279:1 1782:1 1809:1 1920:1 
0.1482118965701274 1:1 9:0.024889626 11:0.024889626 80:1 104:1 127:1 129:1 173:1 206:1 338:1 339:1 551:1 574:1 594:1 1910:1 1914:1 1924:1 1925:1 1926:1 
1 9:0.036585366 11:0.52229299 25:1 46:1 154:1 157:1 179:1 181:1 551:1 552:1 565:1 574:1 578:1 1913:1 1914:1 1929:1 
0.3743130800777625 9:0.024889626 11:0 63:1 104:1 116:1 118:1 122:1 267:1 338:1 408:1 455:1 646:1 826:1 828:1 834:1 1096:1 2052:1 2054:1 2078:1 
1 1:1 9:0.018596281 11:1 46:1 47:1 127:1 129:1 154:1 157:1 338:1 339:1 455:1 475:1 2054:1 2083:1 2084:1 
0.3324098270200086 0:1 1:1 9:0 11:0.024848774 45:1 46:1 47:1 50:1 130:1 153:1 2528:1 2529:1 2530:1 2545:1 2546:1 
0.8536154990273949 0:1 6:1 9:0.32142857 10:1 11:0.31212121 18:1 20:1 21:1 80:1 302:1 2585:1 
0.1033041217520404 9:0.02489564 10:1 11:0 50:1 51:1 54:1 55:1 2617:1 2618:1 2619:1 2620:1 
0.02983250487500778 0:1 9:0.02489564 10:1 11:0 50:1 51:1 54:1 55:1 1765:1 2798:1 2799:1 
1 9:0.02489564 10:1 11:0.85950413 50:1 54:1 55:1 365:1 2873:1 2874:1 2875:1 2876:1 
0.1228066955596096 1:1 9:0.084479371 11:0.02489564 45:1 46:1 47:1 104:1 127:1 129:1 130:1 338:1 339:1 2754:1 2885:1 2888:1 2909:1 2910:1 2911:1 
0.3599257322930753 0:1 1:1 9:0 10:1 11:0.0061500615 14:1 25:1 78:1 807:1 808:1 2952:1 2954:1 2955:1 2956:1 
0.0001784526620350065 0:1 6:1 9:0.02489564 10:1 11:0.02489564 14:1 241:1 3099:1 3100:1 
0.03893935385950647 6:1 9:0.02489564 10:1 11:0 14:1 241:1 2860:1 3100:1 3105:1 3106:1 3107:1 
0.2134758665656878 9:0 10:1 11:0.054054054 42:1 315:1 316:1 499:1 1434:1 3342:1 3343:1 3344:1 
0.06461210211709513 1:1 9:0.02489564 11:1 50:1 127:1 162:1 342:1 930:1 1348:1 1431:1 1432:1 3241:1 3339:1 3340:1 3342:1 3347:1 3349:1 3360:1 3361:1 
0.5125543294820273 1:1 9:0.02489564 11:1 15:1 50:1 54:1 342:1 345:1 346:1 1348:1 1431:1 1432:1 3340:1 3342:1 3346:1 3361:1 
0.1886431516324072 9:0.02489564 10:1 11:0 50:1 55:1 382:1 444:1 1431:1 1432:1 1857:1 3375:1 
0.8680511372472578 0:1 1:1 9:0.28571429 11:0.02489564 25:1 45:1 46:1 47:1 77:1 78:1 81:1 82:1 130:1 278:1 455:1 728:1 
0.6989845609127185 9:0.2 11:0.02489564 25:1 46:1 179:1 181:1 565:1 627:1 630:1 807:1 808:1 1914:1 1929:1 3391:1 3589:1 3613:1 
1 7:1 8:1 9:0.71428571 10:1 11:0.76666667 162:1 179:1 181:1 182:1 185:1 690:1 691:1 723:1 3623:1 
0.2058556937846528 0:1 1:1 9:0.015015015 11:0 46:1 47:1 129:1 153:1 338:1 339:1 574:1 577:1 805:1 809:1 3653:1 3658:1 
0.2829129906505466 0:1 1:1 7:1 8:1 9:0.17346939 11:1 75:1 76:1 93:1 101:1 107:1 127:1 129:1 278:1 279:1 338:1 455:1 607:1 782:1 1390:1 1406:1 1431:1 1794:1 2866:1 2920:1 3342:1 3361:1 3385:1 3676:1 3679:1 3686:1 3698:1 3699:1 
1 6:1 8:1 9:0 10:1 11:0.80839161 35:1 315:1 316:1 508:1 509:1 1276:1 
0.3308969301065212 1:1 7:1 8:1 9:0 11:0.8 15:1 50:1 54:1 342:1 345:1 346:1 508:1 779:1 1271:1 1272:1 3021:1 
1 9:0.75510204 10:1 11:0.7284264 25:1 29:1 315:1 316:1 381:1 1058:1 3988:1 3989:1 
0.2525580464806297 9:0.024886223 10:1 11:0 50:1 54:1 55:1 764:1 1071:1 3630:1 4042:1 4043:1 
0.9506868777093975 1:1 9:0.024886223 10:1 11:0 46:1 47:1 181:1 185:1 247:1 636:1 637:1 798:1 800:1 4155:1 
1 1:1 9:0.0077399381 11:0.54166667 47:1 127:1 129:1 218:1 219:1 222:1 338:1 339:1 360:1 388:1 535:1 4204:1 
0.03557119190036525 0:1 1:1 9:0.011695906 11:0 18:1 76:1 99:1 127:1 129:1 162:1 338:1 339:1 394:1 574:1 1507:1 1793:1 1914:1 2064:1 2154:1 2393:1 4254:1 4292:1 4294:1 4298:1 4319:1 4320:1 4321:1 4323:1 
1 1:1 8:1 9:0.66666667 11:0.25 46:1 47:1 102:1 127:1 129:1 581:1 1112:1 1136:1 4430:1 4436:1 4437:1 
0.07712998183596417 0:1 1:1 9:0.024886223 11:0.024886223 46:1 47:1 50:1 153:1 455:1 1970:1 1972:1 3291:1 4366:1 4369:1 4435:1 4440:1 
0.1288952415652802 0:1 9:0.024886223 10:1 11:0.024886223 50:1 54:1 55:1 643:1 4489:1 4490:1 
0.08421528365039378 0:1 1:1 9:0.024886223 11:0.024886223 46:1 47:1 50:1 104:1 127:1 278:1 4527:1 4528:1 4530:1 4534:1 4535:1 4548:1 4549:1 
1 0:1 1:1 9:0.80555556 10:1 11:0.5915493 45:1 46:1 47:1 130:1 153:1 574:1 577:1 839:1 4324:1 
0.07474832907619547 0:1 6:1 9:0.024886223 10:1 11:0.024886223 35:1 54:1 764:1 1228:1 4598:1 
1 0:1 1:1 9:0.024886223 11:0.024886223 76:1 80:1 153:1 156:1 246:1 247:1 574:1 577:1 2666:1 3458:1 3462:1 
1 0:1 6:1 9:0.7007874 10:1 11:0.31306991 20:1 21:1 46:1 47:1 60:1 139:1 
0.1113876387133856 0:1 9:0.024886223 10:1 11:0.024886223 42:1 54:1 381:1 499:1 4464:1 4657:1 
0.4403487979585618 1:1 9:0.024886223 11:0.5 127:1 129:1 162:1 206:1 823:1 885:1 1266:1 2783:1 3291:1 3294:1 4683:1 4694:1 
1 1:1 9:0.5 11:0 25:1 75:1 101:1 153:1 206:1 209:1 455:1 574:1 577:1 807:1 808:1 1535:1 4124:1 4843:1 4844:1 
1 1:1 9:0.5 11:0 25:1 75:1 153:1 206:1 209:1 574:1 577:1 807:1 808:1 1535:1 4124:1 4843:1 4844:1 
0.1588014843860695 1:1 9:0 11:0.11111111 101:1 104:1 127:1 129:1 167:1 189:1 206:1 1022:1 4935:1 4937:1 4950:1 4951:1 4952:1 4953:1 
0.5335877413947375 1:1 9:0 11:0.40322581 80:1 127:1 129:1 206:1 338:1 339:1 615:1 617:1 643:1 823:1 885:1 1266:1 
1 1:1 9:0.082677165 11:0.084942085 45:1 46:1 47:1 99:1 127:1 129:1 130:1 338:1 339:1 551:1 574:1 820:1 823:1 885:1 887:1 5284:1 
0.2265231841087003 1:1 9:0 10:1 11:0.040201005 45:1 46:1 47:1 129:1 130:1 278:1 279:1 600:1 601:1 5616:1 
0.8020377656432311 1:1 9:0.375 10:1 11:0.040201005 76:1 80:1 129:1 234:1 262:1 278:1 279:1 600:1 601:1 1045:1 
1 1:1 9:0.80555556 10:1 11:0.5915493 45:1 46:1 47:1 130:1 153:1 574:1 577:1 839:1 4324:1 4618:1 
0.06634621290542957 9:0 10:1 11:0 42:1 51:1 54:1 499:1 1058:1 4567:1 4568:1 5855:1 
0.005858463333175194 9:0 11:0 46:1 63:1 179:1 181:1 185:1 313:1 1052:1 1367:1 1380:1 1381:1 1406:1 1407:1 1413:1 
0.0404459634682083 9:0 11:0 50:1 80:1 101:1 102:1 104:1 209:1 231:1 302:1 308:1 338:1 563:1 580:1 587:1 729:1 1508:1 1535:1 1542:1 3524:1 4726:1 5836:1 5897:1 5898:1 5901:1 5903:1 5905:1 5908:1 5915:1 5916:1 5917:1 5918:1 5919:1 
0.7476697080378083 0:1 9:0.024882617 10:1 11:0.024882617 50:1 54:1 55:1 613:1 1449:1 2353:1 
0.005295468538866821 0:1 8:1 9:0 10:1 11:0 50:1 54:1 55:1 381:1 6501:1 6502:1 
0.09115390596998246 0:1 6:1 9:0.024887897 10:1 11:0.024887897 14:1 35:1 6603:1 6663:1 
0.001956793868718628 0:1 9:0.02485094 10:1 11:0 42:1 54:1 499:1 1081:1 6824:1 6825:1 6826:1 
0.0513313979623975 1:1 3:1 9:0.075520833 11:0.02485094 46:1 47:1 104:1 129:1 338:1 339:1 1112:1 1136:1 1904:1 6817:1 6820:1 6841:1 6842:1 6843:1 
0.351721783284113 9:0 10:1 11:0.0039525692 44:1 50:1 54:1 55:1 323:1 820:1 821:1 1081:1 
0.7730655764630434 1:1 9:0.048780488 11:0.20689655 46:1 47:1 104:1 127:1 129:1 241:1 338:1 339:1 1082:1 1970:1 1972:1 2052:1 2079:1 2080:1 
0.00449420825888661 9:0 10:1 11:0 50:1 55:1 146:1 764:1 2245:1 7074:1 7075:1 7076:1 
0.2840391700370403 1:1 9:0.02485094 11:0.02485094 46:1 47:1 60:1 139:1 153:1 278:1 455:1 728:1 839:1 2285:1 7080:1 7096:1 7098:1 7099:1 
0.5987664684266506 1:1 9:0.02485094 11:0.53030303 127:1 129:1 278:1 279:1 455:1 475:1 479:1 688:1 1058:1 1931:1 7079:1 7101:1 
0.01656133670313479 0:1 1:1 3:1 9:0.02485094 11:0.02485094 50:1 75:1 206:1 1431:1 1432:1 6624:1 7102:1 7134:1 
0.1017682389862363 6:1 9:0.02485094 10:1 11:0 14:1 35:1 7226:1 7227:1 7228:1 7229:1 7230:1 
0.0764121900358166 9:0 10:1 11:0.25806452 42:1 44:1 45:1 46:1 47:1 381:1 2528:1 2529:1 
1 9:1 10:1 11:0.25806452 44:1 50:1 51:1 54:1 55:1 2528:1 2529:1 4393:1 
0.10366353715978 9:0.02485094 11:0 97:1 101:1 104:1 116:1 117:1 118:1 120:1 121:1 122:1 140:1 189:1 2528:1 3015:1 4412:1 6890:1 7408:1 7410:1 
0.8296108524065781 1:1 9:0.062761506 11:0 45:1 46:1 47:1 101:1 127:1 129:1 130:1 167:1 2528:1 2544:1 4412:1 4414:1 6288:1 
0.3897323643619324 9:0 10:1 11:0 25:1 146:1 333:1 1161:1 1162:1 1313:1 4434:1 7430:1 
0.1746306482758231 9:0 10:1 11:0.25396825 42:1 75:1 206:1 250:1 4910:1 4911:1 7506:1 7507:1 
0.9172405298624365 9:0.02485094 10:1 11:0 80:1 173:1 179:1 181:1 185:1 241:1 356:1 4182:1 4183:1 4184:1 7525:1 
0.00822359213004584 0:1 9:0.02485094 10:1 11:0.02485094 50:1 51:1 54:1 55:1 1419:1 7538:1 
0.020216264736314 9:0.02485094 10:1 11:0 42:1 54:1 499:1 2764:1 7229:1 7230:1 7431:1 7432:1 
0.06587287428021578 9:0 10:1 11:0 42:1 51:1 54:1 241:1 499:1 3286:1 7738:1 7739:1 
1 0:1 1:1 9:0.02485094 10:1 11:0.57534247 18:1 153:1 332:1 574:1 577:1 591:1 839:1 4324:1 7749:1 
1 1:1 9:0 11:1 46:1 47:1 127:1 129:1 154:1 157:1 278:1 279:1 4910:1 4923:1 7515:1 7757:1 
0.344517773711367 0:1 9:0.02485094 11:0 75:1 179:1 181:1 209:1 356:1 574:1 807:1 940:1 1016:1 1017:1 1535:1 1914:1 1929:1 4099:1 7822:1 
0.0441590761006681 0:1 1:1 9:0.02485094 11:0.02485094 98:1 127:1 128:1 129:1 189:1 206:1 213:1 1224:1 1227:1 3916:1 
0.05176647386051951 1:1 9:0.02485094 11:0.02485094 46:1 47:1 60:1 127:1 139:1 773:1 774:1 1142:1 1144:1 6890:1 8041:1 8055:1 8056:1 
0.06133894417775083 0:1 6:1 9:0.02485094 10:1 11:0.02485094 14:1 35:1 241:1 1940:1 8123:1 
0.133588462582307 0:1 9:0.02485094 10:1 11:0 42:1 54:1 59:1 499:1 5517:1 6890:1 6891:1 
0.001731784120006361 9:0.02485094 10:1 11:0 42:1 54:1 386:1 499:1 6066:1 7216:1 8174:1 8175:1 
0.05610887414055567 0:1 9:0.02485094 10:1 11:0 42:1 319:1 444:1 499:1 1732:1 6890:1 6891:1 
1 1:1 3:1 6:1 9:0.7016129 11:0.80645161 20:1 21:1 46:1 47:1 60:1 93:1 112:1 139:1 214:1 504:1 551:1 1088:1 1507:1 3988:1 4006:1 8253:1 8256:1 
0.06915880264302694 1:1 3:1 6:1 9:0.02485094 10:1 11:0 46:1 47:1 60:1 139:1 8282:1 8283:1 8284:1 8285:1 
0.09998869288798089 1:1 3:1 6:1 9:0.02485094 11:0 80:1 99:1 206:1 302:1 308:1 338:1 508:1 509:1 750:1 3054:1 3793:1 3794:1 8276:1 8279:1 8283:1 
1 9:0.02485094 10:1 11:0.17948718 75:1 179:1 181:1 185:1 356:1 706:1 7518:1 7519:1 8426:1 8427:1 8428:1 
0.01695432662811098 1:1 9:0 11:0.39344262 76:1 127:1 129:1 189:1 338:1 339:1 823:1 885:1 1224:1 1266:1 4484:1 8577:1 
1 9:0 10:1 11:0.12307692 75:1 179:1 181:1 182:1 185:1 247:1 333:1 1148:1 1150:1 1151:1 1293:1 
0.09816852556610148 0:1 9:0.024827839 10:1 11:0.024827839 50:1 55:1 213:1 444:1 8622:1 8624:1 8625:1 
0.2345319542732954 9:0.48275862 10:1 11:0.35897436 50:1 55:1 139:1 444:1 550:1 7119:1 7120:1 8747:1 
0.07658159932947273 9:0.024827839 10:1 11:0 50:1 55:1 196:1 222:1 444:1 8725:1 8808:1 8809:1 
0.3100887680225186 0:1 9:0.024827839 10:1 11:0.024827839 50:1 55:1 247:1 444:1 1673:1 4415:1 
0.07393261491656232 0:1 9:0.024827839 10:1 11:0 42:1 130:1 444:1 499:1 8625:1 8700:1 8701:1 
0.08186355509451942 0:1 9:0.024942129 10:1 11:0.024942129 50:1 54:1 55:1 323:1 613:1 9075:1 
1 1:1 7:1 8:1 9:0.5 10:1 11:0.56521739 75:1 76:1 153:1 574:1 577:1 839:1 4324:1 9082:1 
0.0421776335998812 1:1 3:1 9:0.38461538 11:0.024942129 15:1 18:1 50:1 54:1 1591:1 1592:1 2873:1 2874:1 9090:1 9104:1 9106:1 9123:1 9124:1 
0.06053346296240494 0:1 6:1 9:0.024942129 10:1 11:0 14:1 35:1 386:1 1863:1 1864:1 2087:1 
0.0002686689647221703 0:1 6:1 9:0.024942129 10:1 11:0.024942129 14:1 241:1 1866:1 3100:1 
0.2031242315090939 0:1 1:1 8:1 9:0 11:0.5 46:1 47:1 60:1 99:1 108:1 127:1 129:1 139:1 784:1 792:1 1088:1 1122:1 2064:1 2820:1 2829:1 9380:1 9403:1 9404:1 9405:1 
1 1:1 8:1 9:0 11:0.5 46:1 47:1 60:1 127:1 129:1 139:1 784:1 792:1 2820:1 2829:1 9405:1 
0.6730929454184656 0:1 9:0.024942129 10:1 11:0.024942129 44:1 50:1 55:1 323:1 444:1 
0.1772694699364739 1:1 9:0.077720207 11:0 46:1 47:1 127:1 129:1 338:1 339:1 823:1 885:1 1112:1 1136:1 1760:1 3468:1 9612:1 
0.09572870588218101 0:1 9:0 10:1 11:0 50:1 51:1 54:1 55:1 970:1 971:1 3630:1 
1 1:1 9:0.085243553 11:0.081395349 27:1 46:1 47:1 60:1 127:1 129:1 139:1 338:1 339:1 455:1 475:1 820:1 887:1 
0.08132293247697953 0:1 9:0.024942129 10:1 11:0 75:1 179:1 181:1 182:1 185:1 8797:1 8798:1 8799:1 10034:1 10036:1 
0.3165327057801676 9:0 10:1 11:0.003968254 50:1 54:1 55:1 69:1 820:1 821:1 2353:1 10037:1 
0.1010142657024392 9:0.024942129 10:1 11:0 50:1 51:1 54:1 55:1 1019:1 1759:1 10068:1 10069:1 
0.5443405580018996 0:1 9:0.024942129 10:1 11:0.024942129 50:1 51:1 54:1 55:1 594:1 1826:1 
0.2695725659053175 9:0.024942129 10:1 11:0.00625 23:1 24:1 25:1 33:1 444:1 7430:1 7555:1 10122:1 
0.6294223996074156 9:0 11:0.51351351 46:1 60:1 101:1 129:1 167:1 179:1 181:1 455:1 479:1 565:1 594:1 7654:1 7657:1 10103:1 
0.21423167900844 1:1 9:0 11:0.51351351 101:1 127:1 129:1 167:1 455:1 475:1 479:1 594:1 688:1 1931:1 7621:1 10103:1 
0.4995257543819815 0:1 8:1 9:0.5 10:1 11:0 50:1 55:1 130:1 444:1 4160:1 4161:1 
0.03723030505277452 9:0.024942129 10:1 11:0 75:1 179:1 181:1 185:1 356:1 672:1 2841:1 4977:1 4978:1 10199:1 10200:1 
0.2333873923493013 0:1 9:0 11:0 18:1 104:1 105:1 116:1 118:1 122:1 162:1 828:1 865:1 869:1 871:1 4519:1 4562:1 5567:1 9975:1 
1 1:1 9:0.27777778 11:0.54347826 25:1 27:1 46:1 47:1 153:1 574:1 577:1 578:1 614:1 632:1 807:1 808:1 
0.03518108562445701 1:1 9:0.085243553 11:0 46:1 47:1 60:1 127:1 129:1 139:1 338:1 339:1 8801:1 8822:1 10364:1 10373:1 10374:1 
0.002799553396794274 9:0.024942129 10:1 11:0 42:1 315:1 316:1 386:1 499:1 2352:1 10432:1 10433:1 
0.05130552708260544 9:0.024942129 10:1 11:0 42:1 44:1 444:1 499:1 10479:1 10480:1 10481:1 10482:1 
0.06945943831449813 1:1 3:1 9:0.085243553 11:0 46:1 47:1 60:1 129:1 139:1 338:1 339:1 4565:1 4575:1 9117:1 10257:1 
0.4621250705043279 0:1 1:1 9:0 11:0.024942129 75:1 104:1 129:1 206:1 338:1 339:1 580:1 1847:1 1879:1 10396:1 
0.4077171682943051 1:1 9:0.024942129 10:1 11:0.029411765 46:1 47:1 153:1 229:1 387:1 410:1 839:1 3440:1 3444:1 3445:1 
1 0:1 1:1 9:0.024942129 11:0.54347826 14:1 15:1 25:1 153:1 574:1 577:1 578:1 807:1 808:1 1917:1 
0.02438039033476687 9:0 10:1 11:0.7302799 25:1 29:1 59:1 315:1 316:1 3620:1 3988:1 3989:1 
0.01888508859530988 0:1 1:1 9:0 11:0.070175439 75:1 104:1 127:1 129:1 206:1 338:1 339:1 1834:1 1876:1 10994:1 11000:1 11002:1 11006:1 11009:1 11031:1 11032:1 
0.005771605735788545 0:1 1:1 9:0.0085034014 11:0 18:1 76:1 101:1 104:1 127:1 129:1 162:1 167:1 342:1 3605:1 3988:1 11013:1 11015:1 11038:1 11039:1 11040:1 
1 1:1 9:0 10:1 11:0.7302799 25:1 46:1 47:1 78:1 228:1 1413:1 3988:1 3989:1 4362:1 11059:1 
0.1479584684747332 0:1 9:0.024887041 10:1 11:0.024887041 50:1 54:1 55:1 926:1 4657:1 
0.05463908667477601 0:1 1:1 9:0.16666667 11:0.52229299 25:1 80:1 93:1 104:1 153:1 173:1 206:1 288:1 551:1 552:1 561:1 574:1 577:1 578:1 793:1 4237:1 10605:1 11110:1 
1 1:1 9:0.16666667 11:0.52229299 25:1 80:1 153:1 173:1 206:1 551:1 552:1 561:1 574:1 577:1 578:1 793:1 
0.1676653150846537 0:1 6:1 9:0.024887041 10:1 11:0.024887041 27:1 35:1 444:1 3199:1 11108:1 
0.2590818797706714 0:1 9:0.024887041 11:0.024887041 50:1 75:1 104:1 143:1 563:1 580:1 587:1 4031:1 4037:1 4084:1 11253:1 
0.09930262719132947 9:0.024887041 10:1 11:0 42:1 319:1 444:1 499:1 1294:1 11009:1 11010:1 11108:1 
0.09392239972211108 9:0.024887041 10:1 11:0 42:1 319:1 444:1 499:1 1294:1 11488:1 11489:1 11490:1 
0.08031180256834285 0:1 9:0.024887041 10:1 11:0 50:1 54:1 55:1 10997:1 11558:1 11559:1 11560:1 
0.3131137246051739 0:1 9:0.024887041 10:1 11:0.024887041 42:1 157:1 444:1 499:1 11108:1 
0.05612157206838887 0:1 6:1 9:0.024887041 10:1 11:0 35:1 382:1 444:1 11108:1 11236:1 11237:1 
0.581828096640294 9:0 10:1 11:0 50:1 55:1 381:1 444:1 1388:1 4913:1 4914:1 11108:1 
1 9:0.78723404 10:1 11:0.73126615 25:1 29:1 315:1 316:1 381:1 1058:1 3988:1 3989:1 
0.8506984218817047 0:1 8:1 9:0.024807875 10:1 11:0.024807875 50:1 51:1 54:1 55:1 2086:1 
1 1:1 9:0.33333333 11:0.52229299 25:1 46:1 47:1 104:1 153:1 551:1 552:1 574:1 577:1 578:1 614:1 632:1 4372:1 8735:1 
0.5581631896965451 1:1 9:0.33333333 11:0.52229299 25:1 46:1 47:1 153:1 551:1 552:1 574:1 577:1 578:1 614:1 632:1 8735:1 
1 9:0.78723404 10:1 11:0.73126615 25:1 29:1 315:1 316:1 381:1 804:1 3988:1 3989:1 
0.3728060197586188 1:1 9:0.024807875 11:0.024807875 104:1 105:1 153:1 155:1 156:1 189:1 206:1 213:1 574:1 577:1 578:1 4372:1 11867:1 11868:1 
1 1:1 9:0 11:0.56 80:1 127:1 129:1 206:1 338:1 339:1 424:1 455:1 475:1 479:1 753:1 756:1 
1 9:0.78723404 10:1 11:0.73126615 25:1 29:1 315:1 316:1 381:1 1058:1 3988:1 3989:1 
0.05443537537843736 1:1 9:0.024807875 11:0 127:1 129:1 189:1 206:1 213:1 338:1 339:1 12117:1 12120:1 12128:1 12129:1 12130:1 
0.02028167624813923 9:0.5 10:1 11:0 130:1 185:1 444:1 1044:1 4977:1 4978:1 11724:1 12160:1 
0.83290363015646 1:1 9:0.5 11:0.024807875 45:1 46:1 47:1 130:1 153:1 185:1 4977:1 4978:1 11724:1 12167:1 12169:1 12170:1 
0.7119485893648352 1:1 9:0.0032679739 11:0.51006711 46:1 47:1 101:1 127:1 129:1 154:1 157:1 167:1 455:1 475:1 479:1 12172:1 
0.04377192478159143 1:1 9:0.024807875 11:0.5 46:1 101:1 127:1 140:1 185:1 455:1 475:1 1563:1 1930:1 1931:1 2521:1 2522:1 12186:1 
1 1:1 8:1 9:0.085148515 11:0.084942085 45:1 46:1 47:1 127:1 129:1 130:1 338:1 339:1 820:1 823:1 885:1 887:1 3988:1 4426:1 
1 1:1 3:1 6:1 9:0.024750368 11:0.024750368 80:1 206:1 315:1 319:1 455:1 456:1 475:1 793:1 1161:1 1190:1 
0.4316501328906831 0:1 1:1 9:0.018618619 11:0.024750368 20:1 46:1 47:1 104:1 112:1 127:1 129:1 154:1 157:1 338:1 339:1 8849:1 12249:1 
0.004764863228160405 9:0 10:1 11:0 80:1 179:1 181:1 182:1 185:1 247:1 302:1 354:1 357:1 358:1 1979:1 
1 1:1 9:0 11:0.024750368 50:1 80:1 127:1 206:1 302:1 313:1 823:1 885:1 1266:1 3463:1 8500:1 8501:1 
0.3533060829792404 0:1 1:1 9:0.010752688 11:0.024750368 80:1 101:1 127:1 129:1 167:1 206:1 213:1 288:1 615:1 643:1 784:1 1823:1 3342:1 3361:1 3385:1 
1 0:1 9:0.024750368 10:1 11:0.96153846 42:1 54:1 499:1 511:1 1848:1 1849:1 
0.2002141560822981 1:1 9:0.012690355 11:0.18181818 27:1 76:1 80:1 127:1 129:1 302:1 333:1 338:1 339:1 1823:1 1831:1 3988:1 4006:1 
0.05667510112820526 0:1 9:0.024750368 10:1 11:0 42:1 54:1 213:1 499:1 6890:1 6891:1 12349:1 
0.2030521534870372 1:1 9:0.20833333 10:1 11:0.04 46:1 47:1 129:1 278:1 279:1 600:1 601:1 1112:1 1136:1 12397:1 
0.3581550821340057 1:1 9:0 11:0.024750368 80:1 102:1 127:1 129:1 206:1 302:1 308:1 581:1 1367:1 1381:1 1760:1 11661:1 11668:1 
1 6:1 9:0.5 10:1 11:0.80952381 35:1 54:1 381:1 1062:1 3021:1 12479:1 12480:1 
0.09159530434123382 1:1 9:0.024750368 11:0 46:1 47:1 104:1 127:1 156:1 795:1 2533:1 2534:1 3078:1 3342:1 3942:1 6767:1 12498:1 12512:1 12513:1 12514:1 
0.281233984585947 9:0 10:1 11:0.033333333 42:1 54:1 499:1 3342:1 3343:1 5581:1 7033:1 12501:1 
0.02727796836017046 1:1 9:0.024750368 11:0.024750368 50:1 80:1 127:1 206:1 302:1 313:1 823:1 885:1 1266:1 1635:1 8500:1 8501:1 
0.1925932671321126 1:1 9:0 11:0.25 80:1 127:1 129:1 206:1 338:1 339:1 648:1 651:1 1168:1 1193:1 2274:1 12741:1 
0.04971417944451983 9:0 10:1 11:0 50:1 80:1 563:1 580:1 587:1 648:1 651:1 3468:1 3469:1 3476:1 5964:1 
0.5165275601764191 0:1 1:1 9:0 11:0.54545455 25:1 75:1 153:1 206:1 574:1 577:1 578:1 807:1 808:1 3020:1 12747:1 
0.6342608206095638 0:1 1:1 9:0.0077399381 11:0.56435644 47:1 101:1 110:1 127:1 129:1 218:1 219:1 222:1 338:1 339:1 394:1 455:1 475:1 479:1 520:1 624:1 799:1 1823:1 2533:1 2654:1 12749:1 12753:1 12756:1 
1 1:1 3:1 6:1 9:0.432 11:0.79518072 20:1 21:1 46:1 47:1 93:1 112:1 201:1 236:1 551:1 1104:1 1335:1 3988:1 
1 1:1 9:0.008 11:0.51898734 18:1 25:1 46:1 47:1 153:1 201:1 551:1 552:1 574:1 577:1 578:1 8710:1 
0.1175129917402898 0:1 9:0.024750368 10:1 11:0 42:1 54:1 499:1 1484:1 3341:1 6890:1 6891:1 
0.5204672745500263 9:0 11:0.11111111 20:1 80:1 93:1 122:1 179:1 181:1 302:1 308:1 356:1 551:1 574:1 731:1 732:1 832:1 1004:1 1335:1 2299:1 2437:1 8797:1 8798:1 12791:1 
0.95550173582719 1:1 9:0 11:0.11111111 122:1 153:1 308:1 551:1 574:1 577:1 688:1 731:1 732:1 1335:1 1931:1 2299:1 10576:1 
0.1962631348737561 1:1 9:0.024750368 10:1 11:0 42:1 127:1 206:1 654:1 1326:1 3398:1 5077:1 12811:1 12812:1 12813:1 
1 1:1 3:1 6:1 9:0.024750368 11:0.84313725 20:1 21:1 23:1 112:1 113:1 206:1 307:1 654:1 5077:1 5078:1 
0.5669586441388336 0:1 1:1 9:0.024750368 11:0.024750368 25:1 153:1 189:1 206:1 213:1 807:1 808:1 3451:1 3465:1 12838:1 12839:1 
1 1:1 9:0.084812623 11:0.085603113 39:1 45:1 46:1 47:1 99:1 101:1 127:1 129:1 130:1 338:1 339:1 455:1 820:1 823:1 832:1 885:1 887:1 917:1 2238:1 
0.1087815125940099 1:1 9:0.01663586 11:0.4 46:1 47:1 104:1 127:1 129:1 201:1 236:1 338:1 339:1 6516:1 12327:1 12909:1 12912:1 12939:1 12940:1 12941:1 
0.06298066223469746 1:1 9:0.01663586 11:0.4 46:1 47:1 127:1 129:1 201:1 236:1 338:1 339:1 12909:1 12912:1 12939:1 12940:1 12941:1 
0.5759092727541997 0:1 1:1 9:0.0056179775 11:0.51677852 76:1 101:1 127:1 129:1 167:1 245:1 333:1 338:1 455:1 475:1 479:1 834:1 6033:1 6482:1 12948:1 
0.6947773474787171 0:1 1:1 9:0.0056179775 11:0.51677852 76:1 101:1 127:1 129:1 167:1 245:1 333:1 455:1 475:1 479:1 12948:1 
1 0:1 1:1 9:0.024852473 11:0.4 127:1 129:1 206:1 245:1 338:1 339:1 6003:1 12909:1 12912:1 12939:1 12941:1 
0.1038599261932431 1:1 3:1 9:0.018618619 11:0 46:1 47:1 104:1 129:1 154:1 157:1 338:1 339:1 12590:1 12922:1 12925:1 12928:1 12945:1 12950:1 12951:1 
0.06856006327308406 7:1 8:1 9:0 10:1 11:0 50:1 55:1 444:1 5113:1 5114:1 13010:1 
0.03019784320856221 6:1 8:1 9:0 10:1 11:0 35:1 444:1 5116:1 12881:1 12882:1 13010:1 
0.0997850941613848 6:1 9:0 10:1 11:0 35:1 157:1 444:1 6072:1 6073:1 8707:1 13010:1 
0.2397860856075513 0:1 1:1 3:1 9:0.084812623 11:0.024852473 45:1 46:1 47:1 104:1 129:1 130:1 338:1 339:1 6823:1 12590:1 12928:1 
1 1:1 3:1 6:1 9:0.7007874 11:0.024852473 20:1 21:1 46:1 47:1 60:1 99:1 112:1 139:1 2990:1 10810:1 13255:1 
0.7562283759794542 1:1 9:0 11:0.33333333 42:1 80:1 97:1 101:1 104:1 127:1 173:1 206:1 288:1 338:1 561:1 589:1 773:1 793:1 823:1 824:1 885:1 1834:1 2820:1 4279:1 6033:1 6482:1 6972:1 13202:1 
1 1:1 9:0 11:0.032258065 101:1 127:1 129:1 167:1 206:1 246:1 247:1 316:1 1311:1 1834:1 1876:1 2820:1 2829:1 
0.1251429331156907 0:1 9:0.024876471 10:1 11:0 50:1 54:1 55:1 323:1 2571:1 13515:1 13516:1 
1 1:1 7:1 8:1 9:0.18181818 11:0.88 75:1 76:1 127:1 129:1 278:1 279:1 360:1 388:1 535:1 548:1 
0.2435396115912369 0:1 1:1 9:0.024876471 11:0.024876471 46:1 47:1 50:1 60:1 139:1 153:1 7700:1 13699:1 13700:1 13701:1 
0.1863177474000154 0:1 9:0.024876471 10:1 11:0.024876471 50:1 54:1 55:1 1277:1 1450:1 13839:1 
0.1861776455861628 1:1 3:1 9:0.084878745 11:0 46:1 47:1 60:1 129:1 139:1 338:1 339:1 13843:1 13846:1 13853:1 13854:1 13855:1 
0.6157067382862015 9:0.22222222 10:1 11:0.7302799 14:1 18:1 25:1 28:1 29:1 1294:1 3988:1 3989:1 
1 1:1 7:1 8:1 9:0.66666667 11:0.19047619 75:1 76:1 153:1 574:1 577:1 807:1 829:1 830:1 831:1 832:1 833:1 14052:1 
0.06745041751163545 0:1 9:0.024876471 10:1 11:0.024876471 50:1 55:1 444:1 643:1 5142:1 13485:1 
1 1:1 9:0.084313725 11:0.75 27:1 45:1 46:1 47:1 127:1 129:1 130:1 338:1 339:1 14260:1 14264:1 14265:1 
0.08114771351153405 0:1 9:0.024876471 10:1 11:0 50:1 55:1 333:1 591:1 6177:1 14317:1 14318:1 
0.0168094136595815 0:1 9:0.024876471 10:1 11:0.25 42:1 241:1 591:1 1292:1 2528:1 2529:1 6183:1 
1 1:1 9:0.055555556 11:0.5 25:1 46:1 47:1 153:1 551:1 552:1 1112:1 1136:1 2173:1 2178:1 4063:1 14473:1 
0.06369551718136217 0:1 1:1 3:1 6:1 9:0.02488911 11:0.02488911 23:1 46:1 47:1 104:1 338:1 429:1 486:1 551:1 574:1 1274:1 1328:1 1628:1 1970:1 1972:1 2178:1 14471:1 14495:1 14496:1 14497:1 14502:1 14507:1 14516:1 14517:1 
1 1:1 9:0.083333333 11:0.44444444 23:1 24:1 25:1 46:1 47:1 153:1 574:1 577:1 578:1 1112:1 1136:1 14473:1 
1 1:1 9:0 11:0.5 25:1 33:1 75:1 104:1 153:1 206:1 338:1 551:1 552:1 553:1 1274:1 1328:1 2173:1 2178:1 4063:1 6342:1 
0.1830636896950914 1:1 9:0 11:0.5 25:1 33:1 75:1 153:1 206:1 551:1 552:1 553:1 2173:1 2178:1 4063:1 6342:1 
0.3196966611586584 0:1 1:1 9:0.02488911 11:1 75:1 78:1 185:1 206:1 357:1 358:1 551:1 1333:1 1335:1 14608:1 14614:1 
0.1072874512371405 0:1 6:1 9:0.024989178 10:1 11:0.024989178 14:1 27:1 35:1 645:1 5237:1 
0.5391546491975057 9:0 10:1 11:0 27:1 51:1 185:1 1279:1 1280:1 1561:1 1562:1 2202:1 
0.2156788840117463 0:1 9:0.024989178 10:1 11:0.024989178 50:1 51:1 54:1 55:1 241:1 
0.02051273903228337 9:0.024989178 10:1 11:0 50:1 55:1 444:1 2811:1 5194:1 9057:1 9058:1 15558:1 
0.6795343565458186 0:1 1:1 3:1 6:1 9:0.024989178 11:0.024989178 32:1 80:1 302:1 1161:1 1190:1 2585:1 
0.1847721114579993 0:1 9:0.024989178 10:1 11:0.024989178 14:1 50:1 55:1 2957:1 5052:1 
1 1:1 8:1 9:0.085409253 11:0.70588235 46:1 47:1 60:1 127:1 129:1 139:1 288:1 338:1 339:1 773:1 16150:1 16164:1 16165:1 16166:1 
0.3735014894982709 1:1 9:0 10:1 11:0.0047169811 46:1 47:1 217:1 221:1 782:1 787:1 788:1 6950:1 6951:1 10348:1 
0.01060869415424049 1:1 9:0.024855412 11:0 42:1 101:1 104:1 108:1 127:1 140:1 206:1 245:1 288:1 338:1 445:1 503:1 504:1 505:1 1122:1 1950:1 2064:1 3241:1 3876:1 4447:1 8813:1 16198:1 16258:1 16259:1 16262:1 16266:1 16267:1 
1 1:1 9:0.044715447 11:0.39344262 46:1 47:1 127:1 129:1 338:1 339:1 823:1 885:1 1266:1 1970:1 1972:1 2987:1 
0.001691285015378503 9:0.024863629 10:1 11:0 50:1 75:1 563:1 635:1 3630:1 4031:1 16358:1 16359:1 
0.1149937853469201 0:1 9:0.024863629 10:1 11:0 50:1 54:1 55:1 139:1 2987:1 4287:1 4288:1 
0.07684925564712553 1:1 9:0.024863629 10:1 11:0 50:1 189:1 206:1 580:1 4562:1 4563:1 9561:1 16506:1 16510:1 16511:1 
0.128710690807686 1:1 9:0 11:0 80:1 101:1 104:1 127:1 129:1 206:1 209:1 273:1 338:1 339:1 615:1 643:1 690:1 2064:1 5659:1 5964:1 10444:1 10461:1 12189:1 14324:1 16507:1 16525:1 16528:1 
0.07798206565665636 1:1 9:0 11:0 101:1 104:1 127:1 129:1 189:1 206:1 273:1 338:1 339:1 653:1 657:1 690:1 2064:1 5659:1 16511:1 16525:1 16528:1 16544:1 16545:1 
0.3092272014365862 0:1 9:0.024863629 10:1 11:0.024863629 50:1 54:1 55:1 764:1 5601:1 16573:1 
1 1:1 3:1 6:1 9:0.024859339 10:1 11:0.31212121 20:1 21:1 79:1 80:1 112:1 206:1 3376:1 4045:1 
0.9216584254865692 0:1 1:1 9:0.01663586 11:0.02484711 46:1 47:1 101:1 104:1 127:1 129:1 201:1 236:1 338:1 339:1 574:1 841:1 1914:1 1938:1 16665:1 
0.05077843043935965 0:1 1:1 9:0.024901738 11:0.22727273 104:1 206:1 245:1 784:1 829:1 830:1 831:1 832:1 833:1 1283:1 16795:1 16873:1 16874:1 16885:1 16886:1 
0.9094900895601423 0:1 9:0.024901738 10:1 11:0 179:1 181:1 185:1 245:1 356:1 1950:1 1951:1 6962:1 16965:1 16966:1 
1 0:1 1:1 9:0.048780488 11:0.35384615 46:1 47:1 127:1 129:1 338:1 339:1 823:1 885:1 1271:1 1282:1 1970:1 1972:1 
1 9:0.024857681 10:1 11:0.9543379 42:1 504:1 505:1 688:1 1228:1 3619:1 3620:1 13655:1 
1 1:1 8:1 9:0.084757835 11:0.05 46:1 47:1 60:1 129:1 139:1 153:1 338:1 339:1 551:1 574:1 577:1 1335:1 
0.1194506953269495 9:0.024876823 10:1 11:0 80:1 179:1 181:1 185:1 356:1 916:1 2917:1 2918:1 2919:1 7230:1 14449:1 
0.003500144438335709 9:0 10:1 11:0 50:1 54:1 55:1 381:1 382:1 12922:1 12923:1 12924:1 
0.2353190716811351 0:1 9:0.02485525 10:1 11:0 75:1 179:1 181:1 185:1 356:1 1513:1 4182:1 4183:1 4184:1 17241:1 
0.3313726547808946 1:1 7:1 8:1 9:0.022222222 10:1 11:0.011538462 76:1 102:1 129:1 245:1 581:1 601:1 1046:1 17294:1 
0.2779335193039639 1:1 9:0 10:1 11:0.040201005 46:1 47:1 129:1 278:1 279:1 600:1 601:1 734:1 735:1 1410:1 
1 1:1 9:0 10:1 11:0.7302799 25:1 46:1 47:1 78:1 228:1 1356:1 1413:1 3988:1 3989:1 4362:1 
0.9314330041133894 9:0.024875297 10:1 11:0.66666667 42:1 222:1 267:1 646:1 930:1 5732:1 17395:1 17396:1 
0.2405813748870171 9:0 10:1 11:0 50:1 54:1 55:1 313:1 381:1 3468:1 3469:1 17439:1 
0.2138252397859814 9:0.024862095 10:1 11:0 50:1 54:1 55:1 1328:1 1329:1 1879:1 5037:1 16190:1 
0.7085169471582193 1:1 9:1 11:0.024853208 15:1 42:1 54:1 127:1 486:1 1117:1 1118:1 1145:1 1579:1 5230:1 12397:1 12681:1 17102:1 
0.2190798943489309 0:1 1:1 9:0.024853208 11:0 69:1 89:1 104:1 127:1 129:1 166:1 206:1 245:1 338:1 339:1 993:1 12479:1 
0.2544231133565465 9:0 10:1 11:0.048780488 42:1 44:1 45:1 46:1 47:1 381:1 3342:1 3343:1 
0.09062547426948757 9:0.024853208 10:1 11:0 50:1 54:1 55:1 308:1 8482:1 8483:1 16194:1 17591:1 
0.2332222945093518 9:0.024853208 10:1 11:0 50:1 51:1 54:1 55:1 313:1 17820:1 17821:1 17822:1 
1 0:1 1:1 9:0 10:1 11:0.029787234 42:1 46:1 47:1 60:1 127:1 139:1 823:1 824:1 885:1 
0.0310370916272266 9:0.024847394 10:1 11:0 50:1 55:1 236:1 444:1 15236:1 17987:1 17988:1 17989:1 
0.03216447991794848 9:0.024847394 10:1 11:0 42:1 54:1 59:1 499:1 2657:1 7026:1 16428:1 16429:1 
0.09274049449287723 9:0.024847394 10:1 11:0 42:1 54:1 499:1 811:1 812:1 2661:1 7026:1 16555:1 
0.07567360037601699 1:1 8:1 9:0.029411765 11:0.024847394 46:1 47:1 60:1 105:1 127:1 139:1 155:1 156:1 504:1 4449:1 4458:1 13361:1 17997:1 18012:1 
0.372692286562501 0:1 1:1 9:0.024847394 10:1 11:0.024847394 25:1 54:1 76:1 78:1 213:1 3633:1 18017:1 
1 1:1 9:0 10:1 11:0.7284264 25:1 46:1 47:1 78:1 1112:1 1136:1 3988:1 3989:1 4362:1 9214:1 
1 9:0.75510204 10:1 11:0.7284264 25:1 29:1 54:1 381:1 1058:1 2056:1 3988:1 3989:1 
0.06060424062419804 1:1 7:1 8:1 9:0 11:0.11111111 75:1 76:1 101:1 140:1 153:1 185:1 357:1 358:1 574:1 577:1 1938:1 6985:1 
0.295865979773175 0:1 1:1 7:1 8:1 9:0.020408163 11:0.45454545 54:1 102:1 127:1 129:1 273:1 309:1 338:1 455:1 475:1 479:1 1542:1 1550:1 2585:1 3275:1 5725:1 8542:1 8616:1 11702:1 18075:1 
0.6820624169560462 1:1 9:0 11:0.54741379 15:1 25:1 54:1 153:1 574:1 577:1 578:1 807:1 808:1 2947:1 16342:1 17127:1 
0.1121122914498617 1:1 8:1 9:0.024870033 10:1 11:0 42:1 46:1 47:1 127:1 201:1 236:1 18193:1 18194:1 18195:1 
1 0:1 9:0.024870033 10:1 11:0.069518717 42:1 54:1 196:1 360:1 361:1 499:1 
0.2160386729982962 9:0.035714286 10:1 11:0.0062111801 23:1 24:1 25:1 29:1 157:1 444:1 5013:1 18210:1 
0.2562573686277162 0:1 9:0 10:1 11:0.01122449 25:1 29:1 444:1 551:1 552:1 697:1 2554:1 
1 0:1 1:1 9:0.082514735 11:0.56 45:1 46:1 47:1 127:1 129:1 130:1 338:1 339:1 455:1 475:1 479:1 
1 1:1 7:1 8:1 9:0.11111111 10:1 11:0.7284264 25:1 76:1 78:1 80:1 753:1 3988:1 3989:1 4362:1 
1 9:1 10:1 11:0.85833333 50:1 54:1 55:1 319:1 2873:1 2874:1 6317:1 18450:1 
1 1:1 9:0.014787431 11:0.52173913 46:1 47:1 69:1 127:1 129:1 201:1 236:1 338:1 339:1 360:1 388:1 535:1 
0.1000659873592716 0:1 9:0.024862401 10:1 11:0 50:1 54:1 55:1 18017:1 18569:1 18570:1 18571:1 
1 1:1 9:0 10:1 11:0.0047132757 189:1 206:1 213:1 217:1 221:1 782:1 787:1 788:1 1224:1 1227:1 
0.06436482811466698 0:1 6:1 9:0.024862401 10:1 11:0 14:1 35:1 16632:1 16633:1 18613:1 18638:1 
1 1:1 9:0.076335878 11:0.20689655 46:1 47:1 104:1 127:1 129:1 172:1 338:1 339:1 455:1 1112:1 1136:1 2052:1 2079:1 2080:1 
1 1:1 7:1 8:1 9:0.640625 10:1 11:0.9537037 42:1 75:1 76:1 127:1 503:1 504:1 505:1 18947:1 
0.1716380593851924 1:1 9:0.095238095 11:0.51020408 27:1 46:1 47:1 101:1 127:1 129:1 167:1 338:1 455:1 475:1 479:1 614:1 632:1 3514:1 12165:1 
0.1392535555077263 1:1 9:0.084812623 11:0 45:1 46:1 47:1 99:1 129:1 130:1 338:1 339:1 1117:1 1259:1 1261:1 1283:1 1284:1 2606:1 2858:1 18975:1 
0.5565812249237484 1:1 9:0.085592011 11:0.020408163 46:1 47:1 60:1 127:1 129:1 139:1 338:1 339:1 1117:1 1246:1 2606:1 2858:1 13374:1 18976:1 
0.06501361676179165 1:1 3:1 9:0 11:0 46:1 47:1 50:1 60:1 139:1 13843:1 13855:1 13908:1 13909:1 14124:1 18999:1 
1 1:1 9:0.024825497 10:1 11:0.011583012 102:1 129:1 189:1 206:1 581:1 601:1 1046:1 1224:1 1227:1 1277:1 
0.1876503702646549 1:1 3:1 6:1 7:1 8:1 9:0.62903226 11:0.024822695 75:1 76:1 504:1 505:1 13201:1 13202:1 13234:1 19136:1 
0.07270378043463137 9:0.024822695 11:0 75:1 104:1 116:1 118:1 120:1 122:1 338:1 408:1 551:1 1782:1 3217:1 3219:1 3221:1 13879:1 19161:1 19171:1 
0.05839050339185311 1:1 9:0.024822695 11:0 80:1 95:1 100:1 101:1 127:1 137:1 138:1 140:1 206:1 338:1 615:1 643:1 823:1 885:1 1277:1 3905:1 5737:1 8351:1 13932:1 19057:1 
0.1225974511980238 1:1 9:0.5 11:0 42:1 127:1 206:1 245:1 846:1 1117:1 1118:1 1145:1 2569:1 13843:1 13908:1 16198:1 16258:1 19115:1 
0.00487519841807397 9:0 10:1 11:0 42:1 54:1 381:1 499:1 1013:1 14148:1 19249:1 19250:1 
1 1:1 7:1 8:1 9:0.14285714 10:1 11:0.7284264 25:1 75:1 76:1 78:1 3988:1 3989:1 4362:1 10216:1 
0.06632738681189372 0:1 1:1 7:1 8:1 9:0.024876564 11:0.024876564 42:1 76:1 99:1 101:1 104:1 127:1 245:1 455:1 1628:1 2975:1 2990:1 6404:1 10056:1 13241:1 16376:1 19490:1 19491:1 19492:1 
1 1:1 9:0.019823789 11:0.51006711 46:1 47:1 60:1 101:1 127:1 129:1 139:1 167:1 455:1 475:1 479:1 19504:1 
1 1:1 9:0 11:0.53076923 15:1 54:1 129:1 234:1 278:1 279:1 342:1 345:1 346:1 455:1 479:1 8252:1 9803:1 
0.2096045665392066 9:0.024866518 10:1 11:0 42:1 54:1 499:1 697:1 3286:1 3512:1 12749:1 12750:1 
0.02025392089403372 1:1 3:1 6:1 9:0.024866518 11:0 104:1 245:1 261:1 338:1 697:1 9952:1 16965:1 16966:1 19629:1 19630:1 19632:1 19636:1 19638:1 19639:1 
1 1:1 8:1 9:0.25581395 11:0.51592357 25:1 46:1 47:1 60:1 139:1 153:1 551:1 552:1 574:1 577:1 578:1 
0.01343176492181801 0:1 9:0.024866518 10:1 11:0.024866518 50:1 51:1 54:1 55:1 1048:1 4698:1 
0.03250760909685509 1:1 9:0.085653105 11:0.20930233 46:1 47:1 60:1 127:1 129:1 139:1 338:1 339:1 2052:1 2079:1 2080:1 19381:1 
0.003185661957682964 0:1 1:1 9:0.018663456 11:0.20930233 46:1 47:1 104:1 127:1 129:1 154:1 157:1 338:1 339:1 2052:1 2079:1 2080:1 
0.01842136124134098 1:1 9:0.042105263 11:0 23:1 80:1 97:1 127:1 129:1 206:1 302:1 308:1 338:1 339:1 574:1 1271:1 3432:1 13336:1 13363:1 16074:1 19538:1 19553:1 
0.8151533607954994 9:0 10:1 11:0.069148936 42:1 315:1 316:1 360:1 361:1 499:1 512:1 2892:1 
0.09891952644717711 1:1 6:1 9:1 11:0.74603175 15:1 54:1 342:1 345:1 346:1 360:1 508:1 509:1 535:1 748:1 4502:1 19938:1 
0.254313168549163 0:1 9:0.024856359 10:1 11:0.024856359 14:1 50:1 55:1 308:1 19393:1 
0.2386607378488715 1:1 9:0.085592011 11:0 46:1 47:1 60:1 129:1 139:1 153:1 338:1 339:1 574:1 577:1 1077:1 2176:1 2177:1 
1 0:1 1:1 9:0.024856359 10:1 11:0.57534247 46:1 47:1 153:1 387:1 410:1 574:1 577:1 839:1 4324:1 
1 1:1 8:1 9:0.10526316 11:0.51592357 25:1 46:1 47:1 153:1 370:1 401:1 551:1 552:1 574:1 577:1 578:1 
1 1:1 9:0.010679612 11:0.39344262 18:1 76:1 80:1 127:1 129:1 302:1 338:1 339:1 823:1 885:1 1266:1 10494:1 
0.2392639034425043 8:1 9:0 11:0 45:1 46:1 130:1 179:1 181:1 185:1 426:1 565:1 636:1 644:1 1406:1 1407:1 4155:1 9454:1 16557:1 20159:1 
0.447888462678149 8:1 9:0 11:0 45:1 46:1 130:1 179:1 181:1 185:1 565:1 636:1 644:1 1406:1 1407:1 4155:1 
1 0:1 9:0.48275862 10:1 11:0.35897436 50:1 55:1 139:1 444:1 550:1 7119:1 7120:1 
1 9:0.26315789 10:1 11:0.25 42:1 46:1 47:1 60:1 381:1 1058:1 4910:1 4911:1 
0.9696909069067309 9:0.22222222 10:1 11:0.0060753341 25:1 172:1 444:1 797:1 807:1 808:1 3058:1 17104:1 
0.4339130045565709 1:1 9:0 11:0 23:1 24:1 25:1 46:1 47:1 113:1 127:1 1112:1 1136:1 5705:1 16074:1 16099:1 
0.2570573512514077 1:1 9:0 11:0.44444444 15:1 23:1 24:1 25:1 33:1 54:1 153:1 574:1 577:1 578:1 16064:1 16088:1 
1 1:1 7:1 8:1 9:0.063492063 11:0.54347826 25:1 76:1 153:1 162:1 574:1 577:1 578:1 807:1 808:1 20391:1 
0.005927280858104744 0:1 1:1 9:0.023622047 11:0.024857495 46:1 47:1 104:1 129:1 153:1 338:1 339:1 1544:1 1696:1 1697:1 16190:1 
0.1129125311217817 1:1 3:1 6:1 7:1 8:1 9:0.63492063 11:0 76:1 80:1 93:1 94:1 104:1 173:1 338:1 342:1 503:1 504:1 505:1 10255:1 12033:1 13139:1 
1 1:1 7:1 8:1 9:0.13333333 11:0.6 50:1 76:1 93:1 127:1 267:1 338:1 360:1 388:1 535:1 970:1 971:1 6482:1 6490:1 20632:1 
0.0307403074361133 9:0.024863665 10:1 11:0 44:1 50:1 54:1 55:1 1519:1 1520:1 1857:1 8924:1 
0.1163013031446426 0:1 1:1 9:0.024863665 10:1 11:0.024863665 46:1 47:1 60:1 139:1 181:1 185:1 20699:1 
0.6373310406642583 1:1 9:0 10:1 11:0.0047132757 75:1 76:1 217:1 221:1 604:1 782:1 787:1 788:1 1389:1 2841:1 
0.3200003354835761 1:1 9:0.024863665 11:0 27:1 76:1 80:1 93:1 174:1 181:1 185:1 338:1 574:1 685:1 686:1 690:1 724:1 807:1 1061:1 1707:1 2041:1 2879:1 3546:1 3554:1 13397:1 
0.09300297822750211 1:1 9:0.024863665 11:0 27:1 76:1 80:1 181:1 185:1 685:1 686:1 690:1 724:1 1061:1 3546:1 3554:1 
1 1:1 9:0.048387097 11:0.54310345 15:1 18:1 25:1 153:1 574:1 577:1 578:1 688:1 697:1 807:1 808:1 17369:1 
1 1:1 9:0.010700389 11:0.76923077 18:1 76:1 80:1 127:1 129:1 302:1 338:1 339:1 995:1 2528:1 2544:1 7411:1 
1 0:1 1:1 9:0.085304659 11:0 46:1 47:1 60:1 129:1 139:1 153:1 338:1 339:1 574:1 577:1 2267:1 3399:1 
1 1:1 9:0 11:0.54741379 25:1 80:1 153:1 206:1 574:1 577:1 578:1 807:1 808:1 1760:1 2666:1 2669:1 
0.7241353774638946 0:1 1:1 9:0.16666667 11:0.88888889 46:1 47:1 50:1 101:1 103:1 104:1 127:1 429:1 655:1 746:1 748:1 783:1 941:1 995:1 1431:1 1432:1 1628:1 2313:1 3438:1 4910:1 4923:1 7515:1 
0.99056856145854 1:1 7:1 8:1 9:0.64516129 11:0 15:1 42:1 54:1 342:1 344:1 345:1 346:1 504:1 505:1 5758:1 
0.2021676228045971 0:1 1:1 9:0.083003953 11:0 45:1 46:1 47:1 104:1 105:1 127:1 129:1 130:1 338:1 339:1 5967:1 20960:1 20977:1 20979:1 
0.005246147804498988 1:1 9:0.024893188 11:0.024893188 127:1 129:1 189:1 206:1 288:1 1277:1 1542:1 1550:1 1834:1 1876:1 7559:1 10742:1 10765:1 21094:1 21099:1 
1 1:1 9:0.042105263 11:0.45614035 80:1 127:1 129:1 206:1 283:1 302:1 308:1 338:1 339:1 823:1 885:1 1431:1 3394:1 
0.3483384512113663 9:0.024893188 10:1 11:0 14:1 50:1 55:1 1058:1 1271:1 1272:1 3796:1 14420:1 
0.06474771510485999 9:0 10:1 11:0 50:1 54:1 55:1 381:1 3468:1 3469:1 21155:1 21156:1 
0.3110369935146755 9:0.024893188 10:1 11:0 14:1 50:1 55:1 1271:1 1272:1 1401:1 3796:1 21175:1 
0.008850779985681371 6:1 9:0 10:1 11:0.81032078 15:1 444:1 508:1 509:1 1276:1 21174:1 21176:1 
1 1:1 9:0 10:1 11:0.030042918 42:1 47:1 127:1 218:1 219:1 222:1 823:1 824:1 885:1 1270:1 
1 9:0 10:1 11:0.12121212 80:1 173:1 179:1 181:1 182:1 185:1 333:1 1148:1 1150:1 1151:1 16636:1 
0.008370390317578722 0:1 9:0.024893188 10:1 11:0.024893188 50:1 51:1 54:1 55:1 1419:1 13021:1 
0.05072438120186058 1:1 9:0.085304659 11:0.35384615 46:1 47:1 60:1 127:1 129:1 139:1 338:1 339:1 1271:1 1282:1 9790:1 10504:1 21470:1 
0.01489876525895843 9:0.024893188 10:1 11:0 50:1 54:1 55:1 313:1 1006:1 8411:1 8412:1 15180:1 
0.2021817290799171 0:1 9:0.024893188 10:1 11:0.024893188 18:1 50:1 54:1 55:1 21491:1 
1 8:1 9:1 10:1 11:0.77037037 80:1 179:1 181:1 182:1 185:1 690:1 691:1 723:1 3546:1 8470:1 
1 1:1 8:1 9:1 11:0.89285714 75:1 76:1 127:1 129:1 278:1 279:1 360:1 388:1 535:1 18438:1 21609:1 
0.01302786487126089 0:1 1:1 9:0.075 11:0.024826911 46:1 47:1 104:1 127:1 129:1 338:1 339:1 823:1 6950:1 6951:1 21612:1 21617:1 
1 9:0 10:1 11:0.7302799 25:1 46:1 47:1 241:1 3988:1 3989:1 4263:1 4283:1 
1 9:0.66666667 10:1 11:0.7302799 25:1 146:1 333:1 3988:1 3989:1 7430:1 8710:1 8711:1 
1 1:1 8:1 9:0.066666667 11:0.46666667 25:1 45:1 46:1 47:1 130:1 153:1 574:1 577:1 578:1 1161:1 1162:1 
1 8:1 9:0.75 10:1 11:0.76666667 80:1 176:1 179:1 181:1 182:1 185:1 690:1 691:1 723:1 2666:1 
1 1:1 9:0.36363636 11:0.54310345 25:1 27:1 46:1 47:1 153:1 387:1 410:1 574:1 577:1 578:1 807:1 808:1 
1 9:0.13043478 11:0.51612903 25:1 80:1 101:1 102:1 173:1 551:1 552:1 561:1 563:1 574:1 578:1 580:1 587:1 823:1 940:1 4913:1 15825:1 18652:1 
0.8785277511472435 1:1 9:0 11:0.083333333 153:1 185:1 213:1 551:1 574:1 577:1 591:1 651:1 731:1 732:1 1335:1 5212:1 15819:1 
0.2878970074664703 7:1 8:1 9:0.70588235 11:0 102:1 108:1 179:1 181:1 182:1 185:1 189:1 338:1 690:1 691:1 723:1 1047:1 1224:1 2064:1 19330:1 21798:1 
0.8139498924757087 1:1 9:0.024826911 11:0.51006711 101:1 127:1 129:1 167:1 455:1 475:1 479:1 672:1 1189:1 1931:1 2346:1 19454:1 
0.05938189175395807 1:1 9:0 10:1 11:0.0047169811 206:1 217:1 221:1 654:1 782:1 787:1 788:1 4152:1 4153:1 9861:1 
1 6:1 9:0.024872924 10:1 11:1 35:1 44:1 54:1 381:1 22025:1 22026:1 22027:1 
1 1:1 9:0 11:0.53787879 46:1 47:1 127:1 129:1 154:1 157:1 278:1 279:1 455:1 475:1 479:1 7757:1 
0.1915199204739443 0:1 1:1 9:0.024872924 11:0.90909091 46:1 47:1 50:1 127:1 342:1 360:1 535:1 557:1 585:1 1431:1 1432:1 1970:1 1972:1 
0.1596379564592367 0:1 1:1 9:0.024872924 11:0.90909091 15:1 50:1 54:1 342:1 345:1 346:1 360:1 535:1 1431:1 1432:1 1972:1 3571:1 
0.01368183884977241 1:1 9:0.024872924 11:0.024872924 15:1 27:1 50:1 127:1 444:1 823:1 885:1 1266:1 1438:1 1561:1 1562:1 21814:1 
0.2629219325444462 9:0.024872924 11:0.11111111 46:1 101:1 140:1 179:1 181:1 185:1 565:1 574:1 910:1 1050:1 1051:1 1061:1 1938:1 2385:1 2386:1 18914:1 
0.5800461796105815 0:1 8:1 9:0.024872924 10:1 11:0.024872924 50:1 55:1 63:1 444:1 22153:1 
0.1746716339660405 7:1 8:1 9:0 10:1 11:0.12121212 80:1 173:1 179:1 181:1 182:1 185:1 1148:1 1150:1 1151:1 
0.294317136903113 9:0 10:1 11:0 44:1 50:1 55:1 381:1 444:1 3468:1 3469:1 5177:1 
0.2160151359520111 9:0 10:1 11:0 42:1 44:1 54:1 499:1 764:1 11660:1 22203:1 22204:1 
0.113289205004797 0:1 9:0.024879196 10:1 11:0.024879196 50:1 54:1 55:1 236:1 22224:1 22225:1 
1 9:0.024879196 10:1 11:0.76951673 26:1 80:1 179:1 181:1 185:1 356:1 648:1 690:1 691:1 723:1 1294:1 
0.9410700231920675 9:0.024879196 10:1 11:0.76951673 172:1 179:1 181:1 182:1 185:1 654:1 690:1 691:1 723:1 10205:1 14421:1 
0.2642236211226918 1:1 7:1 8:1 9:0.02247191 11:0.024879196 76:1 102:1 129:1 153:1 162:1 574:1 577:1 578:1 581:1 22310:1 
1 1:1 9:1 10:1 11:0.029787234 27:1 42:1 46:1 47:1 127:1 370:1 401:1 823:1 824:1 885:1 
0.1189884652820673 0:1 1:1 9:1 11:0.33333333 27:1 42:1 46:1 47:1 97:1 127:1 209:1 370:1 401:1 515:1 589:1 823:1 824:1 885:1 1446:1 7226:1 21963:1 
0.04537833377315317 0:1 1:1 3:1 9:0.01511335 11:0.069565217 14:1 129:1 332:1 333:1 338:1 339:1 1834:1 1838:1 1876:1 4011:1 4014:1 22682:1 
0.04211507625614768 9:0.024884973 10:1 11:0 50:1 75:1 563:1 580:1 587:1 10941:1 14198:1 14199:1 19057:1 19058:1 19060:1 
0.8864241673637958 0:1 1:1 6:1 9:0.024869093 11:0.024869093 46:1 47:1 127:1 201:1 236:1 360:1 388:1 508:1 20647:1 
0.07517414674363156 0:1 1:1 9:0.017621145 11:0.024869093 20:1 80:1 99:1 101:1 127:1 129:1 167:1 206:1 231:1 302:1 308:1 338:1 551:1 3322:1 9790:1 10446:1 10460:1 10510:1 17352:1 22995:1 
0.04009819640268215 0:1 1:1 9:0.085775554 11:0 20:1 46:1 47:1 60:1 99:1 127:1 129:1 139:1 231:1 338:1 339:1 551:1 3322:1 9790:1 10451:1 10504:1 10510:1 17352:1 17363:1 
0.05608733326116186 0:1 1:1 8:1 9:0.024869093 11:0.024869093 42:1 46:1 47:1 104:1 127:1 338:1 731:1 1161:1 1970:1 1972:1 2201:1 2238:1 11930:1 22877:1 23065:1 
1 0:1 9:0.024868256 10:1 11:0.73684211 50:1 54:1 55:1 386:1 4449:1 4450:1 23112:1 
1 0:1 1:1 9:0.024826216 11:0.25 153:1 162:1 185:1 206:1 551:1 574:1 577:1 594:1 1050:1 1051:1 1335:1 
0.4292027404682433 1:1 9:0.024826216 11:0 25:1 75:1 127:1 206:1 455:1 475:1 807:1 808:1 1431:1 3923:1 3935:1 12153:1 12154:1 23247:1 
1 6:1 8:1 9:0.704 10:1 11:0.31790123 20:1 21:1 46:1 47:1 60:1 139:1 
1 1:1 3:1 6:1 9:0.42735043 11:0.79012346 20:1 21:1 27:1 46:1 47:1 93:1 95:1 112:1 201:1 236:1 551:1 1335:1 3988:1 
1 6:1 8:1 9:0.704 10:1 11:0.31790123 20:1 21:1 46:1 47:1 60:1 139:1 
0.00132439496592862 9:0.024863356 10:1 11:0 42:1 54:1 499:1 5013:1 5619:1 9751:1 9752:1 23572:1 
0.03675536816573031 9:0 10:1 11:0 42:1 54:1 333:1 499:1 18017:1 18020:1 21457:1 21458:1 
0.9279820925263862 6:1 9:0.6984127 10:1 11:0.3100304 20:1 21:1 46:1 47:1 60:1 139:1 19245:1 
0.0356226973080976 1:1 9:0 11:0 20:1 99:1 104:1 127:1 129:1 162:1 206:1 288:1 338:1 339:1 784:1 807:1 1200:1 1216:1 3988:1 5919:1 8249:1 11607:1 16138:1 22799:1 23636:1 23698:1 23699:1 23700:1 23701:1 
0.0938917420730342 0:1 1:1 9:0.02485011 11:0 27:1 42:1 75:1 99:1 127:1 930:1 2990:1 5199:1 5200:1 5207:1 18874:1 23728:1 
0.0192101542370978 0:1 1:1 9:0.02485011 11:0.02485011 46:1 47:1 50:1 60:1 97:1 104:1 127:1 139:1 338:1 5258:1 5278:1 8710:1 11949:1 13362:1 23744:1 23746:1 23771:1 
0.008928307287234075 9:0.024759348 10:1 11:0 42:1 54:1 313:1 499:1 5846:1 7164:1 7165:1 22986:1 
0.2392033446601831 9:0 11:0 80:1 99:1 116:1 118:1 122:1 133:1 134:1 302:1 828:1 3988:1 4006:1 10482:1 21230:1 
0.0003970004184967185 9:0.024759348 10:1 11:0 27:1 42:1 54:1 499:1 4236:1 4770:1 4771:1 17119:1 
0.02414217173009632 0:1 1:1 3:1 9:0.024759348 11:0.024759348 104:1 129:1 162:1 313:1 338:1 339:1 7520:1 8470:1 23331:1 23905:1 
0.4278250238782944 0:1 1:1 6:1 9:0.2 11:0 46:1 47:1 60:1 127:1 139:1 342:1 344:1 508:1 509:1 6176:1 
0.2727149867519435 9:0.024759348 10:1 11:0 42:1 54:1 499:1 1899:1 8951:1 10742:1 10743:1 12553:1 
0.3146193334585413 0:1 1:1 9:0.028571429 11:0.024759348 46:1 47:1 99:1 101:1 127:1 129:1 167:1 1112:1 1136:1 2830:1 3988:1 18674:1 24073:1 
0.08235168073759429 0:1 1:1 3:1 9:0.076142132 11:0.04 46:1 47:1 129:1 338:1 339:1 1112:1 1136:1 11825:1 11949:1 13821:1 23026:1 23040:1 
0.1148760557857784 0:1 6:1 9:0.024759348 10:1 11:0.72727273 206:1 654:1 4449:1 4450:1 13058:1 13059:1 
0.0008348679828351058 1:1 3:1 6:1 9:0.024759348 11:0.024759348 206:1 654:1 4449:1 4458:1 13059:1 13063:1 18033:1 24261:1 24262:1 24265:1 
0.282064140824806 6:1 9:0.024867121 10:1 11:0.8091922 162:1 206:1 508:1 509:1 594:1 24340:1 24341:1 
0.01446627070262007 0:1 6:1 9:0.024867121 10:1 11:0.31306991 20:1 21:1 35:1 54:1 1466:1 24346:1 
0.1314706452617934 1:1 9:0 11:0.0625 99:1 101:1 104:1 127:1 129:1 162:1 206:1 288:1 338:1 339:1 428:1 574:1 807:1 2238:1 17744:1 17756:1 18874:1 24363:1 24366:1 24380:1 24381:1 
1 1:1 9:0.0056179775 11:0 54:1 99:1 101:1 129:1 153:1 167:1 332:1 333:1 574:1 577:1 2238:1 2697:1 3384:1 18874:1 24365:1 
0.02027136519691717 0:1 1:1 6:1 9:0.704 11:0.024889214 20:1 21:1 46:1 47:1 60:1 139:1 153:1 6407:1 12142:1 12146:1 
0.2344557057584884 9:0.48275862 10:1 11:0.35897436 50:1 55:1 139:1 444:1 550:1 7119:1 7120:1 24824:1 
0.0147915086899434 1:1 9:0.024854812 11:0.024854812 50:1 99:1 104:1 107:1 108:1 153:1 162:1 206:1 338:1 428:1 574:1 1793:1 2050:1 4160:1 4161:1 6442:1 6446:1 6449:1 7119:1 8137:1 8160:1 17864:1 24751:1 24819:1 24822:1 
0.007314117121476269 9:0.024860275 10:1 11:0 50:1 54:1 55:1 3790:1 16503:1 22225:1 22857:1 22858:1 
0.134052023103221 0:1 9:0.024867493 10:1 11:0 50:1 51:1 54:1 55:1 241:1 15692:1 15693:1 
0.2146640435710509 9:0.024867493 10:1 11:0.054545455 50:1 55:1 444:1 550:1 4624:1 4625:1 5052:1 5900:1 
1 0:1 1:1 8:1 9:0.0091743119 11:0.16666667 76:1 129:1 153:1 162:1 176:1 338:1 339:1 574:1 577:1 636:1 644:1 
0.01274921189291305 9:0.024867493 10:1 11:0 42:1 319:1 444:1 499:1 19230:1 19231:1 22557:1 25246:1 
0.04705025799689264 9:0.024867493 10:1 11:0.006097561 25:1 29:1 444:1 613:1 807:1 808:1 25217:1 25275:1 
0.009586012573401765 0:1 1:1 9:0.024867493 11:0.024867493 25:1 153:1 206:1 267:1 613:1 807:1 808:1 3169:1 22622:1 25232:1 25242:1 25275:1 25282:1 
1 1:1 8:1 9:0.08583691 11:0.20454545 46:1 47:1 60:1 127:1 129:1 139:1 338:1 339:1 2052:1 2079:1 2080:1 
0.06871588476443563 0:1 9:0.024867493 10:1 11:0.024867493 75:1 563:1 587:1 610:1 915:1 1360:1 4031:1 4084:1 
0.2377558727971011 9:0.024855088 10:1 11:0 14:1 50:1 55:1 3605:1 3606:1 3796:1 6079:1 9003:1 
1 6:1 7:1 8:1 9:0.36363636 10:1 11:0.8091922 14:1 28:1 35:1 508:1 509:1 
0.1536097690900947 9:0.024875038 10:1 11:0 42:1 54:1 499:1 1024:1 11714:1 16803:1 25423:1 25424:1 
1 0:1 1:1 3:1 6:1 7:1 8:1 9:0.36363636 11:0.024875038 20:1 76:1 80:1 93:1 112:1 508:1 509:1 551:1 4429:1 13714:1 
0.1232712776432849 0:1 1:1 9:0.024875038 10:1 11:0.024875038 25:1 46:1 47:1 78:1 798:1 800:1 1765:1 
1 9:0.5 10:1 11:0.069518717 42:1 46:1 47:1 51:1 60:1 360:1 361:1 1058:1 
0.2615292808386489 0:1 1:1 9:0.022075055 11:0.33333333 46:1 47:1 60:1 81:1 93:1 99:1 101:1 104:1 127:1 129:1 139:1 167:1 360:1 388:1 535:1 7297:1 19027:1 19315:1 22573:1 25534:1 
1 1:1 9:0.022075055 11:0.33333333 46:1 47:1 60:1 101:1 127:1 129:1 139:1 167:1 360:1 388:1 535:1 19315:1 
0.1025062040461373 0:1 9:0.024844274 10:1 11:0.024844274 14:1 42:1 241:1 499:1 17192:1 
1 1:1 9:0.35714286 10:1 11:0.72634271 25:1 46:1 47:1 78:1 154:1 157:1 799:1 3988:1 3989:1 4362:1 
0.260242596434589 1:1 9:0 11:0.10135135 23:1 27:1 75:1 78:1 93:1 99:1 104:1 206:1 338:1 574:1 807:1 820:1 831:1 832:1 833:1 917:1 918:1 1161:1 1322:1 3988:1 14407:1 23215:1 23216:1 25592:1 25633:1 
0.1320063734298259 1:1 9:0 11:0.10135135 23:1 27:1 75:1 78:1 206:1 831:1 832:1 833:1 917:1 918:1 1322:1 23215:1 23216:1 
1 1:1 9:0.084939329 11:0.081081081 46:1 47:1 60:1 129:1 139:1 153:1 338:1 339:1 574:1 577:1 807:1 820:1 887:1 25639:1 
0.01116893962076095 0:1 9:0.024844274 10:1 11:0 25:1 444:1 797:1 2246:1 2247:1 22859:1 25577:1 
0.455600676435746 1:1 9:0.015060241 11:0.18461538 46:1 47:1 127:1 129:1 338:1 339:1 805:1 809:1 3938:1 3988:1 4006:1 5649:1 5654:1 
0.0341125765238927 0:1 1:1 9:0.072727273 11:0 46:1 47:1 104:1 127:1 129:1 338:1 339:1 746:1 748:1 23736:1 25754:1 25757:1 25771:1 25772:1 
0.03902715980783954 9:0.02489174 10:1 11:0 42:1 54:1 499:1 3376:1 4629:1 25816:1 25817:1 25818:1 
0.5937016053002749 9:0.5 10:1 11:0 14:1 50:1 55:1 247:1 1431:1 1432:1 3796:1 10047:1 
0.117707887830333 6:1 9:0.14285714 10:1 11:0.80865922 75:1 206:1 508:1 509:1 1434:1 10034:1 10043:1 
0.026209275459266 0:1 9:0.02489174 10:1 11:0.02489174 50:1 51:1 54:1 55:1 613:1 23224:1 
0.1170327487505548 0:1 1:1 6:1 9:0.02489174 11:0 104:1 153:1 162:1 206:1 342:1 344:1 508:1 509:1 5479:1 13974:1 13975:1 
0.00909665571667743 0:1 6:1 9:0.02489174 10:1 11:0.02489174 35:1 54:1 386:1 17584:1 25816:1 
0.2314015715404886 1:1 7:1 8:1 9:0.0081300813 11:0.02489174 25:1 75:1 76:1 81:1 82:1 127:1 455:1 475:1 1431:1 12184:1 20645:1 25105:1 
0.284104182922206 1:1 3:1 6:1 9:0.70967742 11:0.8 20:1 21:1 46:1 47:1 60:1 93:1 104:1 112:1 139:1 338:1 342:1 782:1 1628:1 3988:1 4006:1 6074:1 7966:1 12590:1 12928:1 13205:1 14535:1 26067:1 26068:1 26074:1 
0.8574080155550263 1:1 9:0 11:0.024859192 50:1 127:1 162:1 206:1 455:1 475:1 594:1 1431:1 3394:1 19242:1 19243:1 22547:1 22548:1 
1 0:1 6:1 9:0.70634921 10:1 11:0.31306991 20:1 21:1 46:1 47:1 60:1 139:1 
1 1:1 8:1 9:0.073979592 11:0.39344262 46:1 47:1 127:1 129:1 338:1 339:1 823:1 885:1 1112:1 1136:1 1266:1 
0.7021895233383493 0:1 1:1 3:1 6:1 9:0.70634921 11:0.80645161 20:1 21:1 46:1 47:1 60:1 93:1 101:1 112:1 139:1 338:1 1770:1 3988:1 4006:1 13215:1 14089:1 26110:1 
0.6878928503482624 0:1 9:0.024830818 10:1 11:0.024830818 50:1 54:1 55:1 59:1 7213:1 
0.004739423091041157 0:1 1:1 9:0.013513514 11:0.18181818 46:1 47:1 104:1 129:1 228:1 338:1 339:1 601:1 773:1 1144:1 1413:1 6113:1 8990:1 21590:1 23905:1 24023:1 
1 1:1 8:1 9:0.024830818 11:0.25 46:1 47:1 153:1 185:1 551:1 574:1 577:1 614:1 632:1 1335:1 4977:1 4978:1 
0.6404625198889514 0:1 1:1 9:0.85714286 11:0.024830818 25:1 45:1 46:1 47:1 104:1 127:1 130:1 1238:1 3988:1 3989:1 20804:1 20810:1 20812:1 24370:1 
1 0:1 1:1 9:0.024830818 10:1 11:0.024830818 45:1 46:1 47:1 50:1 130:1 580:1 24370:1 
1 1:1 9:0.1754386 11:0.51592357 25:1 47:1 153:1 218:1 219:1 222:1 551:1 552:1 574:1 577:1 578:1 26018:1 
0.04808360506282738 0:1 1:1 3:1 6:1 9:0.024830818 10:1 11:0 46:1 47:1 60:1 139:1 25577:1 26364:1 26365:1 
0.05896540239065128 9:0.024903901 11:0 116:1 118:1 122:1 147:1 338:1 444:1 455:1 832:1 926:1 3291:1 6482:1 6490:1 8526:1 8529:1 8530:1 23649:1 23650:1 26501:1 26502:1 
0.1712411549511773 9:0 10:1 11:0 50:1 51:1 54:1 55:1 165:1 6343:1 6344:1 26562:1 
1 1:1 9:0 10:1 11:0.72890026 25:1 46:1 47:1 78:1 3988:1 3989:1 4263:1 4283:1 4362:1 16676:1 
0.3430344203550532 9:0.024903901 10:1 11:0 50:1 55:1 444:1 2085:1 13810:1 25663:1 26599:1 26600:1 
0.004946515173820596 9:0.024903901 10:1 11:0 42:1 444:1 499:1 13821:1 20804:1 20805:1 25663:1 26601:1 
1 1:1 9:0.66666667 10:1 11:0.72890026 25:1 27:1 78:1 146:1 332:1 333:1 3988:1 3989:1 4362:1 8711:1 
1 1:1 9:0.010731707 11:0.081395349 18:1 127:1 129:1 146:1 332:1 338:1 339:1 455:1 475:1 820:1 887:1 8710:1 8711:1 
0.2671819555014863 1:1 9:0.024903901 11:0.024903901 75:1 127:1 185:1 206:1 455:1 475:1 1431:1 3394:1 4647:1 5767:1 5768:1 23646:1 24563:1 
0.01760967965832587 9:0 10:1 11:0 46:1 50:1 60:1 139:1 580:1 587:1 5039:1 8465:1 9491:1 9492:1 26637:1 
0.1143699419812949 1:1 9:0.024903901 11:0.51006711 101:1 127:1 129:1 167:1 455:1 475:1 479:1 1294:1 1931:1 2345:1 2346:1 3937:1 
0.1785114802564732 9:0.024903901 10:1 11:0.66666667 50:1 54:1 55:1 157:1 5198:1 8106:1 26663:1 26664:1 
0.01360338335425794 9:0 10:1 11:0 50:1 51:1 54:1 623:1 2372:1 2373:1 21387:1 26675:1 
0.1575329665183973 9:0 10:1 11:0 42:1 54:1 319:1 499:1 12326:1 22416:1 22417:1 26705:1 
0.08067178182651169 1:1 9:0.5 11:0.024903901 23:1 24:1 25:1 153:1 591:1 2669:1 4011:1 4014:1 5212:1 9587:1 16899:1 26705:1 
1 9:0.024903901 10:1 11:0.66666667 50:1 55:1 157:1 444:1 19029:1 23649:1 26663:1 26664:1 
0.1637065971014095 9:0.024903901 10:1 11:0.66666667 50:1 55:1 157:1 444:1 23649:1 26663:1 26664:1 26742:1 
0.01033948735280069 0:1 1:1 3:1 6:1 9:0.024903901 11:0.024903901 75:1 99:1 104:1 260:1 261:1 262:1 338:1 12329:1 16190:1 22416:1 22573:1 26818:1 
0.3517695979493915 9:0.024903901 10:1 11:0.66666667 50:1 54:1 55:1 382:1 19135:1 26663:1 26664:1 26832:1 
0.2839630201018378 0:1 1:1 9:0.024903901 11:0.024903901 46:1 47:1 50:1 60:1 139:1 153:1 4011:1 4014:1 16899:1 23026:1 23027:1 
1 7:1 8:1 9:0 10:1 11:0.1221374 80:1 173:1 179:1 181:1 182:1 185:1 1148:1 1150:1 1151:1 
0.157516050614696 9:0 10:1 11:0 42:1 54:1 319:1 499:1 21103:1 22416:1 22417:1 26705:1 
0.2766800147294141 1:1 9:0.024866634 11:0.90909091 15:1 50:1 346:1 394:1 444:1 508:1 594:1 770:1 773:1 779:1 3605:1 3606:1 5921:1 26955:1 
1 0:1 1:1 3:1 6:1 9:0.024864406 11:0.024864406 46:1 47:1 60:1 139:1 508:1 750:1 779:1 20499:1 
0.2416746378547037 0:1 1:1 3:1 9:0.085470085 11:0 46:1 47:1 60:1 104:1 129:1 139:1 338:1 339:1 27112:1 27118:1 27123:1 27135:1 27136:1 27137:1 
0.5140711592221966 7:1 8:1 9:0.36363636 10:1 11:0 80:1 179:1 181:1 182:1 185:1 753:1 8797:1 8798:1 8799:1 
0.02082467570779638 1:1 9:0.013333333 11:0.33333333 80:1 101:1 104:1 127:1 129:1 167:1 206:1 338:1 648:1 651:1 906:1 4368:1 14315:1 14328:1 27176:1 27182:1 
0.1003747640121084 1:1 9:0.067226891 11:0.33333333 45:1 46:1 47:1 101:1 127:1 129:1 130:1 167:1 5773:1 5806:1 14315:1 14328:1 27211:1 
0.4325107733865762 0:1 8:1 9:0.02485258 10:1 11:0.02485258 50:1 54:1 55:1 381:1 27396:1 
0.002738986002093034 0:1 6:1 9:0 10:1 11:0 35:1 54:1 1904:1 1905:1 25426:1 27396:1 
0.03177680839965181 1:1 9:0.0072463768 11:0 20:1 46:1 47:1 101:1 104:1 127:1 129:1 338:1 339:1 551:1 734:1 735:1 8075:1 8773:1 10444:1 10461:1 14324:1 15492:1 18939:1 27415:1 27427:1 
0.006179388580978724 1:1 9:0.02485258 11:0 44:1 101:1 104:1 143:1 153:1 206:1 267:1 398:1 636:1 839:1 20888:1 22563:1 25180:1 27419:1 27422:1 27431:1 27432:1 27433:1 
0.08705496471828558 1:1 9:0.083333333 11:0.15384615 46:1 47:1 101:1 127:1 129:1 167:1 387:1 410:1 636:1 644:1 20888:1 20898:1 27440:1 
0.009826324204668157 0:1 1:1 9:0.1 11:0.42857143 15:1 18:1 23:1 24:1 25:1 104:1 127:1 288:1 338:1 444:1 518:1 551:1 2929:1 4596:1 4610:1 6404:1 8811:1 9144:1 9859:1 11815:1 15050:1 15070:1 18970:1 
0.4055387089539345 0:1 1:1 9:0.1 11:0.42857143 15:1 18:1 23:1 24:1 25:1 127:1 444:1 4596:1 4610:1 15050:1 15070:1 
0.01919811894901449 0:1 9:0.024879128 10:1 11:0.024879128 14:1 50:1 55:1 1336:1 4434:1 
1 0:1 9:0.024879128 10:1 11:0.0064724919 23:1 24:1 25:1 27:1 54:1 797:1 4433:1 
0.6911315952117212 0:1 9:0.024879128 10:1 11:0.0064724919 23:1 24:1 25:1 27:1 54:1 797:1 4433:1 
0.9775361812259279 0:1 9:0.024879128 10:1 11:0.0064724919 23:1 24:1 25:1 27:1 54:1 797:1 4433:1 
0.01006279192964758 0:1 1:1 3:1 9:0.024879128 11:0.024879128 23:1 25:1 46:1 47:1 93:1 551:1 1161:1 4183:1 7780:1 8994:1 22541:1 27497:1 
0.08318343366241381 8:1 9:0 10:1 11:0.0060827251 25:1 29:1 381:1 444:1 807:1 808:1 15236:1 
0.08134872481734465 0:1 6:1 9:0.024858418 10:1 11:0.024858418 14:1 35:1 381:1 6289:1 7306:1 
0.08896719774729843 0:1 1:1 9:0.5 11:0.73043478 14:1 15:1 18:1 50:1 127:1 342:1 455:1 479:1 1431:1 1432:1 27893:1 
1 0:1 1:1 9:0.5 11:0.73043478 15:1 18:1 50:1 54:1 342:1 345:1 346:1 455:1 479:1 1431:1 1432:1 
1 0:1 9:1 11:0.5 75:1 99:1 179:1 182:1 246:1 247:1 338:1 455:1 919:1 1260:1 2385:1 2386:1 2387:1 2990:1 
1 1:1 8:1 9:0.024860381 11:0.51006711 101:1 127:1 129:1 167:1 206:1 267:1 455:1 475:1 479:1 11134:1 17670:1 
0.1053964943244378 0:1 9:0.024860381 10:1 11:0.12121212 75:1 179:1 181:1 182:1 185:1 382:1 1148:1 1150:1 1151:1 10483:1 
1 0:1 1:1 8:1 9:0.084285714 11:0.45614035 46:1 47:1 60:1 104:1 129:1 139:1 153:1 338:1 339:1 455:1 1431:1 3394:1 
0.1966235774036346 0:1 1:1 8:1 9:0.084285714 11:0.45614035 46:1 47:1 60:1 129:1 139:1 153:1 338:1 339:1 1431:1 3394:1 
0.01416742345555548 9:0.024830405 10:1 11:0 42:1 54:1 59:1 499:1 815:1 816:1 22249:1 28169:1 
0.3876745152402499 9:0 10:1 11:0 50:1 51:1 54:1 55:1 1419:1 11006:1 11007:1 28113:1 
0.004742667922462951 0:1 9:0.024830405 10:1 11:0.024830405 50:1 55:1 402:1 444:1 23096:1 28087:1 
0.01143867378267264 9:0 11:0 101:1 116:1 118:1 122:1 338:1 408:1 455:1 592:1 832:1 1279:1 1767:1 1914:1 2202:1 2203:1 3076:1 3077:1 3938:1 28210:1 
1 1:1 9:0 11:0.098765432 46:1 47:1 127:1 129:1 338:1 339:1 795:1 926:1 1767:1 2473:1 3078:1 28210:1 28213:1 
1 0:1 6:1 9:0.22580645 10:1 11:0.31306991 20:1 21:1 35:1 54:1 381:1 382:1 
0.03479537841123119 9:0.024801328 11:0 100:1 101:1 102:1 116:1 118:1 120:1 122:1 162:1 174:1 394:1 508:1 551:1 574:1 1335:1 2461:1 4058:1 4059:1 4060:1 5967:1 6456:1 13041:1 27061:1 28210:1 28407:1 
1 1:1 9:0.5 11:0.51592357 25:1 46:1 47:1 153:1 551:1 552:1 574:1 577:1 578:1 4015:1 4062:1 13703:1 
0.1273904536789193 1:1 9:0.072727273 11:0.18181818 46:1 47:1 127:1 129:1 338:1 339:1 746:1 748:1 3988:1 4006:1 22420:1 23026:1 25754:1 25771:1 
1 1:1 8:1 9:0.084757835 11:0.052238806 46:1 47:1 60:1 129:1 139:1 153:1 338:1 339:1 574:1 577:1 807:1 858:1 
0.04077334308439004 9:0 10:1 11:0 50:1 55:1 130:1 444:1 4866:1 4867:1 6321:1 21319:1 
0.01027428347050071 9:0.024801328 10:1 11:0 179:1 181:1 185:1 245:1 356:1 12048:1 14598:1 14599:1 14600:1 17294:1 17295:1 
0.05821130935368529 0:1 6:1 9:0.024801328 10:1 11:0.024801328 14:1 35:1 2066:1 9811:1 
0.1196603738354208 1:1 9:0.024801328 11:0.024801328 42:1 46:1 47:1 60:1 104:1 127:1 139:1 143:1 338:1 12048:1 22416:1 28520:1 28521:1 28522:1 
1 6:1 9:0.22580645 10:1 11:0.31212121 20:1 21:1 35:1 54:1 381:1 3224:1 5090:1 
0.07432730575722282 6:1 9:0 10:1 11:0 14:1 333:1 3100:1 14208:1 19910:1 20743:1 20744:1 
0.1305352563779997 0:1 1:1 3:1 9:0.024848572 11:0.024848572 46:1 47:1 50:1 2873:1 2874:1 3787:1 3790:1 28850:1 28852:1 28854:1 
0.005837803369928666 1:1 9:0 11:0.024848572 45:1 46:1 47:1 127:1 130:1 156:1 2393:1 2394:1 21971:1 28866:1 28883:1 28884:1 
1 1:1 9:0.073791349 11:0.39344262 46:1 47:1 127:1 129:1 338:1 339:1 823:1 885:1 1112:1 1136:1 1266:1 28946:1 
0.4962157532687995 1:1 9:0.024848572 11:0.51898734 25:1 80:1 153:1 206:1 551:1 552:1 574:1 577:1 578:1 753:1 1634:1 28933:1 
0.01576924685698444 0:1 9:0.024848572 11:0 50:1 80:1 101:1 104:1 302:1 308:1 563:1 580:1 587:1 846:1 1406:1 2241:1 2569:1 2873:1 3234:1 16377:1 16378:1 20802:1 21451:1 
0.2502633268469421 1:1 9:0.024848572 11:0.10067114 23:1 78:1 206:1 245:1 831:1 832:1 833:1 917:1 918:1 1322:1 4445:1 8252:1 11757:1 
0.3294832205145159 1:1 3:1 9:0.026666667 11:0.53787879 46:1 47:1 60:1 129:1 139:1 278:1 279:1 342:1 455:1 479:1 22876:1 24748:1 25852:1 25867:1 
1 1:1 9:0.024856996 11:0 45:1 46:1 47:1 122:1 130:1 153:1 398:1 405:1 551:1 574:1 577:1 1335:1 13784:1 
1 0:1 1:1 3:1 6:1 9:0.024856996 10:1 11:0.80865922 189:1 206:1 508:1 509:1 750:1 2274:1 
0.8208058724011268 9:0 10:1 11:0.7284264 25:1 29:1 54:1 2955:1 3988:1 3989:1 11215:1 29113:1 
0.4532565449234862 0:1 9:0.024845977 10:1 11:0.024845977 50:1 55:1 241:1 444:1 7821:1 29159:1 
0.1952259020915399 0:1 1:1 3:1 6:1 9:0.024845977 11:0.024845977 46:1 47:1 508:1 750:1 779:1 1845:1 1875:1 26497:1 26498:1 
0.0004989598999393935 1:1 9:0.024845977 11:0 27:1 76:1 104:1 143:1 153:1 360:1 486:1 654:1 839:1 1669:1 1700:1 1718:1 1719:1 4657:1 18621:1 
0.03373276496783324 0:1 9:0.024845977 10:1 11:0 25:1 29:1 444:1 2955:1 10122:1 24136:1 24137:1 
0.06145675295192165 0:1 1:1 9:0.024845977 11:0.024845977 127:1 156:1 189:1 206:1 2013:1 4946:1 4947:1 12852:1 29328:1 
1 1:1 9:0.073791349 11:0.39344262 46:1 47:1 127:1 129:1 338:1 339:1 823:1 885:1 1112:1 1136:1 1266:1 29430:1 
0.3303493334821784 0:1 6:1 9:0.024859841 10:1 11:0.024859841 14:1 35:1 6321:1 
0.05548570595977362 1:1 9:0.024859841 11:0.024859841 104:1 127:1 189:1 206:1 213:1 338:1 831:1 917:1 918:1 15180:1 15924:1 28111:1 29395:1 29418:1 29479:1 29481:1 29487:1 29488:1 
0.2803811638736216 9:0 10:1 11:0.0060753341 25:1 29:1 444:1 807:1 808:1 4439:1 22899:1 29684:1 
0.0450315257763706 1:1 3:1 6:1 9:0 10:1 11:0 46:1 47:1 60:1 139:1 22573:1 22574:1 22720:1 29686:1 
0.4234167537208259 1:1 3:1 9:0.024866171 11:0.84615385 50:1 189:1 206:1 508:1 750:1 779:1 1058:1 3325:1 3605:1 3606:1 22576:1 29687:1 
0.008622646443129779 9:0.024866171 10:1 11:0 50:1 54:1 55:1 386:1 1941:1 1942:1 9789:1 28582:1 
0.5252348170921294 6:1 9:0.6 10:1 11:0.31306991 20:1 21:1 46:1 47:1 746:1 748:1 10941:1 
0.00181181117350845 1:1 3:1 9:0.0076923077 11:0 47:1 129:1 218:1 219:1 222:1 338:1 339:1 508:1 750:1 13068:1 13093:1 29773:1 
1 1:1 9:0 11:1 127:1 189:1 206:1 213:1 823:1 831:1 885:1 917:1 918:1 1266:1 5618:1 5634:1 
0.1358967738817087 0:1 1:1 3:1 6:1 9:0.024822649 10:1 11:0 15:1 54:1 7437:1 29016:1 29807:1 29808:1 29809:1 
0.2739726262812512 0:1 9:0.024822649 10:1 11:0.024822649 50:1 54:1 55:1 381:1 1188:1 3240:1 
0.0342153026675557 1:1 8:1 9:0.27272727 11:0.024822649 25:1 46:1 47:1 60:1 78:1 97:1 139:1 551:1 552:1 1333:1 26497:1 27972:1 27975:1 
0.09419602761449754 1:1 9:0.085592011 11:0.1875 46:1 47:1 60:1 129:1 139:1 153:1 338:1 339:1 445:1 3190:1 3988:1 4006:1 5274:1 5279:1 19867:1 
0.2415893779491896 0:1 1:1 3:1 9:0.125 11:0.1875 129:1 189:1 206:1 338:1 339:1 3988:1 4006:1 8796:1 8825:1 19867:1 19872:1 24751:1 
0.1281692378563718 0:1 1:1 3:1 6:1 9:0.024822649 10:1 11:0.024822649 15:1 54:1 11952:1 25816:1 29928:1 
0.2003872332530149 0:1 9:0.024822649 10:1 11:0 69:1 162:1 179:1 181:1 185:1 356:1 961:1 8797:1 8798:1 8799:1 
0.04774129980909428 1:1 9:0 11:0 75:1 104:1 127:1 129:1 206:1 338:1 339:1 4124:1 4946:1 5199:1 10261:1 12329:1 12346:1 18284:1 18739:1 30023:1 
0.06218871963954289 1:1 9:0.0078125 11:0.024812972 46:1 47:1 104:1 127:1 129:1 338:1 339:1 614:1 632:1 3605:1 20419:1 28852:1 30051:1 30054:1 30056:1 30069:1 30070:1 
1 1:1 9:0.91907514 10:1 11:0.72959184 25:1 46:1 47:1 60:1 78:1 139:1 3988:1 3989:1 4362:1 30119:1 
0.1178314264287228 9:0 10:1 11:0 50:1 51:1 54:1 55:1 213:1 16440:1 16441:1 30120:1 
0.08338705688923487 0:1 1:1 7:1 8:1 9:0.0081300813 11:0 76:1 93:1 99:1 101:1 127:1 129:1 245:1 338:1 339:1 455:1 624:1 773:1 3988:1 14853:1 30047:1 30051:1 30056:1 30064:1 30124:1 
1 1:1 9:0.006779661 11:0.51006711 15:1 18:1 101:1 127:1 129:1 146:1 167:1 455:1 475:1 479:1 8710:1 8711:1 
0.6180778904300879 0:1 1:1 9:0.016853933 11:0.11111111 47:1 101:1 127:1 129:1 167:1 218:1 219:1 222:1 16440:1 16457:1 17450:1 17456:1 30136:1 
0.006256598821064514 0:1 9:0.024880558 10:1 11:0 14:1 50:1 55:1 7615:1 8388:1 8389:1 25729:1 
0.03791892709654504 0:1 9:0.024874388 10:1 11:0 42:1 444:1 499:1 2274:1 7501:1 7502:1 30458:1 
1 0:1 9:0.024874388 10:1 11:0.73684211 162:1 179:1 181:1 185:1 356:1 1132:1 4449:1 4450:1 22873:1 24265:1 
0.7789932511502264 0:1 1:1 9:0 11:0.024865706 46:1 47:1 127:1 156:1 231:1 370:1 401:1 508:1 2533:1 2534:1 4624:1 4638:1 30565:1 30577:1 
1 9:0.024865706 10:1 11:0 54:1 179:1 181:1 185:1 948:1 2608:1 8797:1 8798:1 8799:1 16325:1 16636:1 
1 1:1 3:1 6:1 9:0.5 10:1 11:0.8084507 75:1 206:1 260:1 508:1 509:1 750:1 12803:1 16326:1 
0.03745679910333174 1:1 9:0.028571429 11:0 46:1 47:1 101:1 127:1 129:1 167:1 1112:1 1136:1 1228:1 2603:1 8798:1 16195:1 16205:1 16323:1 
0.0153333157772847 9:0 10:1 11:0 50:1 51:1 54:1 55:1 3071:1 12610:1 13487:1 13488:1 
0.02968339871521301 9:0.024865706 10:1 11:0 18:1 50:1 54:1 55:1 12610:1 13500:1 30791:1 30792:1 
0.6965065908635657 6:1 9:0.5 10:1 11:0.8084507 14:1 35:1 247:1 508:1 509:1 12803:1 30742:1 
0.904497556462413 9:0 10:1 11:0.12121212 179:1 181:1 185:1 189:1 234:1 356:1 1148:1 1150:1 1151:1 1449:1 2925:1 
0.1683172528404594 0:1 9:0.024874875 11:0 179:1 181:1 185:1 267:1 356:1 570:1 571:1 1022:1 1367:1 1380:1 1381:1 
0.07952751939208116 9:0 10:1 11:0 50:1 54:1 55:1 381:1 6594:1 6595:1 24328:1 25773:1 
0.02150922149352179 6:1 9:0.02480606 10:1 11:0 14:1 35:1 386:1 10134:1 10136:1 11008:1 14707:1 
0.05998058563341276 1:1 9:0 11:0 47:1 104:1 127:1 129:1 267:1 338:1 339:1 455:1 1431:1 5928:1 6506:1 6594:1 8691:1 10134:1 11002:1 14708:1 24323:1 25754:1 25771:1 
0.09250744264547046 0:1 6:1 9:0 10:1 11:0 35:1 381:1 444:1 445:1 446:1 29849:1 
0.1583608073820691 1:1 8:1 9:0.022026432 11:0 46:1 47:1 60:1 101:1 104:1 127:1 129:1 139:1 167:1 574:1 846:1 2050:1 2075:1 2077:1 13416:1 25757:1 31120:1 
1 1:1 9:0.024861788 10:1 11:0.57534247 46:1 47:1 153:1 574:1 577:1 805:1 809:1 839:1 4324:1 31123:1 
0.07057419467384213 0:1 6:1 9:0 10:1 11:0 14:1 35:1 3402:1 4821:1 5523:1 17790:1 
0.1841110212944594 9:0 10:1 11:0 42:1 54:1 381:1 499:1 3224:1 27396:1 31222:1 31223:1 
0.01563181127554558 1:1 3:1 6:1 9:0.024861788 10:1 11:0 45:1 46:1 47:1 130:1 6375:1 6376:1 6401:1 21866:1 
1 1:1 3:1 6:1 9:0.432 11:0.79761905 20:1 21:1 46:1 47:1 93:1 112:1 201:1 236:1 551:1 1335:1 3988:1 7757:1 
0.007618337611142029 1:1 9:0 11:0.95 46:1 47:1 127:1 129:1 338:1 339:1 3207:1 3208:1 4624:1 4639:1 17247:1 23736:1 27400:1 27407:1 
0.04552199214092052 0:1 1:1 3:1 9:0.011639185 11:0 18:1 75:1 76:1 129:1 338:1 339:1 4449:1 4458:1 23215:1 27410:1 
0.09903693340273516 0:1 1:1 3:1 9:0.33333333 11:0.024835074 47:1 50:1 218:1 219:1 222:1 2873:1 2874:1 12266:1 12289:1 31315:1 31317:1 
0.4299360004362031 0:1 6:1 9:0.024835074 10:1 11:0.31306991 14:1 20:1 21:1 35:1 68:1 
0.07514336968016971 0:1 1:1 3:1 9:0.011673152 11:0 18:1 75:1 76:1 104:1 129:1 338:1 339:1 3232:1 8657:1 8667:1 8669:1 12852:1 
0.02563658277380216 1:1 9:0.024862005 11:0.23076923 46:1 47:1 101:1 127:1 138:1 140:1 1970:1 1972:1 2238:1 2239:1 4430:1 4436:1 16203:1 31405:1 
1 6:1 9:0.5 10:1 11:0.80952381 35:1 54:1 381:1 1085:1 12479:1 12480:1 28209:1 
0.4996596062306777 0:1 1:1 9:0.066945607 11:0.18181818 76:1 101:1 127:1 129:1 130:1 167:1 189:1 4902:1 4910:1 5491:1 7515:1 8161:1 29390:1 
0.8690771579120873 0:1 9:0.024862005 10:1 11:0.024862005 50:1 51:1 54:1 55:1 247:1 13327:1 
0.0166243672802626 6:1 9:0.024862005 10:1 11:0 14:1 35:1 2928:1 8811:1 8812:1 8933:1 23618:1 
0.2089056757418495 9:0.024862005 10:1 11:0 54:1 185:1 410:1 1044:1 2783:1 5648:1 16575:1 16576:1 
0.144749710526371 0:1 1:1 9:0.024860056 11:0.024860056 127:1 156:1 189:1 206:1 241:1 2533:1 2534:1 2614:1 3176:1 7026:1 7229:1 
0.8407007993109754 0:1 9:0.024860056 10:1 11:0.024860056 50:1 51:1 54:1 55:1 3340:1 12015:1 
0.4561355450583243 9:0.024860056 10:1 11:0 50:1 55:1 241:1 444:1 1136:1 4229:1 4230:1 31535:1 
0.00961508947224887 1:1 9:0.024860056 11:0.024860056 46:1 47:1 50:1 104:1 153:1 241:1 1112:1 1136:1 4229:1 4230:1 22469:1 31537:1 31540:1 31727:1 
1 0:1 9:0.66666667 10:1 11:0.7302799 25:1 54:1 333:1 2232:1 3988:1 3989:1 29113:1 
0.7529269729786743 1:1 9:0 11:0.375 23:1 24:1 25:1 54:1 127:1 288:1 332:1 333:1 2979:1 2980:1 3988:1 4596:1 4609:1 4610:1 26162:1 29114:1 31881:1 
0.4786392859963676 1:1 9:0.5 11:1 25:1 54:1 127:1 288:1 2954:1 2955:1 3988:1 3989:1 4595:1 29114:1 29120:1 29121:1 31881:1 
0.8678386910626303 1:1 9:0.020134228 11:0.024839524 46:1 47:1 101:1 127:1 129:1 167:1 201:1 236:1 455:1 475:1 2851:1 13762:1 13766:1 
1 1:1 9:0.22222222 11:0.51592357 25:1 46:1 47:1 153:1 551:1 552:1 574:1 577:1 578:1 614:1 632:1 3398:1 
0.3412848723549775 9:0.024839524 10:1 11:0.76752768 46:1 179:1 181:1 185:1 565:1 690:1 691:1 723:1 910:1 997:1 6544:1 
1 1:1 9:0.093023256 11:0.51006711 46:1 47:1 101:1 127:1 129:1 167:1 455:1 475:1 479:1 614:1 632:1 13784:1 
0.8589367446512185 0:1 1:1 9:0 11:0 46:1 47:1 104:1 127:1 156:1 614:1 632:1 2533:1 2534:1 3988:1 4006:1 6214:1 29649:1 30414:1 
0.1170096887821269 0:1 9:0.024839524 10:1 11:0.024839524 50:1 51:1 54:1 55:1 1747:1 16315:1 
1 1:1 9:0.1826087 11:0.52229299 25:1 47:1 153:1 218:1 219:1 222:1 551:1 552:1 574:1 577:1 578:1 26018:1 
0.08785908100562782 1:1 9:0 11:0.18461538 76:1 127:1 129:1 162:1 262:1 338:1 339:1 3988:1 4006:1 5109:1 5112:1 20980:1 28873:1 
0.02899329621690718 0:1 1:1 9:0.024847155 11:0.024847155 76:1 80:1 93:1 97:1 99:1 104:1 105:1 143:1 153:1 551:1 574:1 620:1 753:1 839:1 1793:1 3988:1 5633:1 19449:1 19450:1 28964:1 30051:1 32320:1 32321:1 
1 1:1 9:0.39285714 11:0.52229299 25:1 45:1 46:1 47:1 130:1 153:1 551:1 552:1 574:1 577:1 578:1 17807:1 
1 9:0.024894937 10:1 11:0.7284264 14:1 25:1 29:1 3988:1 3989:1 8796:1 8825:1 24442:1 
0.06761488152715416 9:0 10:1 11:0.006097561 25:1 444:1 550:1 797:1 807:1 808:1 4981:1 11714:1 
0.3841518189713655 9:0.8 10:1 11:0.36842105 50:1 54:1 55:1 381:1 1085:1 7119:1 7120:1 28181:1 
0.06805580809467689 1:1 9:0.024894937 11:0.55555556 153:1 162:1 185:1 206:1 574:1 577:1 594:1 807:1 858:1 4977:1 4978:1 9000:1 11713:1 
0.02145258315385039 1:1 9:0.042105263 11:0.085603113 80:1 99:1 101:1 107:1 127:1 129:1 206:1 209:1 273:1 283:1 302:1 308:1 338:1 339:1 820:1 823:1 885:1 887:1 1422:1 2044:1 2888:1 5784:1 13359:1 14423:1 16557:1 20385:1 24424:1 32331:1 
0.2493803926667053 9:0.48275862 10:1 11:0.36842105 50:1 55:1 139:1 444:1 550:1 7119:1 7120:1 32430:1 
0.005869701204194081 1:1 9:1 11:0.024894937 46:1 47:1 60:1 99:1 139:1 153:1 574:1 831:1 917:1 918:1 7119:1 32419:1 32420:1 32428:1 32446:1 32447:1 
0.6296106581378377 9:0.5 10:1 11:0 139:1 146:1 185:1 731:1 732:1 1937:1 5039:1 8297:1 
0.1572213188772983 1:1 9:0.5 11:0 46:1 47:1 60:1 139:1 153:1 185:1 731:1 732:1 1161:1 1190:1 5039:1 29408:1 29411:1 
0.02422110384221078 1:1 9:0 11:0.54615385 47:1 104:1 129:1 153:1 218:1 219:1 222:1 278:1 279:1 342:1 455:1 479:1 1161:1 14851:1 17112:1 17113:1 24717:1 32331:1 32464:1 
0.1689539385412435 9:0.024894937 11:0.024894937 104:1 143:1 179:1 181:1 185:1 444:1 948:1 4434:1 14851:1 14852:1 14873:1 17104:1 18420:1 24717:1 
0.7409151665539923 0:1 6:1 9:0.024894937 10:1 11:0.80865922 14:1 332:1 508:1 509:1 30200:1 
0.1822756550504944 1:1 3:1 6:1 9:0.7007874 11:0 20:1 21:1 46:1 47:1 60:1 112:1 139:1 342:1 624:1 784:1 1628:1 11940:1 12033:1 13952:1 20385:1 20388:1 20537:1 20544:1 24937:1 
0.9880122150323795 0:1 1:1 3:1 9:0.024847681 11:0.024847681 46:1 47:1 50:1 201:1 236:1 20301:1 32603:1 32604:1 
0.07411132382938432 9:0 11:0 99:1 116:1 120:1 162:1 207:1 208:1 209:1 210:1 211:1 574:1 997:1 1161:1 4183:1 17965:1 18874:1 26014:1 26021:1 
0.002899458835042529 1:1 9:0.5 11:0.17142857 47:1 122:1 153:1 209:1 218:1 219:1 222:1 574:1 577:1 1161:1 1535:1 4183:1 4184:1 26018:1 
0.2432753457523792 1:1 9:0 11:0 46:1 47:1 104:1 127:1 129:1 338:1 339:1 1223:1 1225:1 3207:1 3208:1 18874:1 26230:1 26904:1 32653:1 
0.9897815761713135 0:1 9:0.21428571 10:1 11:0.12403101 18:1 146:1 185:1 1044:1 1150:1 1151:1 1331:1 
0.4530153094366242 9:0 11:0 50:1 81:1 93:1 99:1 104:1 143:1 179:1 338:1 444:1 455:1 580:1 624:1 948:1 1294:1 2606:1 2607:1 2638:1 4037:1 8918:1 9952:1 17104:1 18420:1 32667:1 32671:1 
1 0:1 1:1 9:0.011627907 11:0.5 14:1 15:1 18:1 25:1 81:1 82:1 127:1 455:1 475:1 479:1 8935:1 
0.7995445247340134 0:1 9:0 10:1 11:0.12403101 46:1 179:1 181:1 185:1 333:1 565:1 1112:1 1148:1 1150:1 1151:1 
1 0:1 1:1 9:0.076335878 11:0.40983607 46:1 47:1 104:1 127:1 129:1 338:1 339:1 823:1 885:1 1112:1 1136:1 1266:1 1349:1 
0.4072612263009702 0:1 1:1 9:0.022172949 11:0 46:1 47:1 60:1 101:1 104:1 127:1 129:1 139:1 167:1 278:1 455:1 2386:1 29767:1 29769:1 29770:1 30678:1 
0.04560177119847392 9:0 11:0 50:1 80:1 104:1 209:1 288:1 302:1 308:1 338:1 563:1 580:1 587:1 793:1 936:1 1168:1 1535:1 4183:1 4946:1 5725:1 5736:1 5737:1 5738:1 7486:1 14535:1 17959:1 25171:1 32757:1 32763:1 
0.1065471260324495 1:1 9:0 11:0 99:1 104:1 129:1 153:1 189:1 206:1 338:1 339:1 1161:1 1793:1 6469:1 17037:1 18463:1 20385:1 20388:1 24533:1 24937:1 32805:1 32810:1 32811:1 32812:1 32813:1 32814:1 
0.09448987211199419 1:1 3:1 6:1 9:0.57142857 11:0 20:1 21:1 46:1 47:1 93:1 94:1 112:1 209:1 226:1 338:1 627:1 630:1 1628:1 6388:1 8710:1 9589:1 17352:1 19943:1 19993:1 32845:1 
1 1:1 3:1 6:1 9:0.024860941 11:0.79761905 20:1 21:1 46:1 47:1 112:1 551:1 734:1 735:1 1335:1 32864:1 
0.4453640515894344 1:1 9:0.071428571 11:0 46:1 47:1 127:1 129:1 338:1 339:1 746:1 748:1 1685:1 1751:1 2017:1 2820:1 2829:1 
1 6:1 9:0.432 10:1 11:0.31212121 20:1 21:1 27:1 35:1 146:1 236:1 1331:1 
0.09337938144150496 6:1 9:0.024883593 10:1 11:0 35:1 382:1 444:1 1658:1 1659:1 10528:1 33217:1 
0.336624469638174 0:1 1:1 9:0.011661808 11:0.024883593 14:1 15:1 18:1 99:1 101:1 104:1 127:1 129:1 338:1 339:1 455:1 1658:1 8657:1 10523:1 31929:1 33214:1 33223:1 
1 0:1 1:1 9:0.01986755 11:0.51006711 46:1 47:1 60:1 101:1 127:1 129:1 139:1 167:1 455:1 475:1 479:1 
0.01857378752345243 0:1 1:1 9:0.024883593 11:0.024883593 50:1 104:1 153:1 332:1 333:1 444:1 848:1 851:1 17070:1 18664:1 19757:1 33252:1 33253:1 33254:1 
1 1:1 3:1 6:1 9:0.81222707 10:1 11:0.8091922 46:1 47:1 201:1 236:1 508:1 509:1 750:1 17406:1 
0.2482020496409209 9:0.024883593 10:1 11:0 179:1 181:1 185:1 444:1 613:1 948:1 950:1 952:1 953:1 33217:1 33320:1 
0.09880534750925703 0:1 9:0 10:1 11:0 14:1 42:1 499:1 8857:1 8858:1 11704:1 14051:1 
0.1576490714737813 1:1 9:0.024883593 11:0.024883593 127:1 129:1 162:1 206:1 278:1 279:1 583:1 929:1 933:1 4910:1 7515:1 33517:1 33527:1 
0.0114133116213021 9:0 10:1 11:0 50:1 51:1 54:1 55:1 1388:1 33577:1 33578:1 33579:1 
0.002008072649343343 0:1 1:1 9:0.024862764 11:0 104:1 143:1 153:1 189:1 206:1 213:1 839:1 2873:1 7987:1 21478:1 21479:1 21480:1 28653:1 28656:1 
0.08087132620680575 1:1 3:1 9:0.42857143 11:0.024862764 46:1 47:1 50:1 154:1 157:1 2873:1 2874:1 7987:1 9932:1 21483:1 28653:1 28656:1 28664:1 
0.2189835320190359 0:1 9:0.024862764 10:1 11:0 50:1 51:1 54:1 55:1 24804:1 28656:1 28657:1 
0.2545777184880082 9:0.024862764 10:1 11:0 42:1 54:1 323:1 499:1 804:1 9790:1 9791:1 9803:1 
1 6:1 9:0.23333333 10:1 11:0.31306991 20:1 21:1 35:1 54:1 381:1 1058:1 10493:1 
0.01230997133830934 1:1 9:0.084878745 11:0 20:1 46:1 47:1 60:1 127:1 129:1 139:1 338:1 339:1 551:1 4429:1 9790:1 10504:1 17352:1 28801:1 
0.3752592865299766 0:1 9:0 10:1 11:0 50:1 51:1 54:1 55:1 2654:1 2655:1 33735:1 
0.192824906630514 0:1 6:1 9:0.024862764 10:1 11:0.024862764 14:1 241:1 3100:1 
0.2068326250565563 0:1 1:1 9:0.0088495575 11:0 46:1 47:1 104:1 127:1 129:1 338:1 339:1 370:1 398:1 401:1 455:1 486:1 488:1 1161:1 1271:1 1323:1 1707:1 2050:1 2246:1 15682:1 15683:1 27459:1 33599:1 33799:1 
0.2224119213342814 0:1 1:1 9:0.060606061 11:0 46:1 47:1 60:1 101:1 104:1 139:1 153:1 156:1 209:1 288:1 455:1 701:1 1852:1 2533:1 2534:1 5706:1 6027:1 6028:1 6516:1 13372:1 28656:1 32079:1 32090:1 33599:1 33812:1 
0.04433533365181999 0:1 9:0 11:0 101:1 104:1 116:1 118:1 120:1 122:1 140:1 144:1 148:1 189:1 209:1 288:1 455:1 706:1 1883:1 1886:1 5706:1 6516:1 28656:1 32079:1 32090:1 33812:1 
1 1:1 9:0 11:0.51006711 46:1 47:1 101:1 127:1 129:1 154:1 157:1 167:1 455:1 475:1 479:1 709:1 
1 0:1 9:0.024862764 10:1 11:0.054545455 50:1 55:1 213:1 444:1 4624:1 4625:1 
0.1167702359154378 1:1 9:0.13333333 11:0 102:1 104:1 127:1 129:1 189:1 206:1 241:1 288:1 338:1 339:1 342:1 551:1 574:1 2081:1 2082:1 5788:1 5823:1 12113:1 22950:1 22960:1 25757:1 28656:1 33901:1 33904:1 
0.9640074180067875 1:1 9:0.16666667 11:0.05 69:1 75:1 129:1 153:1 206:1 338:1 339:1 551:1 574:1 577:1 1335:1 20909:1 20913:1 
0.1783022020793152 9:0.024862764 10:1 11:0 50:1 80:1 302:1 308:1 563:1 580:1 587:1 7499:1 14315:1 14316:1 14327:1 
0.116462722434371 1:1 9:0.024862764 11:0.024862764 27:1 50:1 80:1 104:1 127:1 206:1 1561:1 1562:1 2554:1 3322:1 3546:1 11953:1 14423:1 14431:1 19453:1 
1 0:1 9:0.024916314 10:1 11:0.25 42:1 45:1 46:1 47:1 130:1 4910:1 4911:1 
0.8034145903981396 9:0.024916314 10:1 11:0.7284264 25:1 29:1 44:1 54:1 3988:1 3989:1 8730:1 11804:1 
0.7039515040347539 0:1 9:0.024916314 10:1 11:0 179:1 181:1 185:1 382:1 444:1 948:1 1914:1 1915:1 1929:1 12571:1 
0.3594018957564498 0:1 1:1 9:0.024916314 11:0.024916314 46:1 47:1 153:1 154:1 157:1 839:1 1914:1 4326:1 4959:1 12599:1 12600:1 
0.02339166319110635 0:1 1:1 9:0.024916314 10:1 11:0 25:1 46:1 47:1 78:1 387:1 410:1 1435:1 34062:1 34063:1 
0.1781943896611951 0:1 8:1 9:0.024916314 10:1 11:0.024916314 50:1 80:1 173:1 580:1 587:1 1065:1 11482:1 
0.06711122160752565 0:1 9:0.024916314 10:1 11:0.024916314 42:1 54:1 333:1 499:1 21346:1 34229:1 
1 0:1 9:0.25 10:1 11:0.80892608 42:1 139:1 444:1 499:1 508:1 509:1 
1 0:1 1:1 9:0.25 11:0.024916314 42:1 46:1 47:1 60:1 139:1 153:1 508:1 509:1 
0.1660399997300872 0:1 9:0.024916314 10:1 11:0.024916314 50:1 55:1 444:1 2203:1 4642:1 34452:1 
0.3167970973330316 1:1 9:0.035714286 11:0.5 102:1 104:1 127:1 129:1 189:1 206:1 209:1 338:1 339:1 360:1 508:1 706:1 6987:1 9567:1 12335:1 26376:1 26384:1 34695:1 34701:1 34702:1 
0.1267989994554529 1:1 9:0.035714286 11:0.5 127:1 129:1 189:1 206:1 338:1 339:1 706:1 26376:1 26384:1 34695:1 34701:1 34702:1 
0.008035751093686557 9:0.024861536 10:1 11:0 42:1 444:1 499:1 658:1 18692:1 18693:1 23078:1 34809:1 
0.09423467995567067 0:1 9:0.20689655 10:1 11:0.1221374 18:1 75:1 179:1 181:1 182:1 185:1 1148:1 1150:1 1151:1 19242:1 
0.3016169240179881 9:0.5 10:1 11:0 75:1 179:1 181:1 185:1 356:1 8797:1 8798:1 8799:1 9593:1 10034:1 10047:1 
0.05254276956043525 0:1 6:1 9:0.024862855 10:1 11:0 14:1 18:1 35:1 35109:1 35110:1 35111:1 
0.8607733110755326 0:1 1:1 9:0.024862855 11:0.51923077 25:1 93:1 101:1 153:1 189:1 206:1 288:1 338:1 455:1 551:1 552:1 574:1 577:1 578:1 807:1 823:1 2189:1 2887:1 3521:1 18580:1 
1 1:1 9:0.024862855 11:0.51923077 25:1 153:1 189:1 206:1 551:1 552:1 574:1 577:1 578:1 2189:1 2887:1 3521:1 
1 1:1 9:0.048387097 11:0.54347826 18:1 25:1 153:1 332:1 444:1 550:1 574:1 577:1 578:1 807:1 808:1 2085:1 
0.4280383649624645 0:1 1:1 6:1 9:0.024862855 11:0.024862855 46:1 47:1 127:1 201:1 236:1 455:1 479:1 12811:1 12812:1 35122:1 35123:1 
1 1:1 9:0.0625 11:0.45454545 46:1 47:1 129:1 153:1 338:1 339:1 574:1 577:1 578:1 6950:1 6951:1 16206:1 
0.4466287201578212 9:0.28571429 10:1 11:0.8091922 42:1 46:1 47:1 381:1 508:1 509:1 7969:1 7971:1 
0.1008737023881386 9:0.024862855 11:0 104:1 116:1 118:1 122:1 147:1 444:1 730:1 731:1 732:1 1161:1 1190:1 4415:1 4417:1 4434:1 16744:1 17112:1 22690:1 
1 9:0.85714286 10:1 11:0.73684211 50:1 54:1 55:1 381:1 382:1 4449:1 4450:1 27835:1 
0.07107728950257475 9:0.024862855 10:1 11:0 50:1 55:1 333:1 444:1 1519:1 1520:1 35411:1 35412:1 
0.7212151127592125 1:1 9:0.024862855 10:1 11:0.56338028 153:1 162:1 206:1 574:1 577:1 839:1 3340:1 4324:1 35437:1 35438:1 
0.1465598721997068 0:1 9:0.024862855 11:0.11111111 99:1 101:1 104:1 116:1 118:1 120:1 122:1 140:1 267:1 730:1 731:1 732:1 3988:1 11000:1 19101:1 20483:1 24960:1 25904:1 
0.5994353336272527 0:1 7:1 8:1 9:0.70588235 11:0.024850205 93:1 104:1 116:1 118:1 185:1 288:1 551:1 574:1 624:1 625:1 626:1 654:1 690:1 691:1 828:1 2533:1 4279:1 13202:1 13908:1 19027:1 21665:1 26460:1 35500:1 35505:1 
1 1:1 9:0.22222222 11:0.51923077 25:1 46:1 47:1 153:1 551:1 552:1 574:1 577:1 578:1 614:1 632:1 697:1 
0.05445505573531991 0:1 1:1 9:0.024850205 11:0.084942085 75:1 101:1 104:1 127:1 129:1 206:1 209:1 288:1 338:1 339:1 394:1 455:1 475:1 486:1 820:1 887:1 2068:1 3507:1 4565:1 5109:1 10589:1 12316:1 12747:1 12759:1 13416:1 22416:1 
0.519108149894127 1:1 9:0.016666667 11:0.5 46:1 47:1 104:1 127:1 129:1 201:1 236:1 338:1 339:1 3507:1 8823:1 35556:1 35574:1 35575:1 
1 1:1 7:1 8:1 9:0.0074626866 11:0.55555556 75:1 76:1 127:1 129:1 338:1 339:1 455:1 475:1 479:1 2146:1 
0.113725775895471 1:1 9:0.076530612 11:0.024850205 46:1 47:1 104:1 127:1 129:1 338:1 339:1 1112:1 1136:1 7333:1 7361:1 7987:1 13908:1 14056:1 14850:1 23420:1 23437:1 35590:1 
1 9:0.83333333 10:1 11:0.76666667 179:1 181:1 182:1 185:1 245:1 690:1 691:1 723:1 1419:1 2171:1 33928:1 
1 1:1 9:0.024850205 11:0.51006711 101:1 127:1 129:1 162:1 167:1 206:1 428:1 455:1 475:1 479:1 9000:1 11713:1 
0.07115926168586395 6:1 9:0.024850205 10:1 11:0 14:1 35:1 241:1 13191:1 28582:1 35720:1 35721:1 
0.3085673669063451 1:1 9:0.071428571 11:0.51923077 25:1 75:1 76:1 153:1 228:1 551:1 552:1 574:1 577:1 578:1 5415:1 7492:1 
0.03164588791616675 9:0.024850205 10:1 11:0 50:1 54:1 55:1 381:1 1228:1 5787:1 35784:1 35785:1 
1 1:1 9:0.04526749 11:0.39344262 46:1 47:1 127:1 129:1 338:1 339:1 823:1 885:1 1266:1 1970:1 1972:1 27105:1 
0.05958322957975429 6:1 9:0.14285714 10:1 11:0.80839161 162:1 206:1 508:1 509:1 1434:1 12934:1 13268:1 
0.003728921041114238 1:1 9:0.024850323 11:0.024850323 47:1 50:1 153:1 218:1 219:1 222:1 2965:1 4624:1 4625:1 13018:1 13019:1 13116:1 
0.07882634002213756 9:0 10:1 11:0 50:1 55:1 69:1 381:1 444:1 16143:1 33284:1 33285:1 
0.1085539288441619 9:0.024850323 10:1 11:0 42:1 444:1 499:1 4434:1 5288:1 5289:1 6484:1 28582:1 
0.06805362468883633 1:1 8:1 9:0 11:0 46:1 47:1 101:1 104:1 127:1 129:1 167:1 231:1 338:1 370:1 401:1 690:1 1161:1 1941:1 4770:1 4782:1 4783:1 5288:1 6490:1 11672:1 12313:1 13068:1 13522:1 35983:1 
0.1665725697116063 9:0 11:0 50:1 80:1 209:1 302:1 308:1 455:1 563:1 580:1 587:1 1271:1 1508:1 1519:1 1535:1 6407:1 8685:1 8686:1 8696:1 10510:1 
0.1804972055660612 9:0 10:1 11:0 50:1 55:1 381:1 444:1 4415:1 6269:1 10383:1 10384:1 
0.02469132401359697 1:1 9:0.024850323 11:0.42857143 42:1 101:1 127:1 189:1 206:1 209:1 823:1 824:1 834:1 885:1 1510:1 1535:1 1834:1 5599:1 6857:1 12669:1 25383:1 36054:1 36055:1 36056:1 
0.08287239725275512 1:1 9:0 11:0 76:1 104:1 129:1 245:1 338:1 339:1 346:1 770:1 773:1 2085:1 3793:1 4559:1 6431:1 8793:1 8991:1 13831:1 27289:1 27290:1 27319:1 
0.1698572485096818 1:1 9:0.25581395 11:0.51592357 25:1 46:1 47:1 60:1 100:1 101:1 105:1 139:1 153:1 209:1 231:1 551:1 552:1 574:1 577:1 578:1 6028:1 12884:1 36108:1 36116:1 
1 1:1 3:1 6:1 9:0 10:1 11:0.80952381 75:1 206:1 508:1 509:1 750:1 2388:1 8035:1 8036:1 
0.01066437688784458 9:0.024894068 10:1 11:0 50:1 55:1 365:1 444:1 3372:1 22077:1 22078:1 36166:1 
0.0401672606220609 9:0.024894068 10:1 11:0 42:1 365:1 444:1 499:1 16367:1 34132:1 34133:1 36166:1 
0.1960471706803088 9:0 10:1 11:0 50:1 51:1 54:1 55:1 1228:1 7472:1 7473:1 28888:1 
0.1180844012564519 9:0 10:1 11:0 50:1 55:1 130:1 444:1 19565:1 19566:1 36166:1 36269:1 
0.008173786067667671 1:1 9:0 11:0.024894068 46:1 47:1 50:1 153:1 370:1 401:1 2697:1 4287:1 4288:1 36277:1 36282:1 36294:1 36295:1 
0.1844491298435285 0:1 9:0.024863106 10:1 11:0 42:1 54:1 499:1 1019:1 7077:1 17158:1 17159:1 
0.08792193490444779 0:1 9:0.024863106 10:1 11:0 18:1 50:1 55:1 444:1 36276:1 36277:1 36278:1 
0.007819861525559916 9:0.024863106 10:1 11:0 42:1 444:1 499:1 2746:1 27249:1 27250:1 36166:1 36535:1 
0.3098902308779806 9:1 10:1 11:0 75:1 179:1 260:1 262:1 356:1 919:1 1260:1 2385:1 2386:1 2387:1 20499:1 
0.2261870917196745 1:1 9:0 10:1 11:0.04 45:1 46:1 47:1 129:1 130:1 278:1 279:1 600:1 601:1 28778:1 
0.01943516626842366 0:1 1:1 9:0.085121602 11:0.0248846 46:1 47:1 60:1 99:1 104:1 127:1 129:1 139:1 338:1 339:1 551:1 574:1 4624:1 20681:1 20685:1 29404:1 36207:1 36208:1 
0.1089136651862267 1:1 9:0.026666667 11:0 46:1 47:1 60:1 127:1 129:1 139:1 278:1 279:1 631:1 6474:1 6479:1 13397:1 13439:1 
0.2347633795685019 0:1 1:1 9:0.0248846 11:0.18461538 75:1 99:1 102:1 104:1 129:1 153:1 206:1 234:1 338:1 339:1 1161:1 2041:1 2606:1 3438:1 3988:1 4006:1 5761:1 19329:1 23273:1 23274:1 36777:1 
0.5719985145630487 9:0.0248846 10:1 11:0.25 50:1 55:1 444:1 2528:1 2529:1 4484:1 20819:1 21623:1 
0.0376314398767224 1:1 9:0.076335878 11:0 46:1 47:1 104:1 127:1 129:1 338:1 339:1 1112:1 1136:1 2052:1 2079:1 12237:1 18522:1 20378:1 21737:1 27705:1 
1 9:0.54545455 10:1 11:0.59259259 50:1 54:1 55:1 381:1 11672:1 11673:1 11890:1 32692:1 
0.6146063353892274 1:1 9:0.018629808 11:0.18181818 46:1 47:1 129:1 153:1 154:1 157:1 338:1 339:1 773:1 1144:1 1636:1 16164:1 36942:1 
0.03656552720435198 1:1 9:0 11:0.081081081 75:1 76:1 129:1 153:1 338:1 339:1 574:1 577:1 807:1 820:1 887:1 3042:1 8710:1 12153:1 
1 1:1 9:0 11:0.53030303 46:1 47:1 127:1 129:1 154:1 157:1 278:1 279:1 455:1 475:1 479:1 799:1 
0.08996610497856358 0:1 6:1 9:0.024762677 10:1 11:0 14:1 35:1 1228:1 4051:1 9725:1 9726:1 
1 9:0.78571429 10:1 11:0.85950413 50:1 54:1 55:1 247:1 381:1 2873:1 2874:1 18396:1 
0.1049126098445639 0:1 9:0.024762677 10:1 11:0.024762677 50:1 55:1 444:1 2446:1 
0.01302250573795889 9:0.024762677 10:1 11:0 50:1 55:1 444:1 1136:1 1940:1 3938:1 9491:1 9492:1 
0.01304375774756878 1:1 9:0.024762677 11:0.024762677 46:1 47:1 50:1 153:1 1112:1 1136:1 1953:1 1954:1 3938:1 9491:1 9510:1 30190:1 30191:1 
0.02123805374522071 9:0.0625 10:1 11:0.011293634 25:1 54:1 390:1 410:1 551:1 552:1 797:1 3922:1 
0.2578536738723866 1:1 9:0 11:0.51034483 101:1 127:1 129:1 167:1 455:1 475:1 479:1 795:1 1931:1 2345:1 2346:1 37035:1 
1 0:1 1:1 9:0.024762677 10:1 11:0.024762677 25:1 45:1 46:1 47:1 78:1 130:1 14443:1 
0.6797478872111739 0:1 1:1 9:0.024762677 10:1 11:0.024762677 25:1 46:1 47:1 78:1 805:1 809:1 12065:1 
1 7:1 8:1 9:0.024762677 10:1 11:0.59259259 50:1 54:1 55:1 11672:1 11673:1 29805:1 
0.06472746632058875 1:1 9:0 10:1 11:0.0045180723 42:1 46:1 47:1 127:1 455:1 456:1 475:1 8517:1 8520:1 24674:1 
0.3348000385665068 9:0.024874224 11:1 99:1 116:1 118:1 122:1 147:1 338:1 444:1 455:1 479:1 846:1 1058:1 8526:1 8529:1 8530:1 8807:1 24592:1 25307:1 33262:1 37106:1 
0.07663042846282234 6:1 9:0 10:1 11:0 35:1 51:1 54:1 4708:1 11660:1 17326:1 17327:1 
0.01185119321493307 0:1 9:0.024874224 10:1 11:0.024874224 50:1 55:1 63:1 444:1 1228:1 19413:1 
1 1:1 9:0.079522863 11:0.038461538 45:1 46:1 47:1 129:1 130:1 153:1 338:1 339:1 574:1 577:1 807:1 858:1 4072:1 
0.04891286313559837 0:1 9:0.024828425 11:0.024828425 116:1 118:1 122:1 146:1 147:1 1327:1 6708:1 8526:1 8529:1 8530:1 11464:1 
0.04500039542676362 9:0 10:1 11:0 50:1 54:1 55:1 241:1 7164:1 7165:1 13142:1 24968:1 
0.01554424093609274 0:1 9:0.024828425 11:0.024828425 116:1 118:1 122:1 146:1 147:1 1327:1 6708:1 8526:1 8529:1 8530:1 11464:1 
0.3736380020534865 0:1 9:0 10:1 11:0 18:1 146:1 185:1 948:1 4183:1 4184:1 6711:1 
1 1:1 8:1 9:0.079522863 11:0.038461538 45:1 46:1 47:1 129:1 130:1 153:1 338:1 339:1 574:1 577:1 807:1 858:1 
0.02177482941532688 0:1 9:0.024828425 11:0.024828425 116:1 118:1 122:1 146:1 147:1 1327:1 6708:1 8526:1 8529:1 8530:1 11464:1 
0.2269665984733539 0:1 9:0.024828425 11:0.024828425 116:1 118:1 122:1 146:1 147:1 1327:1 6708:1 8526:1 8529:1 8530:1 11464:1 
0.07637506471346141 1:1 9:0 11:0 46:1 47:1 60:1 104:1 139:1 143:1 153:1 839:1 7654:1 8880:1 13699:1 13700:1 37449:1 37485:1 37490:1 
0.0954083927048152 1:1 9:0.0051020408 11:0.51020408 18:1 101:1 127:1 129:1 167:1 455:1 475:1 479:1 1931:1 2345:1 2346:1 6711:1 
1 1:1 9:0.35714286 10:1 11:0.7284264 25:1 46:1 47:1 78:1 154:1 157:1 3988:1 3989:1 4362:1 37366:1 
0.08699903349433455 1:1 9:0.024828425 11:0.024828425 18:1 50:1 75:1 76:1 99:1 104:1 127:1 338:1 3988:1 6653:1 8645:1 8801:1 9859:1 9860:1 37454:1 37469:1 37470:1 37504:1 
1 1:1 9:0.081603436 11:0.16129032 46:1 47:1 60:1 127:1 129:1 139:1 338:1 339:1 6653:1 6678:1 8801:1 8822:1 37472:1 
0.9614772417213387 1:1 9:0.15384615 11:1 15:1 54:1 129:1 278:1 279:1 342:1 345:1 346:1 3860:1 8801:1 27105:1 27208:1 37561:1 
0.2596056437117242 7:1 8:1 9:0 11:0 20:1 75:1 97:1 116:1 117:1 118:1 121:1 122:1 338:1 408:1 551:1 574:1 807:1 828:1 13041:1 23215:1 
1 1:1 8:1 9:0.079522863 11:0.038461538 45:1 46:1 47:1 129:1 130:1 153:1 338:1 339:1 574:1 577:1 807:1 858:1 
0.5239356225511437 1:1 8:1 9:0.3125 11:1 46:1 47:1 50:1 60:1 127:1 139:1 360:1 535:1 1519:1 1520:1 24104:1 24120:1 
1 8:1 9:0.75 10:1 11:0.77238806 176:1 179:1 181:1 182:1 185:1 267:1 690:1 691:1 723:1 8350:1 
1 0:1 1:1 9:0 10:1 11:0.57142857 42:1 46:1 47:1 127:1 154:1 157:1 13630:1 13631:1 13632:1 
0.09809201512047259 9:0 10:1 11:0.030567686 42:1 51:1 54:1 499:1 823:1 824:1 1294:1 7206:1 
0.5572444686860402 1:1 8:1 9:0.071979434 11:0.024576477 46:1 47:1 127:1 129:1 338:1 339:1 1112:1 1136:1 37622:1 37632:1 37633:1 
1 0:1 1:1 9:0 11:1 20:1 42:1 46:1 47:1 127:1 154:1 157:1 231:1 551:1 725:1 13630:1 13631:1 13632:1 
0.9866041791794131 1:1 3:1 6:1 9:0.43089431 11:0.79761905 20:1 21:1 46:1 47:1 112:1 201:1 236:1 551:1 1335:1 13633:1 
0.1571546228793976 0:1 1:1 9:0.024576477 11:0 20:1 23:1 27:1 93:1 99:1 104:1 127:1 129:1 206:1 267:1 288:1 338:1 339:1 455:1 1834:1 3988:1 6428:1 6462:1 6463:1 6482:1 6490:1 
1 1:1 9:0.0051413882 11:0.054545455 54:1 127:1 129:1 332:1 333:1 338:1 339:1 455:1 475:1 1834:1 1876:1 6464:1 8710:1 
0.3051348158595864 0:1 1:1 3:1 9:0.024576477 11:0.024576477 50:1 80:1 206:1 342:1 455:1 753:1 756:1 1431:1 1834:1 3394:1 35489:1 35490:1 37647:1 37659:1 
0.4347193576731319 9:0 10:1 11:0 25:1 444:1 550:1 797:1 1673:1 5519:1 6240:1 6241:1 
0.06802662838066581 9:0 10:1 11:0.030567686 42:1 381:1 444:1 499:1 823:1 824:1 1228:1 20261:1 
0.01190004153391753 1:1 9:0.5 11:0 104:1 127:1 129:1 189:1 206:1 213:1 338:1 339:1 455:1 3967:1 3968:1 6428:1 6462:1 6463:1 
0.09078185331681822 0:1 1:1 9:0.013513514 11:0.054545455 46:1 47:1 129:1 153:1 228:1 338:1 339:1 445:1 455:1 1413:1 1834:1 1876:1 1950:1 2085:1 
1 0:1 1:1 9:0.013513514 11:0.054545455 46:1 47:1 129:1 153:1 228:1 338:1 339:1 455:1 1413:1 1834:1 1876:1 2085:1 
1 0:1 9:0 10:1 11:0.030567686 42:1 51:1 54:1 499:1 823:1 824:1 1419:1 
0.2940010848663474 0:1 1:1 9:0.024576477 11:0.33333333 20:1 23:1 93:1 102:1 127:1 129:1 206:1 267:1 288:1 338:1 339:1 394:1 455:1 1168:1 1193:1 1834:1 2318:1 3988:1 4562:1 7479:1 12249:1 12741:1 16298:1 20265:1 21340:1 25311:1 37616:1 37805:1 
1 0:1 9:0.024576477 10:1 11:0.77238806 51:1 185:1 196:1 688:1 689:1 690:1 691:1 
0.2190034199990439 0:1 9:0.024576477 11:0.024576477 51:1 162:1 179:1 181:1 185:1 196:1 690:1 691:1 11243:1 37809:1 37811:1 37828:1 
0.561473915034837 1:1 9:0.071979434 11:0.4 46:1 47:1 127:1 129:1 338:1 339:1 823:1 885:1 1112:1 1136:1 1266:1 16159:1 
0.589561681389478 0:1 1:1 9:0.024576477 11:0.024576477 127:1 129:1 189:1 206:1 455:1 475:1 479:1 617:1 1510:1 1512:1 13059:1 13063:1 
1 1:1 9:0.036842105 11:0.067460317 80:1 127:1 129:1 206:1 302:1 308:1 338:1 339:1 455:1 475:1 820:1 887:1 2299:1 
0.1892708780616478 0:1 1:1 9:0.016728625 11:0.33333333 23:1 46:1 47:1 93:1 101:1 104:1 127:1 129:1 201:1 209:1 236:1 338:1 339:1 455:1 574:1 820:1 846:1 1004:1 1168:1 1185:1 1193:1 2063:1 12639:1 12741:1 34695:1 37837:1 
1 0:1 1:1 9:0.016728625 11:0.33333333 46:1 47:1 127:1 129:1 201:1 236:1 338:1 339:1 1168:1 1193:1 12741:1 
1 1:1 9:0.014501511 11:0.067460317 46:1 47:1 127:1 129:1 154:1 157:1 338:1 339:1 455:1 475:1 820:1 887:1 1174:1 
0.9362343116756267 1:1 9:0.0087719298 11:0 18:1 76:1 127:1 129:1 189:1 338:1 339:1 12647:1 13059:1 34695:1 34701:1 34702:1 
1 0:1 9:0.024576477 10:1 11:0.7421875 14:1 25:1 29:1 594:1 3988:1 3989:1 
1 0:1 9:0.024576477 10:1 11:0.7421875 14:1 25:1 29:1 594:1 3988:1 3989:1 
0.6264643072117561 1:1 9:0.25 10:1 11:0.58333333 46:1 47:1 153:1 154:1 157:1 574:1 577:1 839:1 4324:1 34706:1 
1 1:1 9:0.0029069767 11:0.067460317 63:1 76:1 80:1 127:1 129:1 173:1 338:1 339:1 455:1 475:1 820:1 887:1 37874:1 
1 0:1 1:1 9:0 11:0.024576477 23:1 24:1 25:1 76:1 80:1 127:1 173:1 338:1 455:1 475:1 561:1 2085:1 
1 1:1 9:0.0051413882 11:0.067460317 76:1 80:1 127:1 129:1 173:1 333:1 338:1 339:1 455:1 475:1 820:1 887:1 8710:1 
1 1:1 9:0.014501511 11:0.054545455 46:1 47:1 127:1 129:1 154:1 157:1 338:1 339:1 455:1 475:1 1834:1 1876:1 6498:1 
0.04425431181858297 9:0 10:1 11:0.7421875 25:1 29:1 54:1 386:1 2056:1 2447:1 3988:1 3989:1 
1 9:0 11:0.5 18:1 25:1 33:1 80:1 173:1 179:1 181:1 182:1 574:1 578:1 1161:1 1162:1 1914:1 1929:1 
0.9840597508269775 1:1 9:0 11:0 127:1 129:1 189:1 206:1 338:1 339:1 706:1 1168:1 1193:1 2887:1 7753:1 37898:1 37917:1 
0.6997921252408486 1:1 9:0 10:1 11:0.011583012 46:1 47:1 102:1 129:1 581:1 601:1 1046:1 1435:1 4527:1 4534:1 
0.02615964741159956 9:0.024576477 10:1 11:0.12121212 185:1 189:1 1150:1 1151:1 1310:1 8892:1 12120:1 37829:1 
1 9:1 10:1 11:0.77238806 162:1 179:1 181:1 185:1 356:1 386:1 690:1 691:1 723:1 2447:1 4248:1 
1 0:1 1:1 9:0.084939329 11:0.55434783 46:1 47:1 60:1 127:1 129:1 139:1 338:1 339:1 455:1 475:1 479:1 
1 0:1 1:1 9:0.024576477 11:0.45454545 129:1 153:1 189:1 206:1 241:1 338:1 339:1 574:1 577:1 578:1 22130:1 
0.4069156230193087 0:1 1:1 9:0.015151515 11:0.024576477 46:1 47:1 104:1 127:1 129:1 338:1 339:1 799:1 805:1 809:1 3458:1 29514:1 
0.7476132407654654 0:1 1:1 9:0 11:0.55434783 23:1 75:1 104:1 127:1 129:1 206:1 338:1 339:1 455:1 475:1 479:1 773:1 4248:1 6982:1 17609:1 22526:1 
1 0:1 1:1 9:0 11:0.55434783 75:1 127:1 129:1 206:1 338:1 339:1 455:1 475:1 479:1 4248:1 6982:1 
0.04670824074868695 1:1 9:0.024576477 10:1 11:0.024576477 75:1 206:1 241:1 2114:1 2117:1 2146:1 6122:1 21820:1 21824:1 37998:1 
0.1739942065647168 9:0 10:1 11:0.7421875 25:1 29:1 54:1 386:1 2056:1 2447:1 3988:1 3989:1 
0.181889143704842 0:1 9:0.024576477 11:0.024576477 104:1 116:1 118:1 120:1 122:1 245:1 338:1 393:1 394:1 395:1 455:1 2085:1 3988:1 37072:1 38007:1 38011:1 
0.333511426855188 1:1 9:0.024576477 11:0.024576477 42:1 46:1 47:1 104:1 127:1 143:1 338:1 370:1 401:1 455:1 3988:1 38006:1 38007:1 38008:1 38009:1 
0.1331007624362402 0:1 1:1 9:0.024576477 10:1 11:0.024576477 25:1 78:1 206:1 245:1 2299:1 4678:1 4689:1 
0.0582427082420635 9:0 10:1 11:0 50:1 80:1 302:1 563:1 697:1 4981:1 12922:1 12923:1 
1 9:0 11:0.44444444 23:1 24:1 25:1 54:1 127:1 381:1 469:1 587:1 2376:1 4596:1 4609:1 4610:1 5581:1 
1 1:1 9:0.085653105 11:0.20454545 46:1 47:1 60:1 127:1 129:1 139:1 338:1 339:1 2052:1 2079:1 2080:1 27105:1 
0.6845864202284826 0:1 9:0.024872854 10:1 11:0.024872854 50:1 51:1 54:1 55:1 6289:1 9003:1 
0.3315497466324376 0:1 9:0.024872854 10:1 11:0 42:1 382:1 444:1 499:1 4254:1 4255:1 13647:1 
1 1:1 3:1 6:1 9:0.4 10:1 11:0.81497175 189:1 206:1 508:1 509:1 750:1 12803:1 13513:1 38150:1 
0.3415030866040377 1:1 9:0.024872854 11:0.25 76:1 127:1 129:1 189:1 278:1 279:1 823:1 885:1 1035:1 1266:1 13382:1 27318:1 
0.08015700411576052 1:1 9:0 11:0.13333333 104:1 127:1 129:1 206:1 245:1 338:1 339:1 2142:1 4485:1 7742:1 7755:1 10349:1 32988:1 38277:1 38279:1 
1 1:1 8:1 9:0.25581395 11:0.51592357 25:1 46:1 47:1 60:1 139:1 153:1 551:1 552:1 574:1 577:1 578:1 
1 0:1 1:1 9:0.024872854 11:0 27:1 127:1 129:1 206:1 267:1 338:1 339:1 360:1 388:1 508:1 779:1 
0.2626618406534404 9:0.5 10:1 11:0.35897436 50:1 55:1 139:1 172:1 444:1 550:1 7119:1 7120:1 
0.8099352843222796 9:0.024872854 10:1 11:0.73684211 185:1 267:1 356:1 1158:1 2527:1 3496:1 4449:1 4450:1 
1 1:1 9:0.5 11:1 46:1 47:1 50:1 60:1 139:1 153:1 172:1 231:1 338:1 574:1 577:1 578:1 7119:1 7120:1 9804:1 38366:1 
0.09733360701955693 9:0 10:1 11:0 50:1 51:1 54:1 55:1 1025:1 15379:1 15380:1 27327:1 
1 1:1 9:0.024809273 11:0.54310345 25:1 46:1 47:1 153:1 574:1 577:1 578:1 800:1 807:1 808:1 7112:1 20641:1 
0.5849918294274611 1:1 9:0.072727273 11:0.19047619 46:1 47:1 127:1 129:1 338:1 339:1 746:1 748:1 3988:1 4006:1 6252:1 19311:1 19333:1 
0.05451504424918319 1:1 9:0.085653105 11:0.19047619 46:1 47:1 60:1 99:1 102:1 104:1 129:1 139:1 153:1 288:1 338:1 339:1 1161:1 2041:1 3438:1 3988:1 4006:1 5749:1 19329:1 23273:1 23274:1 23669:1 31705:1 36777:1 
1 1:1 3:1 6:1 8:1 9:0.5 10:1 11:0.31097561 20:1 21:1 46:1 47:1 63:1 112:1 1042:1 
0.0467836117548545 0:1 1:1 9:0.024809273 11:0 75:1 104:1 143:1 153:1 206:1 839:1 1700:1 1718:1 1719:1 4122:1 4123:1 6677:1 19215:1 38424:1 
0.002636219915690119 1:1 8:1 9:0.029411765 11:0.10526316 20:1 46:1 47:1 60:1 105:1 127:1 139:1 155:1 156:1 820:1 887:1 3988:1 4426:1 12611:1 12627:1 
0.8384414827259685 0:1 9:0.024809273 10:1 11:0.024809273 50:1 51:1 54:1 55:1 382:1 38470:1 
0.9729548157703062 1:1 7:1 8:1 9:0.25 11:0.90909091 76:1 104:1 143:1 153:1 162:1 574:1 577:1 839:1 4324:1 17044:1 32316:1 38481:1 
0.4493487409113772 1:1 7:1 8:1 9:0.034722222 11:0.25 76:1 80:1 99:1 101:1 104:1 127:1 129:1 167:1 338:1 551:1 753:1 807:1 3438:1 5802:1 8728:1 8736:1 8737:1 
0.03384948983875353 0:1 1:1 9:0.086145011 11:0 46:1 47:1 60:1 104:1 127:1 129:1 139:1 338:1 339:1 402:1 3022:1 19462:1 25086:1 25091:1 38633:1 38648:1 
0.06283396462533548 0:1 1:1 9:0.0625 11:0.024861336 46:1 47:1 60:1 104:1 127:1 139:1 156:1 2533:1 2534:1 18201:1 18202:1 18222:1 24941:1 
1 9:0.024861336 10:1 11:0.77037037 179:1 181:1 182:1 185:1 189:1 386:1 690:1 691:1 723:1 8614:1 26829:1 
0.1248577421847984 0:1 1:1 9:0.076726343 11:0.26470588 46:1 47:1 99:1 104:1 129:1 153:1 338:1 339:1 1112:1 1136:1 5011:1 6653:1 6678:1 
1 1:1 9:0.5 10:1 11:0.57534247 27:1 46:1 47:1 153:1 574:1 577:1 614:1 632:1 839:1 4324:1 
1 9:0.83333333 10:1 11:0.77037037 75:1 179:1 181:1 182:1 185:1 690:1 691:1 723:1 1228:1 2171:1 7507:1 
0.1114845254250477 0:1 1:1 9:0 11:0 80:1 101:1 102:1 104:1 107:1 118:1 122:1 143:1 173:1 206:1 357:1 426:1 561:1 574:1 581:1 834:1 1046:1 1793:1 2393:1 2437:1 7301:1 7760:1 18463:1 21321:1 26353:1 35357:1 35875:1 38981:1 
0.1578920343408692 0:1 1:1 9:0.024861336 11:0.28571429 153:1 185:1 206:1 267:1 357:1 358:1 574:1 577:1 578:1 38972:1 38974:1 
1 7:1 8:1 9:0 10:1 11:0.1221374 80:1 173:1 179:1 181:1 182:1 185:1 1148:1 1150:1 1151:1 
0.444675380375715 1:1 9:0.33333333 11:0.058823529 46:1 47:1 60:1 127:1 139:1 185:1 574:1 1406:1 1407:1 4562:1 5567:1 6663:1 27061:1 27385:1 
0.2522138270036138 0:1 1:1 9:0.28767123 11:0.35384615 46:1 47:1 92:1 127:1 129:1 168:1 338:1 339:1 1271:1 1282:1 7351:1 28673:1 28682:1 
1 1:1 8:1 9:0.044715447 11:0.39344262 46:1 47:1 127:1 129:1 338:1 339:1 823:1 885:1 1266:1 1970:1 1972:1 
0.6189771069617234 0:1 8:1 9:0.024733849 10:1 11:0.024733849 50:1 54:1 55:1 381:1 31579:1 
1 9:0.4 11:0.51006711 101:1 129:1 146:1 167:1 179:1 455:1 479:1 917:1 948:1 1260:1 1327:1 1331:1 1336:1 2198:1 
0.1861714154269873 1:1 7:1 8:1 9:0.022988506 10:1 11:0.011673152 76:1 102:1 129:1 189:1 581:1 601:1 1046:1 27327:1 
0.1033918064335838 0:1 9:0.024733849 10:1 11:0.024733849 50:1 54:1 55:1 196:1 381:1 37539:1 
1 1:1 9:0.012048193 11:0.23529412 46:1 47:1 127:1 129:1 338:1 339:1 805:1 809:1 6653:1 6678:1 8801:1 8822:1 27318:1 
1 1:1 9:0.0061728395 11:0.024733849 47:1 127:1 129:1 218:1 219:1 222:1 338:1 339:1 2085:1 8801:1 8822:1 39403:1 39407:1 
0.4892754981378996 1:1 7:1 8:1 9:0.0081688223 11:0.18461538 76:1 127:1 129:1 162:1 338:1 339:1 2363:1 2397:1 3988:1 4006:1 4657:1 
1 8:1 9:0.024733849 10:1 11:0.69230769 80:1 182:1 185:1 615:1 2203:1 5366:1 5367:1 
0.05197910952142144 0:1 9:0 10:1 11:0 50:1 55:1 401:1 444:1 2318:1 2319:1 2965:1 
0.02022558804355281 6:1 9:0.024865056 10:1 11:0 14:1 35:1 940:1 10332:1 10333:1 12421:1 19460:1 
0.5687870531973538 9:0.5 10:1 11:0.36842105 50:1 55:1 386:1 444:1 6381:1 7119:1 7120:1 21233:1 
0.03427234836381111 1:1 9:0.2 11:0.024865056 46:1 47:1 104:1 127:1 129:1 165:1 338:1 339:1 4015:1 4062:1 39527:1 39530:1 39534:1 39535:1 
0.0408205456313976 0:1 1:1 9:0.016949153 11:0.19047619 47:1 101:1 104:1 127:1 129:1 167:1 218:1 219:1 222:1 288:1 823:1 885:1 1266:1 2078:1 39548:1 
1 9:0.78571429 10:1 11:0.85833333 27:1 50:1 54:1 55:1 381:1 2873:1 2874:1 36488:1 
0.249155951829613 1:1 9:0 11:0 46:1 47:1 60:1 127:1 129:1 139:1 455:1 475:1 784:1 792:1 1431:1 10517:1 19311:1 23100:1 23532:1 28197:1 
0.9342709824598927 1:1 9:0.074550129 11:0.42105263 46:1 47:1 127:1 129:1 338:1 339:1 823:1 885:1 1112:1 1136:1 1266:1 36026:1 
1 1:1 9:0.024850588 11:0.95238095 75:1 127:1 206:1 278:1 455:1 475:1 728:1 919:1 1762:1 2386:1 2387:1 11786:1 11802:1 
1 9:0.024850588 10:1 11:0.7371134 25:1 46:1 47:1 60:1 735:1 1058:1 3988:1 3989:1 
0.5499112567946922 1:1 6:1 9:0.024850588 11:0.78571429 20:1 21:1 46:1 47:1 78:1 288:1 3988:1 4006:1 4263:1 4283:1 4362:1 36357:1 
0.02129679674006843 6:1 9:0.024850588 10:1 11:0 35:1 54:1 1669:1 2041:1 2042:1 17432:1 39746:1 
1 1:1 9:0.074550129 11:0.42105263 46:1 47:1 127:1 129:1 338:1 339:1 823:1 885:1 1112:1 1136:1 1266:1 20668:1 
1 6:1 9:0.024850588 10:1 11:0.9543379 46:1 47:1 201:1 504:1 505:1 27105:1 27208:1 
