svm_type c_svc
kernel_type linear
nr_class 6
total_sv 1342
rho -1.69029 -0.387632 -1.05024 -0.281606 -1.12418 1.47831 1.03972 0.645583 -0.929573 -0.145898 0.0808878 -1.76462 0.154786 -1.11557 -0.872473
label 4 5 3 1 0 2
nr_sv 541 87 253 242 158 61
SV
0 0.5853899053676326 0 0.09474745709265329 0 0:1 1:1 14:1 15:1 17:1 18:1 19:1 20:1 21:1 23:1 26:1 
0 0 0 0.1433783343978309 0 0:1 18:1 44:1 47:1 49:1 59:1 96:1 97:1 
0 0.02065039487237452 0 0 0 1:1 15:1 21:1 34:1 65:1 66:1 106:1 108:1 143:1 144:1 145:1 146:1 147:1 148:1 149:1 150:1 
0 0 0 0.05716352617641551 0 0:1 19:1 20:1 21:1 34:1 35:1 61:1 62:1 77:1 125:1 162:1 222:1 224:1 
0 0 0 0.05864464403398577 0 1:1 15:1 18:1 27:1 34:1 35:1 91:1 114:1 120:1 121:1 226:1 227:1 228:1 
0 1 0.5289123836484533 1 0 1:1 15:1 21:1 59:1 65:1 66:1 112:1 119:1 145:1 146:1 320:1 324:1 387:1 
0 0.1211557794218709 0 0 0 0:1 1:1 15:1 18:1 21:1 41:1 137:1 138:1 313:1 401:1 402:1 405:1 
0.3183037861978481 0 1 0.1228278137989365 0 1:1 15:1 21:1 27:1 34:1 59:1 65:1 66:1 202:1 206:1 465:1 466:1 467:1 468:1 
0.1758247028958001 0 0.1878813010279341 0 0 1:1 15:1 21:1 27:1 34:1 114:1 130:1 145:1 146:1 467:1 468:1 479:1 480:1 481:1 
0 0 0.809502918784641 0.3886493677381921 0 0:1 47:1 65:1 66:1 104:1 176:1 235:1 245:1 264:1 
0 0.3093679433503362 0 0.3681880083247545 0 47:1 57:1 58:1 62:1 114:1 550:1 551:1 552:1 
0 0.0787186362651989 0 0.0612673304513732 0 0:1 47:1 57:1 61:1 125:1 162:1 183:1 550:1 551:1 553:1 555:1 556:1 
0.02200350360592411 0.7581205349601084 0 0.1237356915519154 0.1240243298795888 0:1 10:1 41:1 59:1 62:1 81:1 125:1 162:1 254:1 255:1 524:1 561:1 562:1 
0.02015122318618078 0 0 0.1022112968896286 0 0:1 1:1 6:1 80:1 84:1 103:1 104:1 179:1 233:1 234:1 570:1 572:1 
0.007772660084688189 0 0 0 0 0:1 1:1 6:1 80:1 84:1 103:1 104:1 179:1 233:1 234:1 295:1 572:1 577:1 
0 0.06058420753400106 0 0 0 0:1 1:1 15:1 18:1 21:1 41:1 137:1 138:1 313:1 401:1 405:1 592:1 593:1 
0.03704866583956155 0 0 0 0 1:1 15:1 44:1 47:1 65:1 66:1 128:1 131:1 132:1 144:1 147:1 598:1 
0.4310383902274578 0 0.09658588419993087 0.1197619771950288 0 0:1 1:1 47:1 57:1 65:1 66:1 125:1 315:1 550:1 551:1 553:1 595:1 
0.1264249924467031 0.09472708704819097 0.112665290552009 0.01552186543288215 0 19:1 34:1 57:1 71:1 110:1 114:1 162:1 183:1 203:1 208:1 222:1 224:1 622:1 623:1 624:1 625:1 626:1 
0 0 0 0.6449387114268819 0 0:1 1:1 3:1 9:1 18:1 27:1 34:1 108:1 114:1 145:1 228:1 390:1 582:1 627:1 628:1 629:1 
0 0 0 0.04662139223924926 0 0:1 41:1 44:1 47:1 130:1 131:1 132:1 579:1 638:1 
0 0 0 0.2759805775301771 0 0:1 1:1 3:1 9:1 17:1 18:1 80:1 116:1 374:1 654:1 
0.05667634221709044 0 0 0 0 1:1 3:1 9:1 12:1 13:1 114:1 130:1 480:1 564:1 598:1 686:1 687:1 688:1 
0 0.152818923224058 0.122056424091235 0.5576901810330198 0 0:1 1:1 15:1 18:1 19:1 21:1 114:1 145:1 146:1 209:1 564:1 647:1 689:1 690:1 691:1 692:1 693:1 694:1 697:1 
0 0.6691326266449508 0 0.05512415661460622 0 1:1 3:1 9:1 47:1 65:1 66:1 268:1 270:1 271:1 713:1 714:1 715:1 
0.01228969639285517 0 0 0 0 0:1 1:1 3:1 6:1 9:1 10:1 12:1 13:1 585:1 587:1 588:1 724:1 725:1 
0 0 0 0.1990457178512507 0.0280226808590901 0:1 1:1 15:1 18:1 21:1 108:1 145:1 146:1 182:1 725:1 729:1 732:1 733:1 734:1 735:1 736:1 737:1 738:1 
0 1 0 0 0 0:1 1:1 15:1 29:1 39:1 42:1 43:1 44:1 47:1 77:1 130:1 
0.3179862269717076 0.4407510226231492 0 0 0 1:1 15:1 44:1 47:1 65:1 66:1 202:1 206:1 761:1 762:1 763:1 764:1 
0 0.008434888777978636 0 0 0 41:1 42:1 57:1 62:1 77:1 125:1 162:1 561:1 562:1 765:1 766:1 767:1 
0 0 0 0.1604311907919058 0 1:1 15:1 18:1 27:1 34:1 35:1 41:1 768:1 772:1 773:1 774:1 775:1 776:1 
0 0 0.6689447207698375 0 0.1632568848154572 0:1 1:1 41:1 74:1 75:1 76:1 77:1 78:1 79:1 81:1 82:1 100:1 101:1 130:1 239:1 465:1 
0.00024613853531259 0 0 0 0 0:1 1:1 6:1 15:1 29:1 44:1 47:1 96:1 97:1 124:1 384:1 
0 0.4091659172649769 0 0 0 0:1 1:1 6:1 14:1 15:1 21:1 26:1 53:1 54:1 137:1 138:1 179:1 800:1 
0.06277634747937216 0.1442813031255044 0 0 0 1:1 15:1 39:1 42:1 43:1 44:1 47:1 114:1 130:1 379:1 421:1 811:1 
0 0.03929435234797526 0 0 0 0:1 1:1 6:1 15:1 29:1 39:1 42:1 43:1 44:1 47:1 817:1 
0 0.01793248713231648 0 0 0 1:1 6:1 15:1 29:1 39:1 42:1 43:1 44:1 47:1 818:1 819:1 820:1 
0 0 0 0 0.001995039881991726 1:1 15:1 44:1 47:1 49:1 130:1 151:1 153:1 154:1 379:1 830:1 831:1 
0 0 0 0.03709960223557991 0 0:1 1:1 15:1 18:1 27:1 34:1 35:1 91:1 114:1 120:1 121:1 552:1 847:1 
0 0.02300673827655067 0 0 0 0:1 1:1 15:1 21:1 65:1 66:1 136:1 139:1 145:1 146:1 491:1 495:1 855:1 856:1 
0 0.0679909540671416 0 0 0.02401721697402723 0:1 1:1 15:1 21:1 137:1 138:1 218:1 313:1 401:1 405:1 
0.0628138289607696 0.1441817815198822 0 0 0 1:1 15:1 39:1 42:1 43:1 44:1 47:1 114:1 130:1 379:1 421:1 863:1 
0 0.3561969442337864 0 0 0 0:1 1:1 15:1 39:1 41:1 42:1 43:1 44:1 47:1 130:1 379:1 
0 0.0125203455474995 0 0 0 1:1 15:1 21:1 59:1 64:1 65:1 66:1 67:1 108:1 145:1 146:1 729:1 732:1 733:1 734:1 735:1 736:1 737:1 738:1 
0 0.01949885066940679 0 0 0 0:1 1:1 6:1 15:1 29:1 39:1 42:1 43:1 44:1 47:1 915:1 916:1 
0 0.02415339177948227 0 0 0 1:1 14:1 15:1 21:1 26:1 54:1 137:1 138:1 747:1 940:1 941:1 942:1 
0 0.000664568968349886 0 0 0 1:1 15:1 39:1 41:1 42:1 43:1 44:1 47:1 130:1 379:1 968:1 969:1 
0 0.04541216862241083 0 0 0 1:1 15:1 17:1 39:1 42:1 43:1 44:1 47:1 77:1 130:1 368:1 
0 0.1697904212979998 0 0 0 0:1 44:1 47:1 131:1 132:1 206:1 318:1 390:1 391:1 
0 1 0.7669111256810596 0.66547757922819 0 0:1 44:1 47:1 65:1 66:1 607:1 710:1 
0 0.1384273038458791 0 0 0 0:1 44:1 47:1 131:1 132:1 281:1 318:1 390:1 391:1 
0.03501100919482378 0 0 0 0 0:1 1:1 15:1 17:1 44:1 47:1 128:1 130:1 131:1 132:1 227:1 992:1 
0 0 0 0.1869198569783394 0 1:1 15:1 21:1 65:1 66:1 145:1 146:1 157:1 158:1 883:1 887:1 1001:1 1002:1 
0.06539049507342974 0.257855098876722 0 0 0 0:1 1:1 14:1 15:1 26:1 54:1 65:1 66:1 91:1 120:1 121:1 315:1 595:1 
0.1037583569203296 0.2478690210416183 0.1499325108382088 0.4591344604498532 0 0:1 1:1 15:1 19:1 20:1 21:1 27:1 34:1 35:1 65:1 66:1 108:1 136:1 139:1 694:1 1005:1 1006:1 1007:1 
0 0.6397330376323078 0 0 0 1:1 15:1 39:1 42:1 43:1 44:1 47:1 106:1 114:1 130:1 187:1 1023:1 
0 0 0 0 0.04303128689284646 0:1 1:1 17:1 77:1 81:1 100:1 101:1 104:1 107:1 130:1 145:1 239:1 240:1 248:1 344:1 628:1 1049:1 1050:1 1054:1 
0 0.4281933465500302 0 0 0 42:1 43:1 44:1 47:1 66:1 293:1 294:1 889:1 1067:1 
0 0.1584476519831573 0 0 0 47:1 57:1 96:1 97:1 124:1 125:1 162:1 183:1 481:1 613:1 1080:1 1081:1 
0 0.01813382314859526 0 0 0 42:1 43:1 44:1 47:1 64:1 65:1 66:1 889:1 1067:1 
0 1 0 0 0 42:1 43:1 44:1 47:1 77:1 318:1 390:1 391:1 
0 0.04068163492745044 0 0 0 1:1 15:1 18:1 39:1 42:1 43:1 44:1 47:1 61:1 379:1 1095:1 1096:1 
0 0 0.5784600222680526 0 0 1:1 6:1 15:1 21:1 27:1 29:1 34:1 35:1 137:1 138:1 818:1 819:1 1104:1 
0 1 0 0 0 0:1 1:1 15:1 18:1 39:1 42:1 43:1 44:1 47:1 61:1 379:1 
0 0.6319929454824793 0 0 0 0:1 1:1 18:1 47:1 57:1 96:1 97:1 124:1 125:1 607:1 613:1 873:1 
0 0.007350470046657645 0 0 0 1:1 15:1 39:1 41:1 42:1 43:1 44:1 47:1 130:1 379:1 1136:1 1137:1 
0 0.03619084761730151 0 0 0 1:1 15:1 39:1 42:1 43:1 44:1 47:1 114:1 130:1 479:1 920:1 921:1 
0 0.1645872817645846 0 1 0 0:1 1:1 15:1 44:1 47:1 65:1 66:1 458:1 459:1 
0 0 0.1768221879583724 0 0 1:1 47:1 65:1 66:1 104:1 157:1 158:1 235:1 262:1 263:1 264:1 598:1 
0 0 0 0.3466321564569417 0 0:1 10:1 17:1 47:1 57:1 62:1 125:1 162:1 550:1 551:1 553:1 
0 0.1723803770521321 0.2300423600028545 0.1433354072919256 0 0:1 10:1 29:1 47:1 57:1 550:1 551:1 1071:1 
0 0.1582261276664015 0 0 0 0:1 9:1 47:1 139:1 179:1 270:1 271:1 672:1 1223:1 
0.1354874810340205 0 0 0.0407602895713585 0 0:1 1:1 3:1 6:1 29:1 53:1 91:1 120:1 121:1 268:1 270:1 1234:1 1236:1 
0.9738562766775448 0.3398153483090757 0 0 0 0:1 1:1 14:1 15:1 21:1 26:1 54:1 65:1 66:1 145:1 146:1 194:1 195:1 
0 0.09722229540636192 0 0 0 0:1 1:1 15:1 17:1 18:1 39:1 42:1 43:1 44:1 47:1 379:1 1263:1 
0 0 0 1 0 1:1 15:1 21:1 65:1 66:1 108:1 112:1 119:1 145:1 146:1 320:1 324:1 387:1 773:1 1292:1 
0.092300147346734 0 0.123104217161108 0.1228605014498484 0 0:1 1:1 10:1 15:1 21:1 27:1 34:1 145:1 146:1 171:1 408:1 467:1 468:1 485:1 486:1 1078:1 1314:1 1317:1 
0 0 0.1808500044486279 0 0 19:1 20:1 21:1 34:1 35:1 65:1 162:1 163:1 164:1 166:1 173:1 595:1 1322:1 1323:1 
0 0 0 0.02899192811874313 0 0:1 1:1 3:1 6:1 50:1 63:1 65:1 91:1 529:1 546:1 547:1 1033:1 1094:1 
0 0.1125673866157207 0.2586345330163865 0 0 0:1 10:1 12:1 15:1 29:1 104:1 289:1 292:1 297:1 298:1 386:1 1112:1 1354:1 
1 1 0.9633516273588257 1 0 0:1 1:1 15:1 18:1 19:1 20:1 21:1 27:1 34:1 35:1 61:1 108:1 
0 0 0.0553880685124877 0.104644426539713 0 0:1 1:1 15:1 21:1 27:1 34:1 35:1 65:1 66:1 145:1 146:1 281:1 710:1 
0 0.006599259570025417 0 0 0 34:1 62:1 77:1 114:1 137:1 162:1 163:1 164:1 166:1 167:1 168:1 169:1 552:1 
0.2868138555197556 0 0 0 0 1:1 3:1 9:1 47:1 65:1 66:1 268:1 270:1 271:1 1382:1 1383:1 
0 0.2911532994754945 0 0 0 0:1 19:1 20:1 21:1 29:1 34:1 35:1 125:1 162:1 222:1 224:1 377:1 1389:1 
0 0 0 0.1474016764692348 0 1:1 15:1 21:1 34:1 65:1 66:1 108:1 143:1 145:1 146:1 148:1 149:1 458:1 459:1 
0.6446215775375557 0.2479341386986881 0.9665382088763045 0.05265106848845255 0 1:1 15:1 19:1 20:1 21:1 27:1 34:1 35:1 65:1 66:1 136:1 139:1 1418:1 
0.644570569246166 0.2478537579035054 0.9665371942936899 0.0526835933368426 0 1:1 15:1 19:1 20:1 21:1 27:1 34:1 35:1 65:1 66:1 136:1 139:1 1423:1 
0 0 0 0.6185426601884523 0 0:1 1:1 15:1 21:1 65:1 66:1 108:1 110:1 112:1 119:1 145:1 146:1 320:1 324:1 387:1 834:1 1443:1 
0 0 0 1 0 0:1 1:1 15:1 18:1 21:1 27:1 34:1 35:1 49:1 53:1 137:1 138:1 
0.4288802423587332 0.8671269118561546 0 0 0 0:1 1:1 14:1 15:1 26:1 44:1 47:1 65:1 66:1 320:1 324:1 976:1 
0 0 0 0.2972059907127629 0 1:1 15:1 21:1 59:1 65:1 66:1 108:1 143:1 145:1 146:1 148:1 149:1 235:1 269:1 272:1 
0 0 0 1 0 0:1 1:1 15:1 21:1 65:1 66:1 112:1 119:1 145:1 146:1 320:1 324:1 387:1 1317:1 1474:1 
0.04014871730918285 0 0 0.2321375708775267 0 1:1 15:1 27:1 34:1 57:1 77:1 114:1 130:1 465:1 552:1 562:1 766:1 1485:1 
0 0.1055560458210108 0 0 0 1:1 3:1 9:1 12:1 13:1 65:1 66:1 269:1 272:1 361:1 362:1 363:1 1336:1 
0.459895324402147 0 0 0 0 0:1 1:1 6:1 10:1 15:1 19:1 20:1 21:1 27:1 34:1 35:1 171:1 485:1 486:1 601:1 1049:1 
0 0 0 0.4486426650391608 0 0:1 1:1 15:1 18:1 27:1 34:1 35:1 53:1 61:1 91:1 120:1 121:1 1137:1 
0.4629199555563446 0.9601383796190971 0 0.3891904523067542 0 0:1 26:1 29:1 38:1 44:1 47:1 318:1 976:1 1601:1 
0.2722119718054943 1 0.03730677910553853 0.01192440375408615 0 0:1 26:1 29:1 44:1 47:1 318:1 559:1 976:1 1349:1 
0 0.007268375310515735 0 0 0 1:1 3:1 9:1 12:1 13:1 64:1 65:1 66:1 67:1 585:1 587:1 588:1 
0 0.04409522571522149 0 0 0 0:1 1:1 3:1 9:1 12:1 13:1 64:1 65:1 66:1 67:1 686:1 687:1 688:1 
0 0.01533399526518425 0 0 0 42:1 43:1 44:1 47:1 206:1 318:1 390:1 391:1 1604:1 
0 0 0 0.02759751975408593 0 0:1 1:1 65:1 66:1 104:1 263:1 297:1 298:1 1620:1 1623:1 
0 0.3040410987236187 0 0 0 0:1 1:1 12:1 15:1 29:1 104:1 184:1 289:1 292:1 297:1 298:1 408:1 
0 0 0.1152020692629484 0.19080652713921 0 0:1 1:1 15:1 19:1 20:1 21:1 27:1 34:1 64:1 65:1 66:1 67:1 78:1 108:1 110:1 145:1 239:1 465:1 519:1 531:1 601:1 648:1 1630:1 1633:1 1635:1 1636:1 1641:1 1642:1 1643:1 
0 0 0.05744926515033438 0 0 0:1 1:1 15:1 19:1 20:1 21:1 27:1 34:1 35:1 65:1 66:1 108:1 110:1 202:1 206:1 235:1 344:1 601:1 647:1 694:1 884:1 1049:1 1649:1 1650:1 1659:1 
0.4324881653564911 0 0 0 0 0:1 1:1 3:1 6:1 9:1 47:1 50:1 51:1 53:1 63:1 179:1 1667:1 
0 0 0.5151726085042492 0 0 0:1 1:1 5:1 6:1 10:1 15:1 27:1 34:1 35:1 104:1 145:1 531:1 540:1 1049:1 1700:1 
0 0.06324973173719323 0 0 0.01729099165135296 0:1 1:1 15:1 21:1 66:1 108:1 145:1 146:1 293:1 294:1 295:1 689:1 692:1 693:1 1708:1 
0.001113206305406198 0 0 0 0 0:1 1:1 47:1 65:1 66:1 104:1 235:1 262:1 263:1 264:1 315:1 595:1 
0 0 0.07414767023919126 0 0 0:1 7:1 49:1 69:1 71:1 80:1 323:1 527:1 691:1 702:1 703:1 1719:1 1720:1 1721:1 
0 1 0 0 0 1:1 14:1 15:1 21:1 26:1 54:1 77:1 114:1 130:1 145:1 146:1 479:1 
0 0 0.01663947616672052 0 0 47:1 80:1 103:1 104:1 171:1 173:1 184:1 487:1 600:1 
0.1384051717623421 0.1124692256170106 0.1444859324330063 0 0 0:1 1:1 15:1 19:1 20:1 21:1 27:1 34:1 35:1 65:1 66:1 108:1 136:1 139:1 1633:1 1635:1 1636:1 
0 0.06846464022976786 0 0.03518112426625371 0 0:1 1:1 15:1 44:1 47:1 65:1 66:1 144:1 147:1 1152:1 1153:1 1154:1 
0 0 0 0 0.005310021385033946 1:1 15:1 27:1 34:1 35:1 41:1 91:1 120:1 121:1 130:1 1147:1 1730:1 1731:1 
0 0 0.633970000824892 0 0 1:1 15:1 21:1 27:1 34:1 65:1 66:1 120:1 136:1 139:1 145:1 146:1 501:1 904:1 
0 1 0 0 0 0:1 9:1 29:1 47:1 50:1 51:1 582:1 671:1 672:1 
0.2520526894905324 0.5132301663425274 0 0 0 0:1 1:1 15:1 44:1 65:1 66:1 176:1 235:1 236:1 245:1 313:1 314:1 401:1 
0 0.09260448493651748 0 0.1462760267633273 0.05509486083324124 0:1 17:1 69:1 71:1 297:1 323:1 527:1 1175:1 1176:1 1356:1 1775:1 1776:1 1777:1 
0 0.4170907393951052 0 0 0 21:1 34:1 35:1 41:1 59:1 125:1 162:1 183:1 561:1 562:1 649:1 954:1 955:1 1020:1 
0.001311455325419691 0 0 0 0 1:1 6:1 15:1 21:1 27:1 34:1 35:1 59:1 137:1 138:1 171:1 463:1 464:1 
0 0 0 0 0.03496256928793749 1:1 91:1 101:1 179:1 184:1 408:1 567:1 1249:1 1823:1 1826:1 1827:1 1828:1 1829:1 
0 0 0 0.06476711023310697 0 1:1 15:1 21:1 27:1 34:1 35:1 41:1 77:1 108:1 130:1 145:1 146:1 772:1 1424:1 
0 0 0 0.6044841084970449 0 1:1 15:1 18:1 21:1 27:1 34:1 35:1 49:1 145:1 146:1 661:1 1858:1 1859:1 
0 0.09272609641223226 0 0.2656578945352119 0 0:1 1:1 15:1 17:1 18:1 19:1 20:1 21:1 27:1 34:1 35:1 108:1 1860:1 1867:1 
0 0 0 0 0.03452042581361976 62:1 77:1 81:1 104:1 107:1 114:1 162:1 163:1 164:1 166:1 239:1 240:1 552:1 
0.5067604141696763 1 0 0.3333116889743306 0 0:1 29:1 44:1 47:1 313:1 314:1 318:1 559:1 1514:1 
0 0.350966932020711 0 0 0 0:1 1:1 15:1 65:1 66:1 104:1 202:1 206:1 292:1 297:1 298:1 1919:1 
0 0.147865284474283 0 0 0 1:1 14:1 15:1 26:1 54:1 65:1 66:1 91:1 304:1 305:1 567:1 1249:1 1924:1 
0.07183935957995916 0.1805529842722055 0 0 0 0:1 1:1 15:1 17:1 21:1 130:1 137:1 138:1 313:1 401:1 405:1 1057:1 1323:1 
0 0.2833136887587556 0.582896498435312 0 0 1:1 15:1 27:1 34:1 35:1 65:1 66:1 91:1 120:1 121:1 713:1 1104:1 1387:1 
0.2423687499037541 0 0.1309766120777012 0 0 1:1 15:1 27:1 34:1 35:1 65:1 66:1 91:1 120:1 121:1 315:1 595:1 1615:1 
0.1236192647264887 0.4136931693907184 1 0 0 0:1 19:1 20:1 21:1 34:1 35:1 65:1 162:1 163:1 164:1 166:1 713:1 1322:1 1387:1 
0 0.1377685637986689 0 0 0 19:1 20:1 21:1 34:1 35:1 65:1 70:1 82:1 125:1 162:1 713:1 1104:1 1322:1 1387:1 
0 0.01502785309930571 0 0 0 1:1 15:1 21:1 65:1 66:1 136:1 139:1 145:1 146:1 491:1 495:1 855:1 856:1 1615:1 
0 0.3915836337146429 0 0 0 0:1 1:1 15:1 21:1 65:1 66:1 136:1 139:1 145:1 146:1 491:1 495:1 855:1 856:1 
0 1 0.33847917631497 0.1253936909920329 0 1:1 15:1 21:1 59:1 65:1 66:1 136:1 139:1 145:1 146:1 491:1 495:1 855:1 856:1 
0 0 0 0.01053061106841846 0.0102110775667416 0:1 10:1 19:1 20:1 21:1 34:1 35:1 65:1 162:1 163:1 164:1 166:1 1033:1 1322:1 
0.3464963948531991 1 1 1 0.2629885187014556 0:1 29:1 47:1 91:1 94:1 559:1 
0 0.2210283064625307 0.1467593181063746 0 0 0:1 1:1 15:1 21:1 65:1 66:1 80:1 108:1 145:1 146:1 320:1 324:1 344:1 587:1 762:1 
0 0 0.08071433900147636 0 0 1:1 3:1 9:1 12:1 13:1 65:1 66:1 235:1 281:1 601:1 686:1 687:1 688:1 710:1 1999:1 
0 0.06720277363737701 0 0.03652209281349034 0 1:1 15:1 21:1 61:1 108:1 143:1 145:1 146:1 148:1 149:1 184:1 452:1 1708:1 1826:1 2007:1 
0 0 0 1 0 1:1 10:1 15:1 21:1 59:1 114:1 130:1 137:1 138:1 187:1 689:1 692:1 693:1 
0.1636528913194002 0.9382284430240154 1 0.5024508657061284 0 0:1 5:1 47:1 91:1 94:1 559:1 1158:1 
0.4760408541071603 0.6782774335341367 0.3824333711558686 0 0 0:1 1:1 12:1 15:1 18:1 19:1 20:1 21:1 27:1 34:1 35:1 49:1 2036:1 
0 0 0.009294035676825966 0.01098745635900882 0 0:1 1:1 3:1 5:1 10:1 12:1 104:1 188:1 289:1 
0 0 0.1417837155002625 0.01385551152204618 0 0:1 1:1 3:1 5:1 10:1 12:1 104:1 188:1 289:1 
0 0.1478636346684005 0 0 0 0:1 1:1 3:1 5:1 9:1 10:1 12:1 13:1 188:1 296:1 
0 0 0.932672845326332 0.3691556791015551 0 0:1 1:1 15:1 21:1 27:1 34:1 108:1 114:1 130:1 145:1 146:1 467:1 468:1 479:1 480:1 
0 0 0 0.009130342325571809 0 0:1 1:1 3:1 9:1 18:1 114:1 235:1 236:1 479:1 555:1 598:1 
0.0781996971179483 0 0.9149243922794629 0 0 1:1 15:1 21:1 27:1 34:1 108:1 114:1 130:1 145:1 146:1 184:1 467:1 468:1 479:1 485:1 2010:1 
0 0 0 0.7489341960647726 0 0:1 1:1 3:1 9:1 18:1 114:1 235:1 236:1 479:1 555:1 598:1 
0 0 0 0.110971070429476 0 0:1 1:1 15:1 21:1 34:1 108:1 114:1 130:1 145:1 146:1 480:1 564:1 748:1 2047:1 2048:1 2049:1 
0 0.001260864535872319 0.2988395840821729 0 0 0:1 1:1 15:1 21:1 34:1 65:1 66:1 108:1 145:1 146:1 235:1 647:1 1033:1 1034:1 
0 0.09949173836672998 0 0 0 0:1 1:1 15:1 21:1 27:1 34:1 35:1 55:1 65:1 66:1 136:1 139:1 145:1 146:1 628:1 
0 0.02452921240751064 0 0 0 0:1 1:1 3:1 9:1 17:1 18:1 628:1 629:1 1072:1 2067:1 2068:1 
0 0 0 0 0.1609536833104613 0:1 17:1 81:1 104:1 107:1 125:1 162:1 163:1 166:1 183:1 628:1 1860:1 2075:1 
0.08227224370273657 0.1976050858813711 0.3965954141061828 0 0 12:1 18:1 47:1 104:1 114:1 289:1 479:1 555:1 598:1 
0.02620719434575823 0.314374170019953 0.2197211860234514 0 0 47:1 80:1 103:1 104:1 171:1 295:1 296:1 2077:1 2078:1 
0 0.1568589591537654 0.1190418061672148 0 0 0:1 47:1 80:1 103:1 104:1 293:1 294:1 555:1 2080:1 
0 0.5953299159322699 0.5686601504670312 0 0 0:1 47:1 80:1 103:1 104:1 173:1 293:1 294:1 295:1 
0 0.108476005213909 0 0.07893565702271238 0 0:1 1:1 47:1 65:1 66:1 104:1 235:1 262:1 263:1 264:1 1033:1 1034:1 
0 0.8071377587847276 0 1 0 1:1 15:1 21:1 65:1 66:1 112:1 119:1 145:1 146:1 320:1 324:1 387:1 
0 0 0 0.2809520781291259 0 0:1 1:1 3:1 9:1 65:1 66:1 570:1 628:1 629:1 2086:1 2087:1 
0 0 0 0 0.001495186758419624 1:1 3:1 49:1 50:1 63:1 91:1 130:1 567:1 1094:1 1249:1 1356:1 2090:1 2091:1 
0.4766515793857619 1 0 0.06846934873939287 0.1148233694218779 0:1 26:1 29:1 44:1 47:1 92:1 218:1 318:1 976:1 
0 1 1 1 0.09236805322221574 0:1 33:1 47:1 91:1 94:1 179:1 281:1 
0 0 0.09021478176976215 0 0.03854676588100121 10:1 12:1 57:1 69:1 70:1 71:1 73:1 81:1 82:1 114:1 145:1 189:1 239:1 564:1 962:1 1035:1 2100:1 2101:1 2102:1 
0 0.01897406600845858 0 0 0 9:1 47:1 50:1 51:1 147:1 291:1 390:1 391:1 672:1 
0.0001913438727919048 0 0 0 0 0:1 1:1 3:1 6:1 9:1 47:1 50:1 51:1 63:1 179:1 1956:1 2144:1 
0 0 0 0.2739690984590367 0 0:1 1:1 3:1 9:1 47:1 65:1 66:1 176:1 245:1 268:1 270:1 271:1 
0 0.2338989361024306 0 0.1499260418224933 0 0:1 1:1 3:1 9:1 12:1 13:1 18:1 186:1 189:1 190:1 613:1 958:1 
0.9457383680769872 0 0 0 0 1:1 6:1 15:1 27:1 34:1 35:1 59:1 91:1 160:1 171:1 463:1 464:1 473:1 
0.5215986754896627 0 0 0 0 1:1 6:1 15:1 21:1 27:1 34:1 35:1 59:1 137:1 138:1 171:1 463:1 464:1 
0 0 0 0.1276012087111588 0 0:1 1:1 3:1 9:1 12:1 13:1 18:1 182:1 686:1 687:1 688:1 2175:1 2176:1 
0 0.2344935094729641 0 0 0 1:1 21:1 65:1 66:1 101:1 136:1 139:1 145:1 146:1 546:1 1823:1 1825:1 1826:1 2193:1 
0 0.0504421732707905 0 0 0 9:1 47:1 50:1 51:1 355:1 390:1 391:1 672:1 1863:1 
0 0 0 0.04047657176555922 0 0:1 1:1 2:1 3:1 6:1 7:1 8:1 9:1 29:1 80:1 374:1 625:1 
0 0.08772218695549527 0 0 0 9:1 47:1 50:1 51:1 64:1 65:1 66:1 67:1 2221:1 
0.02608334874403928 0 0.3806517065856736 0 0 47:1 80:1 103:1 104:1 171:1 173:1 184:1 487:1 600:1 
0 0.12672332584694 0.01667061293559237 0 0 10:1 12:1 13:1 26:1 41:1 59:1 69:1 71:1 73:1 102:1 119:1 145:1 323:1 531:1 1775:1 1776:1 1777:1 2245:1 2246:1 
0 0 0 0.1651087293534858 0 0:1 1:1 10:1 15:1 18:1 21:1 27:1 34:1 41:1 108:1 145:1 146:1 418:1 467:1 468:1 1347:1 2264:1 
0 0.3284785669034094 0 0 0.005471180699501635 1:1 3:1 50:1 63:1 65:1 66:1 91:1 176:1 245:1 546:1 547:1 1094:1 2275:1 
0.0694275601391974 0 0 0 0 0:1 1:1 15:1 21:1 27:1 34:1 35:1 65:1 66:1 145:1 146:1 2277:1 2278:1 
0 0 0.2327570842418177 0 0 0:1 47:1 49:1 57:1 125:1 162:1 183:1 1476:1 1477:1 2280:1 2282:1 
0.1541131202692005 0.2293413702828509 1 0.4411427363988596 0.08772841023342423 0:1 29:1 47:1 91:1 94:1 1476:1 1477:1 2289:1 
0 0 0.5505333544757085 0 0 1:1 15:1 21:1 65:1 66:1 145:1 146:1 157:1 158:1 883:1 887:1 1002:1 2293:1 
0 0 0 0.08165458669230397 0 1:1 2:1 3:1 6:1 7:1 8:1 9:1 29:1 80:1 87:1 374:1 2114:1 2297:1 
0 0 0 0.01449902028499323 0 0:1 1:1 15:1 18:1 21:1 41:1 145:1 146:1 729:1 732:1 733:1 734:1 1762:1 1763:1 
0 0.0570861448813702 0 0 0 9:1 29:1 47:1 270:1 271:1 559:1 672:1 2317:1 2318:1 
0 0.3167593796346164 0.5027797443608133 0.2128009415087732 0 0:1 19:1 34:1 65:1 125:1 162:1 176:1 203:1 204:1 205:1 208:1 222:1 224:1 245:1 1322:1 
0 0.9722884531589948 0 0 0 0:1 9:1 29:1 47:1 270:1 271:1 559:1 607:1 672:1 
0.05817212801111937 0 0 0.2470058433523754 0 0:1 1:1 65:1 66:1 104:1 263:1 2245:1 2336:1 
0.1895515257496812 0.2382409039446892 0 0.02873046731699305 0 0:1 1:1 15:1 17:1 19:1 20:1 21:1 27:1 34:1 35:1 145:1 873:1 1049:1 
0 0 0.06521617216289742 0 0 0:1 1:1 5:1 6:1 10:1 15:1 19:1 20:1 21:1 27:1 34:1 35:1 78:1 80:1 145:1 418:1 465:1 519:1 1049:1 1836:1 1879:1 2358:1 
0 0 0.06083801331107333 0 0 0:1 1:1 3:1 9:1 47:1 50:1 51:1 63:1 65:1 66:1 87:1 595:1 
0 0 0 0.03562524836758817 0 0:1 10:1 69:1 71:1 73:1 81:1 104:1 107:1 114:1 145:1 226:1 239:1 240:1 1049:1 1527:1 2370:1 
0 0 0.1698575342348879 0 0 1:1 3:1 9:1 65:1 66:1 80:1 361:1 362:1 363:1 374:1 492:1 713:1 1387:1 
0 0.04216220247982134 0 0.1362593657401573 0 1:1 15:1 44:1 65:1 66:1 80:1 108:1 144:1 147:1 362:1 410:1 761:1 762:1 763:1 2259:1 
0 0.0796850757233214 0 0 0 0:1 17:1 47:1 57:1 125:1 162:1 183:1 1476:1 1477:1 2280:1 
0.09468321391174379 0.2937754203602047 0.7718529565383693 0.1694770110602887 0.2270437399324637 0:1 1:1 19:1 21:1 65:1 66:1 81:1 108:1 145:1 146:1 174:1 176:1 239:1 245:1 285:1 467:1 468:1 794:1 911:1 2415:1 2419:1 
0 0 0 0.02659792240555013 0 1:1 3:1 9:1 47:1 65:1 66:1 136:1 139:1 268:1 270:1 271:1 964:1 
8.484080427963742e-05 0 0 0 0 0:1 1:1 3:1 6:1 9:1 47:1 50:1 51:1 63:1 179:1 2432:1 2433:1 
0 0.09064689829443683 0 0 0 1:1 15:1 18:1 21:1 41:1 137:1 138:1 313:1 379:1 401:1 405:1 1239:1 2440:1 
0 0.0002719393378808689 0 0 0 1:1 10:1 14:1 15:1 21:1 26:1 41:1 54:1 59:1 137:1 138:1 354:1 1111:1 
0 0.6337212223035347 0 0.3478309165820362 0 0:1 1:1 14:1 15:1 19:1 20:1 21:1 26:1 54:1 65:1 66:1 84:1 108:1 202:1 206:1 344:1 418:1 694:1 1852:1 2466:1 
0 0 0 0.1889742716972455 0 0:1 1:1 3:1 6:1 9:1 29:1 59:1 80:1 374:1 784:1 785:1 786:1 1234:1 
0 0 0.06586550394035487 0 0 1:1 15:1 21:1 27:1 34:1 35:1 65:1 66:1 269:1 272:1 465:1 466:1 
0.5626658418597932 0.3321652842148031 0.4323241329235881 0.2357263381361452 0 0:1 1:1 15:1 21:1 65:1 66:1 145:1 146:1 157:1 158:1 313:1 401:1 405:1 
0.480329187559691 0 0 0 0 0:1 1:1 15:1 21:1 65:1 66:1 108:1 136:1 139:1 145:1 146:1 235:1 313:1 401:1 405:1 
0.0006223886820062585 0 0 0 0 1:1 15:1 21:1 27:1 34:1 35:1 65:1 66:1 136:1 139:1 145:1 146:1 492:1 
0 0 0 0.02360360949382995 0 1:1 10:1 18:1 47:1 59:1 104:1 263:1 747:1 940:1 2506:1 2507:1 2508:1 
0 0.5102857043570849 0 1 0.04105325684813224 0:1 1:1 15:1 21:1 77:1 112:1 114:1 119:1 130:1 145:1 146:1 387:1 479:1 
0 0.1001986665858921 0 0.02316575336273559 0 0:1 10:1 15:1 29:1 104:1 292:1 297:1 298:1 386:1 973:1 1112:1 2510:1 2511:1 
0 0 0 0.01260088163928419 0 34:1 41:1 62:1 77:1 145:1 162:1 163:1 164:1 166:1 167:1 168:1 531:1 2514:1 2515:1 
0 1 0.08087067823694939 1 0 1:1 10:1 15:1 21:1 59:1 112:1 114:1 119:1 130:1 145:1 146:1 387:1 479:1 
0 0 0 0.06973042670797887 0 0:1 1:1 6:1 10:1 29:1 104:1 263:1 297:1 298:1 331:1 973:1 2510:1 2511:1 
0.07570799690824377 0 0 0 0 1:1 15:1 21:1 27:1 34:1 35:1 65:1 66:1 136:1 139:1 145:1 146:1 1371:1 
0 0 0.04191836972589789 0 0 0:1 1:1 10:1 15:1 18:1 27:1 34:1 35:1 41:1 82:1 104:1 129:1 145:1 540:1 1700:1 2113:1 
0 0.8765873502431437 0 0 0 0:1 9:1 47:1 65:1 66:1 136:1 270:1 271:1 379:1 
0 0 0 0.0602385656251166 0 1:1 3:1 9:1 18:1 41:1 80:1 361:1 362:1 363:1 374:1 1200:1 2400:1 2528:1 
0 0 0.0349517804217739 0 0.002797008899097537 0:1 1:1 15:1 17:1 18:1 19:1 20:1 21:1 27:1 34:1 35:1 80:1 81:1 108:1 110:1 145:1 235:1 344:1 531:1 601:1 628:1 647:1 911:1 1049:1 1083:1 1696:1 
0 0 0 0.2553919221297538 0 0:1 1:1 15:1 21:1 34:1 65:1 66:1 108:1 143:1 144:1 145:1 146:1 147:1 148:1 149:1 
0 0.2029353048611417 0 0 0 0:1 5:1 9:1 47:1 139:1 270:1 271:1 672:1 
0 0 0.001943193469895563 0.003529432210006137 0 0:1 1:1 15:1 21:1 27:1 34:1 35:1 65:1 66:1 145:1 146:1 281:1 710:1 
0 0.1134035756670114 0 0 0 1:1 14:1 15:1 21:1 26:1 54:1 65:1 66:1 136:1 139:1 145:1 146:1 1708:1 
0 0.1484036054383698 0 0 0 1:1 14:1 15:1 21:1 26:1 54:1 65:1 66:1 136:1 139:1 145:1 146:1 1303:1 
0 0.2405281013698563 0 0 0 0:1 9:1 29:1 47:1 270:1 271:1 516:1 672:1 1419:1 
0.006793747558627212 0 0 0 0 0:1 1:1 3:1 6:1 9:1 47:1 50:1 51:1 63:1 179:1 
0 0.06071535949389035 0 0 0 1:1 3:1 9:1 12:1 13:1 64:1 65:1 66:1 67:1 784:1 785:1 786:1 2443:1 
0.2040246122218289 0 0 0 0 0:1 1:1 3:1 65:1 66:1 91:1 136:1 139:1 268:1 270:1 567:1 1236:1 1249:1 
0 0.1352696775689529 0 0 0 1:1 3:1 18:1 41:1 50:1 57:1 63:1 166:1 167:1 1094:1 1169:1 1170:1 1200:1 
0 0 0 0 0.001638021329609714 0:1 9:1 29:1 47:1 50:1 51:1 218:1 1487:1 1492:1 
0 0 0.1187526626314503 0.03675652850346493 0 0:1 1:1 15:1 18:1 27:1 34:1 57:1 137:1 169:1 182:1 309:1 562:1 766:1 
0 0 0.005057809117773791 0 0 1:1 6:1 15:1 27:1 29:1 34:1 87:1 137:1 166:1 167:1 168:1 169:1 1297:1 1887:1 
0 0.04518112651721871 0 0 0 1:1 15:1 18:1 27:1 34:1 57:1 114:1 137:1 155:1 169:1 552:1 562:1 766:1 2836:1 
0 0.01493429640390171 0.5288935081348372 0.2845322848131493 0 1:1 15:1 21:1 27:1 34:1 35:1 65:1 66:1 145:1 146:1 176:1 245:1 1857:1 
0 0.6625251513647835 0.01263330063629249 0 0.01881850559175286 0:1 29:1 80:1 81:1 103:1 104:1 107:1 125:1 162:1 222:1 224:1 377:1 670:1 2739:1 
0 0 0 0.07415287705932055 0 0:1 1:1 15:1 21:1 27:1 34:1 35:1 137:1 138:1 266:1 964:1 1070:1 2169:1 
0 0.03267749177743638 0.1113150256963076 0.1339919669442861 0 0:1 9:1 29:1 38:1 47:1 270:1 271:1 672:1 2318:1 
6.16911036144252e-17 0 0 0 0 0:1 1:1 3:1 6:1 9:1 47:1 50:1 51:1 63:1 179:1 2855:1 
0 0.2591570096616255 0 0.3787907471120773 0.01653373574558828 0:1 1:1 15:1 21:1 64:1 65:1 66:1 67:1 108:1 145:1 146:1 773:1 2872:1 2874:1 2875:1 
0 0 0 0 0.0218036701422582 1:1 3:1 6:1 10:1 29:1 91:1 120:1 121:1 268:1 270:1 1236:1 1358:1 1887:1 
0 0.03194630247164249 0 0.08301911567947556 0 0:1 1:1 3:1 9:1 12:1 13:1 65:1 66:1 304:1 305:1 686:1 687:1 688:1 
0.4029848158115866 0 0.05748305664716602 0.05490459550202598 0 0:1 1:1 15:1 27:1 34:1 65:1 66:1 467:1 468:1 773:1 774:1 775:1 1382:1 1383:1 
0 0.1797238579476731 0 0.05806315247019745 0 0:1 19:1 34:1 41:1 62:1 74:1 75:1 77:1 78:1 79:1 145:1 162:1 164:1 168:1 951:1 1035:1 1049:1 
0 0 0.4826682952919171 0.02624831182214395 0 1:1 10:1 15:1 21:1 27:1 34:1 35:1 59:1 114:1 130:1 137:1 138:1 421:1 
0 0 0.01706641676408586 0.4705409279470429 0.02400286158900653 0:1 1:1 21:1 65:1 66:1 101:1 145:1 146:1 194:1 195:1 1823:1 1826:1 1829:1 
0 0.2121182428879773 0 0 0 0:1 1:1 6:1 15:1 29:1 39:1 42:1 76:1 166:1 167:1 767:1 
1 1 0 0 0 0:1 5:1 6:1 44:1 47:1 87:1 313:1 314:1 559:1 
0 0.609857060694766 1 0.7903467411608502 0 0:1 1:1 15:1 21:1 27:1 34:1 65:1 66:1 145:1 146:1 176:1 245:1 2786:1 
0 0 0 0.6052424501141604 0 1:1 15:1 21:1 27:1 34:1 66:1 120:1 145:1 146:1 293:1 294:1 295:1 342:1 343:1 1886:1 
0 0.2327343050360584 0 0 0.03378359665067984 0:1 1:1 15:1 21:1 49:1 130:1 137:1 138:1 491:1 495:1 886:1 
0 0.1122522454559353 0 0 0 0:1 9:1 47:1 179:1 270:1 271:1 672:1 3036:1 3038:1 
0 0.03553964926293007 0.120010856320906 0 0 1:1 15:1 21:1 27:1 34:1 137:1 138:1 301:1 302:1 407:1 529:1 2697:1 2700:1 2708:1 
0 0 0.8956576196492401 0 0.1209783834351729 0:1 1:1 15:1 21:1 34:1 65:1 66:1 108:1 137:1 145:1 146:1 176:1 203:1 245:1 467:1 468:1 
0 0.01749705920774028 0.06118539657651272 0.3678671150187726 0.07731171797792585 0:1 1:1 15:1 21:1 65:1 66:1 108:1 145:1 146:1 176:1 245:1 567:1 568:1 1960:1 1962:1 2275:1 
0.003220512913158286 0.09198449235501038 0 0 0 0:1 1:1 14:1 15:1 18:1 26:1 50:1 61:1 91:1 546:1 547:1 607:1 758:1 1094:1 
0 0.03898395412366708 0 0 0 5:1 9:1 47:1 50:1 51:1 416:1 418:1 1491:1 1492:1 
0.877657215973808 1 0 0 0 0:1 1:1 15:1 44:1 47:1 65:1 66:1 281:1 313:1 314:1 401:1 710:1 
0 0.5279500019952689 0 0 0 1:1 15:1 39:1 41:1 42:1 43:1 44:1 47:1 130:1 291:1 347:1 3088:1 
0 0.7135885134625169 0 0 0 42:1 43:1 44:1 47:1 139:1 318:1 390:1 391:1 
0.08204467872648759 0 0 0 0 0:1 1:1 6:1 15:1 29:1 44:1 47:1 151:1 153:1 154:1 2318:1 3098:1 
0 0.2184663326806221 0.3742369498591779 0 0 47:1 57:1 125:1 162:1 179:1 377:1 379:1 1476:1 1477:1 1732:1 2280:1 3099:1 
0 0 0 0.3310587688775976 0 0:1 1:1 15:1 21:1 27:1 34:1 35:1 65:1 66:1 145:1 146:1 281:1 710:1 
0 0 0 1 0 0:1 1:1 15:1 21:1 27:1 34:1 35:1 65:1 66:1 145:1 146:1 281:1 710:1 
0 0.01507241221874126 0.5289251819848478 0 0 1:1 15:1 21:1 27:1 34:1 35:1 65:1 66:1 145:1 146:1 176:1 245:1 1185:1 
0 0.08208523541353013 0 0 0 0:1 1:1 10:1 15:1 18:1 21:1 41:1 137:1 138:1 313:1 401:1 405:1 2132:1 
0 0.5451637576387768 0 0 0 1:1 15:1 18:1 21:1 27:1 34:1 35:1 137:1 138:1 613:1 631:1 1022:1 1115:1 
0 0.4708381248659547 0 0 0 0:1 42:1 43:1 44:1 47:1 176:1 318:1 390:1 391:1 
0 0.3706488646508042 0 0 0 0:1 1:1 15:1 18:1 39:1 42:1 43:1 44:1 47:1 49:1 53:1 
0 0 0 0.1654950095643195 0 1:1 15:1 21:1 65:1 66:1 108:1 143:1 145:1 146:1 148:1 149:1 458:1 459:1 887:1 1902:1 
0.6989728024778877 0.1321631367477769 0 0 0 0:1 34:1 44:1 47:1 179:1 318:1 559:1 627:1 1419:1 
0 0.01444792114351809 0 0 0 9:1 29:1 47:1 270:1 271:1 559:1 672:1 841:1 2114:1 
0.1061050561770589 0 0 0 0 19:1 20:1 21:1 34:1 35:1 65:1 125:1 162:1 222:1 224:1 315:1 595:1 886:1 1322:1 
0 0 0.2258523759755396 0 0 41:1 47:1 57:1 62:1 77:1 125:1 162:1 978:1 1476:1 1477:1 2280:1 
0.01270356905282042 1 0 0.5055975166194079 0 47:1 55:1 56:1 57:1 61:1 125:1 162:1 180:1 183:1 579:1 2104:1 3089:1 
0 0.1185106320381219 0.0207429448150245 0 0 0:1 5:1 10:1 47:1 57:1 125:1 162:1 377:1 550:1 551:1 553:1 
0 0.9387779028589518 0 0 0 0:1 1:1 15:1 39:1 42:1 43:1 44:1 47:1 61:1 77:1 130:1 
0.8385540453912902 0.2639036266601201 0 0 0 0:1 1:1 10:1 15:1 21:1 41:1 59:1 130:1 145:1 146:1 313:1 401:1 
0 0 0.54637167190197 0.2552657647773251 0.03588013266296485 0:1 1:1 15:1 114:1 130:1 491:1 495:1 564:1 775:1 855:1 856:1 884:1 885:1 3036:1 
0 0.06457014562704499 0 0 0 1:1 14:1 15:1 18:1 21:1 26:1 50:1 61:1 137:1 138:1 1081:1 1094:1 3181:1 3182:1 
0 0.3126307219404117 0 0 0 1:1 15:1 18:1 39:1 42:1 43:1 44:1 47:1 59:1 114:1 187:1 3180:1 
0 0 0 1 0 0:1 1:1 15:1 21:1 27:1 34:1 41:1 77:1 108:1 130:1 145:1 146:1 467:1 468:1 
0 0.1508204831627477 0 0 0 9:1 29:1 47:1 270:1 271:1 672:1 1371:1 1387:1 2803:1 
0 0.5761278780514852 0 0 0 1:1 15:1 17:1 18:1 39:1 42:1 43:1 44:1 47:1 369:1 370:1 645:1 
0 0 0.2484406631738787 0.0008821110088833195 0.03638810906823608 0:1 1:1 15:1 65:1 66:1 91:1 151:1 153:1 458:1 459:1 546:1 547:1 
1 1 1 1 0 0:1 1:1 15:1 19:1 20:1 21:1 27:1 34:1 77:1 
0 0.117618056456604 0 0 0 0:1 9:1 29:1 47:1 270:1 271:1 559:1 672:1 2114:1 
0.3610755078742081 0 0 0 0 42:1 43:1 44:1 47:1 59:1 171:1 386:1 464:1 2077:1 
0 0.4049102542459883 0 0 0 0:1 19:1 20:1 21:1 34:1 35:1 41:1 59:1 71:1 162:1 183:1 222:1 224:1 449:1 
0 0.0148489913878083 0 0 0 1:1 15:1 39:1 42:1 43:1 44:1 47:1 61:1 77:1 130:1 3265:1 
0.5416942736312027 0 0 0 0 0:1 6:1 9:1 29:1 47:1 270:1 271:1 607:1 
0 0.2563238896203227 0 1 0 0:1 9:1 29:1 47:1 672:1 892:1 893:1 
0 0.1035648385181098 0 0.02577180668023334 0 0:1 1:1 15:1 57:1 65:1 66:1 112:1 119:1 297:1 298:1 320:1 324:1 1776:1 1777:1 3288:1 
0 0.01511607629652006 0 0 0 1:1 15:1 21:1 27:1 34:1 65:1 66:1 136:1 139:1 145:1 146:1 2616:1 2927:1 2928:1 
0 0.219939542448594 0 0 0 0:1 1:1 15:1 18:1 21:1 41:1 137:1 138:1 313:1 379:1 401:1 405:1 769:1 
0 0 0 0.6589409792499871 0 0:1 1:1 3:1 9:1 18:1 47:1 50:1 51:1 59:1 61:1 63:1 
0 0.8063216820549135 0 0 0 1:1 21:1 47:1 114:1 130:1 137:1 138:1 187:1 389:1 1854:1 1855:1 
0 0.9064756568595559 0 0 0 0:1 42:1 43:1 44:1 47:1 281:1 318:1 390:1 391:1 
0 0.009855442311020939 0 0 0 0:1 1:1 15:1 21:1 27:1 34:1 35:1 64:1 65:1 66:1 67:1 108:1 145:1 146:1 834:1 2103:1 
0 1 0 0 0 0:1 1:1 15:1 39:1 42:1 43:1 44:1 47:1 77:1 130:1 613:1 
0 0.1369685556759513 0 0 0 0:1 1:1 21:1 64:1 65:1 66:1 67:1 145:1 146:1 150:1 794:1 2926:1 
0.1001952194558782 0.03698572435838846 0 0 0 0:1 47:1 57:1 96:1 97:1 1070:1 1071:1 
0.01444679327084178 0 0 0 0 0:1 1:1 15:1 17:1 18:1 91:1 120:1 121:1 313:1 401:1 405:1 1434:1 
0 0.01500923270128686 0 0 0 1:1 6:1 15:1 29:1 39:1 42:1 43:1 44:1 47:1 77:1 2136:1 
0 0.01058991574645568 0 0 0 1:1 15:1 44:1 47:1 65:1 66:1 320:1 324:1 3360:1 3361:1 3362:1 
0.816821717508446 0 0 0.03504253981881106 0 1:1 15:1 44:1 47:1 65:1 66:1 458:1 459:1 3360:1 3361:1 3362:1 
0 1 0 0 0 1:1 15:1 39:1 42:1 43:1 44:1 47:1 77:1 
0.04698487885600073 0.1679682443414348 0 0.2754415625336458 0 0:1 44:1 47:1 153:1 154:1 179:1 318:1 2731:1 3373:1 
0 0 0.001334477032849866 0.01094375525229159 0 0:1 44:1 47:1 65:1 66:1 87:1 96:1 97:1 245:1 
0 0 0 0 0.01586430541410122 0:1 47:1 49:1 57:1 77:1 96:1 97:1 757:1 
0 0.03520054979581344 0 0 0 0:1 1:1 15:1 39:1 41:1 42:1 43:1 44:1 47:1 130:1 256:1 354:1 
0 0.8723285353493774 0 0 0 0:1 1:1 6:1 15:1 29:1 39:1 42:1 43:1 44:1 47:1 77:1 
0 1 0 1 0 0:1 5:1 9:1 47:1 77:1 672:1 
0 0.04872302760632283 0 0 0 1:1 14:1 15:1 21:1 26:1 54:1 65:1 66:1 145:1 146:1 2277:1 2278:1 3098:1 
0 0.08404672551160865 0.09389428220786096 0.1297261161926551 0 0:1 1:1 15:1 21:1 65:1 66:1 145:1 146:1 1075:1 2277:1 2278:1 
0 0.2916085443696766 0 0 0 0:1 1:1 14:1 15:1 21:1 26:1 54:1 130:1 137:1 138:1 427:1 1070:1 
0 0.3078045219293667 0 1 0 0:1 1:1 15:1 18:1 21:1 114:1 145:1 146:1 187:1 461:1 3408:1 
0 0 0.03739373044527353 0 0 1:1 10:1 47:1 114:1 130:1 479:1 3421:1 3422:1 3423:1 3424:1 3425:1 3430:1 
0 0 0 0 0.04430757806693456 81:1 114:1 125:1 162:1 183:1 222:1 224:1 239:1 323:1 479:1 555:1 702:1 703:1 962:1 1200:1 
0 0 0 0.08901273711323135 0 0:1 29:1 44:1 47:1 96:1 97:1 295:1 318:1 
0 0.172953732257093 0 0 0 0:1 44:1 47:1 65:1 66:1 153:1 154:1 245:1 1381:1 
0.04956772409008904 0.1163597791511403 0 0.05860943928787853 0 1:1 47:1 59:1 114:1 130:1 389:1 390:1 3421:1 3422:1 3423:1 3424:1 3425:1 
0 0.1096167063483112 0 0 0 0:1 1:1 15:1 18:1 39:1 42:1 43:1 44:1 47:1 49:1 53:1 
0.0001127206171412639 0 0 0 0 0:1 1:1 6:1 15:1 29:1 44:1 47:1 96:1 97:1 124:1 904:1 
0.0001009896402593598 0 0 0 0 0:1 1:1 6:1 15:1 29:1 44:1 47:1 96:1 97:1 124:1 
0 0 0 0 0.003848977939869513 1:1 47:1 77:1 114:1 130:1 390:1 3421:1 3422:1 3423:1 3424:1 3425:1 
0 1 0.2191049373631579 0.36655920756059 0 1:1 18:1 81:1 82:1 100:1 101:1 104:1 107:1 114:1 145:1 228:1 239:1 240:1 390:1 582:1 1035:1 
0 0 0.0169874593621154 0 0 47:1 57:1 62:1 77:1 96:1 97:1 124:1 125:1 162:1 182:1 3449:1 
0 0.4647325683668708 0 0 0 0:1 1:1 9:1 14:1 15:1 26:1 50:1 51:1 54:1 65:1 66:1 2971:1 2972:1 
0 1 0 0.06940168764477499 0 0:1 42:1 43:1 44:1 47:1 77:1 179:1 318:1 
0 0 0.1166779165039091 0 0.07966059523143323 0:1 1:1 15:1 39:1 42:1 43:1 44:1 47:1 77:1 130:1 182:1 
0.1003173709166345 1 0.1832833677850283 0 0.08205739617180235 0:1 1:1 14:1 15:1 26:1 54:1 77:1 91:1 117:1 130:1 1070:1 3486:1 
0.09249835211395366 0.6614402789680586 1 0.7186848967963052 0.1255178511972692 0:1 1:1 18:1 34:1 80:1 81:1 100:1 101:1 103:1 104:1 107:1 114:1 187:1 461:1 1035:1 2032:1 
0 0.7149580787060209 0 0 0 1:1 3:1 18:1 50:1 63:1 91:1 106:1 114:1 160:1 390:1 473:1 582:1 1094:1 
0.01615439755911253 0 0 0.02693534268524852 0 0:1 1:1 15:1 21:1 65:1 66:1 145:1 146:1 173:1 692:1 1143:1 1643:1 3268:1 
0 0.07084461373108403 0 0 0 18:1 42:1 43:1 44:1 47:1 61:1 632:1 1541:1 2007:1 
0 0 0.1496458790872931 0.04515391941749004 0.007080903199799647 1:1 21:1 47:1 77:1 114:1 130:1 390:1 465:1 466:1 1855:1 2115:1 
0 0.1994242068032564 0 0 0 0:1 42:1 43:1 44:1 47:1 64:1 65:1 66:1 
0 0.2738027375421708 0 0 0 42:1 43:1 44:1 47:1 318:1 324:1 390:1 391:1 3516:1 
0 0.3584119796294561 0 0 0 0:1 42:1 43:1 44:1 47:1 184:1 318:1 390:1 391:1 
0 0.3502582744843727 0 0 0 1:1 15:1 18:1 39:1 42:1 43:1 44:1 47:1 114:1 622:1 1863:1 2405:1 
0.06068587992798233 0 0 0 0 0:1 1:1 6:1 15:1 29:1 44:1 47:1 96:1 97:1 124:1 
0 0.00753217334455641 0 0 0 1:1 10:1 15:1 39:1 42:1 43:1 44:1 47:1 61:1 130:1 485:1 3531:1 
0 0 0 0.01162975449307268 0 0:1 1:1 15:1 18:1 44:1 47:1 61:1 128:1 131:1 132:1 3535:1 3536:1 
0 0 0.01695126666394952 0 0 47:1 57:1 62:1 77:1 96:1 97:1 124:1 125:1 162:1 182:1 3044:1 
0.08318891671926609 0.4240364477197352 0 0 0 34:1 35:1 104:1 114:1 125:1 162:1 183:1 187:1 461:1 540:1 598:1 1700:1 3546:1 3547:1 
0 0 0.08161340017242107 0 0 0:1 1:1 15:1 21:1 27:1 34:1 65:1 66:1 144:1 145:1 146:1 147:1 748:1 749:1 
1 1 1 0.955446871447783 0 0:1 1:1 15:1 19:1 20:1 21:1 27:1 34:1 66:1 293:1 294:1 295:1 
0 0.01510714339868992 0.5288655343747188 0.1597695002621503 0 1:1 15:1 21:1 27:1 34:1 35:1 65:1 66:1 145:1 146:1 176:1 245:1 3559:1 
0.05816178943540659 0.04770940926563325 0 0.1000217914327561 0 0:1 1:1 15:1 18:1 21:1 27:1 34:1 35:1 114:1 145:1 146:1 228:1 390:1 582:1 1016:1 
0 0 0 0.2846352105011223 0 1:1 15:1 18:1 21:1 27:1 34:1 35:1 59:1 61:1 145:1 146:1 3015:1 3016:1 
0 0 1 0 0 0:1 1:1 15:1 21:1 27:1 34:1 65:1 66:1 145:1 146:1 281:1 710:1 748:1 749:1 
0 0 0 0.1889420821502539 0 0:1 1:1 15:1 21:1 77:1 112:1 114:1 119:1 120:1 130:1 145:1 146:1 465:1 479:1 501:1 951:1 1006:1 1836:1 
0.05992594868732685 0.06574244871745374 0.1226943757969743 0 0 0:1 29:1 47:1 57:1 96:1 97:1 1943:1 2652:1 3576:1 
0 0.7130516556176315 0 0 0 0:1 1:1 10:1 15:1 39:1 42:1 43:1 44:1 47:1 
0 0.4724316595986685 0 0.1817232928649455 0 0:1 1:1 15:1 18:1 21:1 27:1 34:1 35:1 108:1 110:1 114:1 145:1 146:1 465:1 479:1 555:1 914:1 1073:1 1880:1 
0 0 0 0.06538102503155192 0 1:1 15:1 27:1 34:1 61:1 775:1 884:1 885:1 1629:1 2966:1 3188:1 3448:1 3587:1 3588:1 
0.07586785399313402 0.04733779297557478 0.9419609948042398 0 0.02923941188550538 1:1 65:1 66:1 74:1 75:1 76:1 78:1 79:1 81:1 100:1 101:1 136:1 139:1 239:1 2172:1 
0 0.1695597783347435 0 0 0 1:1 15:1 18:1 39:1 42:1 43:1 44:1 47:1 53:1 182:1 1110:1 3601:1 
0 0 0 0.04695352720186233 0 0:1 1:1 15:1 18:1 44:1 47:1 59:1 96:1 97:1 124:1 182:1 
0 0.01158820117727571 0.04603763041863411 0 0 0:1 29:1 47:1 57:1 96:1 97:1 1071:1 2612:1 3614:1 
0 0.6013760788895406 0 0 0 0:1 42:1 43:1 44:1 47:1 114:1 130:1 288:1 1099:1 
0 0 0 0.2320951180187007 0 0:1 10:1 29:1 44:1 47:1 96:1 97:1 318:1 3533:1 
0 0 0.02312193042052904 0.2102884344247914 0 0:1 1:1 15:1 18:1 19:1 20:1 21:1 41:1 347:1 883:1 887:1 1129:1 1417:1 2918:1 
0.8439314937844269 0 0 0 0 0:1 1:1 3:1 9:1 47:1 66:1 268:1 270:1 271:1 293:1 294:1 295:1 
0 0 0 0.02990796547489919 0 0:1 44:1 47:1 153:1 154:1 176:1 318:1 390:1 391:1 
0 0 0.1093133995502949 0 0 0:1 47:1 57:1 59:1 96:1 97:1 124:1 125:1 162:1 179:1 377:1 389:1 
0 1 0 0 0 1:1 15:1 39:1 42:1 43:1 44:1 47:1 77:1 114:1 130:1 187:1 
0 0.5525432740327544 0 0.2919336607543172 0 0:1 18:1 42:1 43:1 44:1 47:1 61:1 914:1 2688:1 
0 0.1167569256989631 0 0 0 5:1 10:1 42:1 43:1 44:1 47:1 318:1 3456:1 3693:1 
0 0.1022190024580261 0.170182031899887 0.06593173016411784 0 0:1 1:1 5:1 6:1 10:1 15:1 21:1 27:1 34:1 59:1 1054:1 3706:1 3707:1 
0.9648641513140114 0.1643144983714944 1 1 0 0:1 1:1 15:1 21:1 27:1 34:1 35:1 65:1 66:1 145:1 146:1 176:1 245:1 
0 0.01517703712037615 0.5288344157065062 0.2848683057350715 0 1:1 15:1 21:1 27:1 34:1 35:1 65:1 66:1 145:1 146:1 176:1 245:1 2187:1 
0 0 0 0.1251955834076536 0 0:1 1:1 15:1 44:1 47:1 65:1 66:1 458:1 459:1 3559:1 
0 0.1203030675560494 0 0 0 42:1 43:1 44:1 47:1 114:1 130:1 187:1 449:1 3017:1 
0 0.3897959447015929 0 0 0 47:1 57:1 62:1 96:1 97:1 124:1 125:1 162:1 184:1 613:1 1080:1 1255:1 
0 0 0.03106889477865777 0 0 0:1 1:1 15:1 65:1 66:1 104:1 320:1 324:1 2245:1 2336:1 3732:1 
0 0 0.01083508303059802 0 0 1:1 12:1 15:1 65:1 66:1 104:1 144:1 147:1 235:1 289:1 344:1 601:1 785:1 1919:1 2245:1 2336:1 3732:1 
0 0.2438275763794301 0.7194334246816221 0 0 0:1 1:1 15:1 17:1 21:1 27:1 34:1 77:1 130:1 145:1 146:1 301:1 302:1 
0 0.446228695444494 0 0 0 0:1 1:1 14:1 15:1 17:1 18:1 26:1 54:1 104:1 120:1 214:1 270:1 540:1 978:1 1700:1 
0.03497295824620921 0.07084084725778445 0.5000739982419325 0.07016964264399002 0 0:1 1:1 15:1 21:1 27:1 34:1 65:1 66:1 136:1 139:1 145:1 146:1 3751:1 
0 0 0 0.05280884196439972 0 1:1 15:1 21:1 65:1 66:1 112:1 119:1 145:1 146:1 320:1 324:1 387:1 817:1 
0.2322104102018345 0 0 0 0 1:1 15:1 21:1 27:1 34:1 35:1 65:1 66:1 108:1 145:1 146:1 194:1 195:1 270:1 
0 0 0 0.3485507335597446 0 0:1 1:1 21:1 65:1 66:1 84:1 136:1 139:1 145:1 146:1 233:1 234:1 
0.01570800117349673 0 0 0 0 1:1 15:1 41:1 91:1 120:1 121:1 130:1 313:1 401:1 405:1 1138:1 1675:1 1685:1 
0 0.7791112507089043 0.03517631643286618 0 0 0:1 5:1 10:1 47:1 57:1 125:1 162:1 377:1 550:1 551:1 553:1 
0.03216624417720838 0 0.06967962584383047 0 0 0:1 1:1 15:1 19:1 20:1 21:1 27:1 34:1 35:1 77:1 84:1 114:1 130:1 270:1 479:1 531:1 1049:1 1292:1 
0 1 0.3013909898858042 0 0.2675870733295924 0:1 19:1 20:1 21:1 41:1 81:1 87:1 125:1 162:1 183:1 561:1 562:1 851:1 852:1 987:1 
0 0.5264580278255619 0 0 0 1:1 47:1 57:1 65:1 66:1 125:1 315:1 550:1 551:1 553:1 595:1 
0 0 0 0.08681002594605219 0 0:1 44:1 47:1 65:1 66:1 131:1 132:1 136:1 379:1 
0 0.05355088206553802 0 0 0.1329838281242089 0:1 41:1 57:1 80:1 81:1 125:1 162:1 183:1 222:1 224:1 374:1 379:1 702:1 703:1 1239:1 
0.07757400755291587 0 0 0.2328478206305542 0 0:1 34:1 91:1 145:1 179:1 386:1 477:1 531:1 565:1 567:1 747:1 748:1 794:1 1112:1 1249:1 2515:1 
0 0.1093849337106435 0 0 0 1:1 2:1 3:1 7:1 8:1 9:1 12:1 13:1 59:1 64:1 65:1 66:1 67:1 
0 1 1 1 0.67706395115511 0:1 1:1 21:1 65:1 66:1 101:1 136:1 139:1 145:1 146:1 
0.09933860975654542 0 0 0 0 0:1 1:1 47:1 65:1 66:1 104:1 235:1 262:1 263:1 264:1 315:1 595:1 
0 0.01055630860896884 0 0.01126940496742164 0 0:1 1:1 21:1 65:1 66:1 101:1 136:1 139:1 145:1 146:1 601:1 1529:1 1963:1 3909:1 
0 0 0.008082102227444746 0.06751187347790223 0 0:1 29:1 47:1 59:1 92:1 104:1 235:1 264:1 392:1 
0 0.03054045364585175 0 0.1396525125008338 0 0:1 34:1 41:1 57:1 62:1 77:1 125:1 145:1 162:1 531:1 546:1 547:1 860:1 2515:1 
0 0.06542720733262679 0 0 0 1:1 15:1 44:1 47:1 65:1 66:1 761:1 762:1 763:1 1143:1 3268:1 
0 0.1733323007342434 0.5183603428635657 0 0.2027897549322153 0:1 1:1 21:1 50:1 65:1 66:1 81:1 108:1 145:1 146:1 234:1 601:1 1046:1 2971:1 2972:1 3803:1 
0.2859754913127323 0.1348636331524511 1 0 0.05316284212457207 1:1 65:1 66:1 81:1 100:1 101:1 104:1 107:1 136:1 139:1 239:1 240:1 3930:1 
0 0.46336504736108 0 0.1408252280397507 0 1:1 47:1 57:1 65:1 66:1 125:1 304:1 305:1 550:1 551:1 553:1 
0.2677828030536737 0 0 0 0 0:1 1:1 5:1 6:1 10:1 15:1 21:1 27:1 34:1 35:1 145:1 146:1 416:1 418:1 647:1 3810:1 
0 0.2636387108928451 0 0 0 1:1 15:1 27:1 34:1 57:1 77:1 114:1 130:1 160:1 161:1 187:1 567:1 1249:1 
0 0 0.3782831152131389 0 0 0:1 1:1 10:1 19:1 41:1 59:1 81:1 100:1 101:1 104:1 107:1 145:1 239:1 240:1 523:1 524:1 1049:1 1054:1 1459:1 3299:1 3997:1 
0 0 0.02626186242645667 0 0 0:1 29:1 38:1 47:1 104:1 235:1 264:1 392:1 
0 0 0.0001974139646196786 0.0001391142110527348 0 0:1 1:1 6:1 15:1 21:1 27:1 29:1 34:1 35:1 38:1 137:1 138:1 2762:1 
0 0 1 0.09095461347143911 0 0:1 1:1 15:1 21:1 27:1 34:1 65:1 66:1 136:1 139:1 145:1 146:1 160:1 161:1 
0 0.03524196477999354 0 0 0 1:1 15:1 65:1 66:1 91:1 144:1 147:1 160:1 313:1 401:1 405:1 473:1 4005:1 
0 0 0 0 0.04750097420221924 0:1 1:1 15:1 41:1 77:1 91:1 120:1 121:1 130:1 313:1 401:1 405:1 
0 0 0 0.2272834098131814 0 0:1 1:1 15:1 18:1 39:1 42:1 43:1 44:1 47:1 182:1 1200:1 
0 0 0.6204646825055224 0.1850983191289079 0.06991839428982391 0:1 1:1 15:1 27:1 34:1 35:1 91:1 130:1 160:1 182:1 473:1 1893:1 
0 1 0 0 0 0:1 1:1 15:1 21:1 41:1 77:1 130:1 137:1 138:1 313:1 401:1 405:1 
0 0 0.9442360969259205 1 0 0:1 1:1 15:1 21:1 27:1 34:1 35:1 65:1 66:1 145:1 146:1 281:1 710:1 
0 0.1326073653219857 0.1709307811510491 0.3396937873261056 0 0:1 1:1 21:1 65:1 66:1 101:1 136:1 139:1 145:1 146:1 601:1 1529:1 1963:1 3909:1 
0.06500708858112215 1 0.4104642666392779 0 0 0:1 1:1 14:1 15:1 19:1 20:1 21:1 26:1 59:1 64:1 65:1 66:1 67:1 381:1 
0.1430286075445611 0 0 0.08729128875493745 0 0:1 1:1 15:1 18:1 21:1 27:1 34:1 35:1 49:1 1928:1 3706:1 3707:1 
0.2267210710288899 0.8099049273601762 1 0.1871804541657596 0 1:1 15:1 21:1 27:1 34:1 65:1 66:1 145:1 146:1 194:1 195:1 301:1 302:1 
0 0 0.2823458096764977 0.5794922124712345 0 0:1 1:1 15:1 27:1 34:1 65:1 66:1 91:1 160:1 161:1 304:1 305:1 567:1 1249:1 
0.06810830270441229 0 0 0.1883335199383879 0 0:1 1:1 47:1 65:1 66:1 104:1 136:1 139:1 263:1 
0.2232867302588455 0 0 0 0 1:1 3:1 9:1 47:1 65:1 66:1 268:1 270:1 271:1 458:1 459:1 1428:1 
0 0.04017590591559986 0 0 0.009691065830991788 0:1 9:1 29:1 47:1 50:1 51:1 92:1 672:1 1937:1 
0 0.2546095246562641 0 0 0 1:1 3:1 9:1 17:1 18:1 47:1 50:1 51:1 63:1 1356:1 2015:1 2016:1 
0.04979972382523033 0 0 0 0 1:1 3:1 65:1 66:1 91:1 136:1 139:1 268:1 270:1 546:1 547:1 1236:1 4123:1 
0 0 0 0.1229327091951606 0 0:1 1:1 15:1 18:1 27:1 34:1 35:1 38:1 49:1 91:1 120:1 121:1 
0.6239599143511224 0.2602621906471178 0 0 0 1:1 3:1 9:1 47:1 65:1 66:1 136:1 139:1 268:1 270:1 271:1 291:1 
0 0.05151963999298174 0.1198834644867902 0 0 41:1 69:1 71:1 80:1 323:1 374:1 527:1 702:1 703:1 772:1 776:1 1403:1 1719:1 2245:1 
0 0.1998744264375861 0 0 0 9:1 29:1 47:1 270:1 271:1 379:1 559:1 672:1 3025:1 
1 1 0 0.7444430432875118 0 0:1 1:1 15:1 44:1 47:1 65:1 66:1 136:1 139:1 
0 0 0 0.05285733317534699 0 1:1 15:1 21:1 65:1 66:1 112:1 119:1 145:1 146:1 320:1 324:1 387:1 1807:1 
0 0.7583901123833461 0 0 0 9:1 29:1 47:1 270:1 271:1 379:1 559:1 672:1 4150:1 
0.03790554648184481 0 0 0 0 0:1 1:1 6:1 15:1 27:1 34:1 137:1 166:1 167:1 168:1 169:1 179:1 820:1 
0.04980339582368303 0 0 0 0 1:1 3:1 65:1 66:1 91:1 136:1 139:1 268:1 270:1 546:1 547:1 1236:1 3445:1 
0 0 0 0.535300048835898 0 1:1 15:1 21:1 65:1 66:1 112:1 119:1 320:1 324:1 387:1 465:1 466:1 1185:1 
0 0 0.1328616996209242 0.2277660207597569 0 0:1 1:1 6:1 15:1 21:1 27:1 29:1 34:1 35:1 38:1 137:1 138:1 
0.2859992390364692 0.1348363814018737 1 0 0.05313074552389605 1:1 65:1 66:1 81:1 100:1 101:1 104:1 107:1 136:1 139:1 239:1 240:1 1180:1 
0 0.6314389119813804 0.3282992236437912 0 0 1:1 47:1 65:1 66:1 80:1 103:1 104:1 263:1 296:1 1382:1 1383:1 3274:1 
0 0 0.03814790377183809 0.3458887167535424 0 0:1 1:1 15:1 18:1 19:1 41:1 140:1 145:1 160:1 285:1 531:1 598:1 601:1 647:1 773:1 774:1 775:1 911:1 1136:1 2864:1 3295:1 
0 0.7814715714008441 0 0.1374037780199799 0 0:1 1:1 15:1 64:1 65:1 66:1 67:1 773:1 774:1 775:1 
0 0 0 1 0 0:1 1:1 15:1 27:1 34:1 35:1 49:1 91:1 120:1 121:1 130:1 579:1 
0 0 0 0.0141507129710585 0 0:1 1:1 15:1 18:1 21:1 114:1 137:1 138:1 313:1 401:1 405:1 622:1 2405:1 
0 0 0 0.03239598852371241 0 0:1 9:1 47:1 50:1 51:1 61:1 130:1 2705:1 2721:1 
0 0.96526876766916 0.06843329164331041 0 0 0:1 1:1 15:1 21:1 65:1 66:1 320:1 324:1 465:1 466:1 2378:1 2379:1 2380:1 
0.1379456276547199 0.03150656168871468 0 0 0 1:1 12:1 15:1 65:1 66:1 104:1 289:1 304:1 305:1 2245:1 2336:1 3732:1 4270:1 
0 0.3347801013781568 0 0 0 0:1 1:1 15:1 18:1 27:1 34:1 49:1 57:1 296:1 465:1 562:1 683:1 766:1 1485:1 
0.3692278451870541 1 0 6.765421556309548e-16 0 0:1 1:1 15:1 44:1 47:1 65:1 66:1 106:1 136:1 139:1 
0.1089748344998468 0.01721449153470117 0.09027418564686597 0 0 1:1 15:1 21:1 27:1 34:1 65:1 66:1 145:1 146:1 1143:1 2047:1 3268:1 4310:1 4311:1 
0 0 0 0.1990254928038096 0 1:1 3:1 9:1 18:1 80:1 114:1 187:1 374:1 461:1 585:1 587:1 588:1 1232:1 
0 0.2700168780674226 0.3314047648335657 0.2039918592805286 0.01886854979253426 1:1 15:1 21:1 27:1 34:1 65:1 66:1 145:1 146:1 176:1 245:1 1366:1 1367:1 1547:1 
0 0 0 0.009776142534941811 0 0:1 1:1 15:1 27:1 34:1 35:1 49:1 91:1 120:1 121:1 130:1 579:1 1951:1 
0 0 0 0 0.007514557339538995 0:1 1:1 15:1 21:1 65:1 66:1 145:1 146:1 157:1 158:1 883:1 887:1 1002:1 
0 0.008022427549150514 0 0 0 10:1 19:1 20:1 21:1 34:1 35:1 62:1 114:1 125:1 162:1 222:1 224:1 479:1 3963:1 
0 0 1 0 0 1:1 15:1 21:1 27:1 34:1 65:1 66:1 120:1 136:1 139:1 145:1 146:1 501:1 
0 0.9954138583344901 0 1 0 1:1 15:1 21:1 65:1 66:1 112:1 119:1 145:1 146:1 320:1 324:1 387:1 
0 0.9312729653114937 0 1 0 1:1 15:1 21:1 65:1 66:1 112:1 119:1 145:1 146:1 320:1 324:1 342:1 343:1 
0 0.04563822045525209 0 0 0 0:1 19:1 20:1 21:1 29:1 34:1 35:1 125:1 162:1 222:1 224:1 377:1 2555:1 3025:1 
0 0.1099508882834673 0 0 0 0:1 1:1 15:1 21:1 27:1 34:1 35:1 65:1 66:1 137:1 138:1 304:1 305:1 
0 0 0.004225646969021434 0 0 0:1 29:1 47:1 104:1 235:1 264:1 392:1 559:1 1349:1 
0 0.2582154634613871 0 0 0 0:1 17:1 19:1 34:1 125:1 162:1 183:1 208:1 222:1 224:1 323:1 702:1 703:1 765:1 2091:1 
1 0.5135832828302965 0 0 0 1:1 15:1 21:1 65:1 66:1 136:1 139:1 145:1 146:1 313:1 401:1 405:1 1324:1 
0 0 0.01537218032390895 0 0 0:1 29:1 47:1 104:1 235:1 264:1 392:1 559:1 1349:1 
0.04753594297376579 0 0 0.04875527314118044 0 1:1 15:1 21:1 27:1 34:1 35:1 65:1 66:1 145:1 146:1 194:1 195:1 1615:1 
0 0 0.06022773152916473 0.2039801286765308 0 0:1 1:1 6:1 15:1 27:1 29:1 34:1 38:1 137:1 166:1 167:1 168:1 169:1 
0.1496749051221851 0 0 0.044341087121808 0 1:1 10:1 15:1 21:1 27:1 34:1 35:1 49:1 130:1 145:1 146:1 173:1 683:1 
0.01766036874694258 0.4748581075484495 0.3631701195766507 0.3267041171180271 0.07816583720788088 0:1 1:1 19:1 20:1 21:1 49:1 130:1 184:1 263:1 540:1 748:1 749:1 1720:1 
0 0 0.225100770283084 0 0 1:1 3:1 9:1 12:1 13:1 65:1 66:1 281:1 686:1 687:1 688:1 710:1 1999:1 
0 0 0.101709208671211 0 0 1:1 15:1 21:1 27:1 34:1 65:1 66:1 145:1 146:1 281:1 474:1 710:1 748:1 749:1 
0 0 0.0143779421297009 0.3773624920335471 0 0:1 1:1 12:1 13:1 15:1 18:1 21:1 49:1 84:1 108:1 145:1 146:1 156:1 531:1 601:1 729:1 734:1 
0.3830412486718499 0 0 0 0 0:1 1:1 15:1 21:1 27:1 34:1 35:1 65:1 66:1 136:1 139:1 145:1 146:1 628:1 
0 0 0 0.01395985505702274 0 1:1 47:1 77:1 114:1 130:1 187:1 3421:1 3422:1 3423:1 3424:1 3425:1 
0.05148195385061737 0 0 0 0 0:1 1:1 17:1 47:1 130:1 3421:1 3422:1 3423:1 3424:1 3425:1 4484:1 
0.01749013351242097 0 0.02914637741069595 0.03507078795432303 0 0:1 1:1 15:1 21:1 27:1 34:1 65:1 66:1 136:1 139:1 145:1 146:1 150:1 2926:1 
0 0.3113498778170858 0.03488549537604138 0.04448498477345154 0 1:1 15:1 27:1 34:1 65:1 66:1 136:1 139:1 371:1 775:1 2577:1 2578:1 2667:1 2668:1 
0 0 0 0.1005541463174685 0 0:1 1:1 15:1 18:1 44:1 47:1 114:1 128:1 131:1 132:1 622:1 1873:1 
0 0.5278949396528126 0 0 0 1:1 15:1 39:1 41:1 42:1 43:1 44:1 47:1 130:1 291:1 1874:1 3088:1 
0 0.3862337547946473 0 0 0 0:1 1:1 10:1 15:1 39:1 42:1 43:1 44:1 47:1 61:1 130:1 
0 0.2221955891995941 0 0 0 59:1 62:1 80:1 81:1 103:1 104:1 107:1 114:1 125:1 162:1 222:1 224:1 479:1 2755:1 
0 0.01969655180531159 0 0 0 0:1 1:1 6:1 15:1 29:1 39:1 42:1 43:1 44:1 47:1 2607:1 2608:1 
0 0.00213946227954695 0 0 0 1:1 6:1 15:1 39:1 42:1 43:1 44:1 47:1 179:1 274:1 858:1 859:1 
0 1 0 0 0 0:1 1:1 15:1 39:1 42:1 43:1 44:1 47:1 77:1 130:1 613:1 
0 0.1846279133967592 0 0.04830229443794184 0 0:1 47:1 57:1 114:1 125:1 162:1 183:1 550:1 551:1 553:1 661:1 3718:1 
0 0.1414631495326251 0.001880722064819166 0.1679231674994404 0 0:1 1:1 15:1 65:1 66:1 136:1 139:1 775:1 834:1 3333:1 
0 0.00858292403481169 0.2276631404895515 0 0 0:1 1:1 21:1 65:1 66:1 101:1 145:1 146:1 281:1 710:1 1823:1 1826:1 1829:1 
0.3733578539087642 0.3162508044960357 0.1070044413840931 0 0.03191006710510499 0:1 47:1 179:1 184:1 255:1 1826:1 1828:1 4538:1 
0 0 0 0.2735271537053733 0 0:1 1:1 21:1 47:1 114:1 130:1 137:1 138:1 187:1 480:1 1854:1 1855:1 
0 0.261767668667527 0.01203705395054583 0 0 1:1 10:1 21:1 47:1 114:1 130:1 137:1 138:1 187:1 598:1 1854:1 1855:1 
0 0.4070284077815167 0 0 0 1:1 15:1 39:1 42:1 43:1 44:1 47:1 59:1 114:1 130:1 187:1 480:1 
0 0.01315584258914927 0 0 0 0:1 1:1 15:1 39:1 42:1 43:1 44:1 47:1 61:1 130:1 661:1 969:1 
0 0.2653446272251225 0 0 0 0:1 1:1 15:1 18:1 39:1 41:1 42:1 43:1 44:1 47:1 579:1 1898:1 
0.01447069448672368 0 0 0 0 0:1 1:1 15:1 17:1 18:1 91:1 120:1 121:1 313:1 401:1 405:1 2799:1 
0 1 0 0 0 1:1 15:1 39:1 42:1 43:1 44:1 47:1 77:1 114:1 130:1 288:1 
0 0.2200267981261791 0 0.2869015354748317 0.02360931702951808 0:1 1:1 15:1 19:1 20:1 21:1 61:1 120:1 130:1 1049:1 1428:1 3423:1 3874:1 
0 0 0 0.1411801875908338 0 0:1 1:1 3:1 18:1 61:1 91:1 120:1 121:1 268:1 270:1 1236:1 
0 0.08764022531834581 0 0 0 9:1 47:1 50:1 51:1 64:1 65:1 66:1 67:1 907:1 
0 0.05343044171865347 0 0 0 1:1 15:1 39:1 42:1 43:1 44:1 47:1 122:1 
0 0.1278095209425297 0 0 0 1:1 15:1 39:1 42:1 43:1 44:1 47:1 65:1 66:1 281:1 1086:1 1143:1 
0 0.07061157703290906 0.04140483154266261 0.1769770777802478 0.2125476751245834 0:1 57:1 81:1 84:1 107:1 108:1 125:1 145:1 162:1 182:1 183:1 228:1 647:1 1014:1 2100:1 2101:1 2843:1 3275:1 3837:1 
0 0 0 0.01096550812670945 0 42:1 43:1 44:1 47:1 87:1 114:1 130:1 187:1 2685:1 
0 0.007011037093642152 0 0 0 0:1 1:1 15:1 44:1 47:1 65:1 66:1 151:1 153:1 154:1 176:1 245:1 
0 0.4958628128311243 0 0 0 0:1 1:1 6:1 15:1 39:1 42:1 43:1 44:1 47:1 179:1 935:1 4433:1 
0 0.7749837522012429 0 0 0.01923089179403442 0:1 1:1 15:1 21:1 65:1 66:1 108:1 143:1 145:1 146:1 148:1 149:1 320:1 324:1 
0 0.03335417980528082 0 0 0 1:1 10:1 15:1 39:1 42:1 43:1 44:1 47:1 114:1 130:1 479:1 1150:1 
0 0 0 0 0.04624630075860738 12:1 17:1 81:1 104:1 107:1 125:1 162:1 183:1 222:1 224:1 289:1 529:1 2602:1 2603:1 
0 1 0 0 0 1:1 15:1 39:1 42:1 43:1 44:1 47:1 65:1 66:1 281:1 710:1 1138:1 
0 0.2468376062451041 0 0 0 0:1 1:1 14:1 15:1 18:1 21:1 26:1 41:1 53:1 54:1 137:1 138:1 2970:1 
0 0.3884338102175932 0 0 0 0:1 1:1 15:1 18:1 39:1 42:1 43:1 44:1 47:1 61:1 371:1 
0 1 0 0 0 42:1 43:1 44:1 47:1 77:1 318:1 390:1 391:1 
0 0 0 0.2110837315331154 0 1:1 15:1 21:1 65:1 66:1 108:1 143:1 145:1 146:1 148:1 149:1 153:1 458:1 459:1 2719:1 
0 0.07262126786124062 0.5736412724623959 0 0 1:1 21:1 47:1 65:1 66:1 202:1 206:1 465:1 466:1 1855:1 2115:1 4250:1 
0 0.00732433903888888 0 0 0 1:1 15:1 39:1 41:1 42:1 43:1 44:1 47:1 130:1 379:1 1296:1 3321:1 
0.1526495828088545 0 0 0 0 0:1 1:1 15:1 65:1 66:1 91:1 120:1 121:1 269:1 272:1 313:1 401:1 405:1 
0 1 0 0 0 0:1 1:1 10:1 15:1 39:1 42:1 43:1 44:1 47:1 114:1 130:1 390:1 
0 0 0.1158506882021011 0 0 0:1 1:1 15:1 27:1 34:1 64:1 65:1 66:1 67:1 467:1 468:1 773:1 774:1 775:1 
0 1 0 0 0 0:1 9:1 47:1 50:1 51:1 64:1 65:1 66:1 67:1 
0 0 0 0 0.01863196281109539 1:1 15:1 19:1 20:1 21:1 65:1 66:1 194:1 195:1 883:1 887:1 1002:1 2443:1 
0 0.5228261860572343 0 0 0 1:1 15:1 18:1 21:1 114:1 117:1 118:1 145:1 146:1 228:1 479:1 555:1 883:1 887:1 
0 0.2462529006276659 0 0 0 5:1 9:1 10:1 47:1 50:1 51:1 416:1 418:1 1492:1 
0 0.1111080176837139 0 0 0 5:1 9:1 10:1 47:1 50:1 51:1 416:1 418:1 1492:1 
0 0.07393711319215282 0.02690281814626773 0 0 1:1 3:1 9:1 47:1 65:1 66:1 268:1 270:1 271:1 2971:1 2972:1 3012:1 
0 0.01802626719988106 0 0 0 1:1 6:1 15:1 29:1 39:1 42:1 43:1 44:1 47:1 1138:1 1350:1 1685:1 
0.3313089413386534 0 0 0 0 0:1 1:1 15:1 21:1 27:1 34:1 35:1 137:1 138:1 1070:1 2169:1 4162:1 4163:1 
0 0.1441824461491254 0 0 0 0:1 5:1 9:1 47:1 50:1 51:1 579:1 638:1 672:1 
0 0 0 0.04993033466920183 0 1:1 3:1 9:1 18:1 47:1 49:1 50:1 51:1 53:1 63:1 1294:1 1295:1 
0 0.510730324166968 0.3576085797732334 0.4757196582950572 0 0:1 1:1 15:1 27:1 34:1 65:1 66:1 136:1 139:1 775:1 884:1 885:1 1072:1 
0 1 0 0.1896414993642624 0 0:1 49:1 55:1 57:1 62:1 77:1 125:1 162:1 180:1 425:1 426:1 429:1 
0.002343680789300215 0 0.8150787992537285 0.03897839827905446 0 0:1 1:1 19:1 65:1 66:1 81:1 104:1 110:1 136:1 139:1 203:1 239:1 240:1 263:1 2157:1 
0.2901338904383734 0 1 0.0485040195684117 0 1:1 15:1 21:1 27:1 34:1 35:1 65:1 66:1 145:1 146:1 194:1 195:1 2637:1 
0.9659331954214592 0.6899871523133505 0.3367441810509321 0.239917270160013 0.02815781873947012 47:1 91:1 94:1 179:1 279:1 280:1 1613:1 1671:1 4812:1 
0 0 0 0.003399281613606713 0 1:1 3:1 6:1 29:1 38:1 91:1 120:1 121:1 268:1 270:1 1234:1 1236:1 4243:1 
0 0 0 0.1978758233533135 0 0:1 1:1 3:1 6:1 9:1 29:1 87:1 268:1 270:1 271:1 4444:1 4445:1 
0 0.8842454760528552 0.6335683990553869 0.1923713611746989 0 0:1 1:1 15:1 65:1 66:1 104:1 112:1 119:1 320:1 324:1 540:1 661:1 735:1 1700:1 
0.07508560822623828 0 0 0 0 1:1 15:1 21:1 27:1 34:1 35:1 65:1 66:1 136:1 139:1 145:1 146:1 492:1 
0 0.189562084085621 0 0 0 17:1 38:1 47:1 57:1 96:1 97:1 124:1 125:1 162:1 183:1 2236:1 2685:1 
0 0 0 0.1983729640262044 0 0:1 1:1 15:1 18:1 27:1 34:1 35:1 49:1 53:1 91:1 160:1 473:1 
0 1 1 0 0 1:1 15:1 21:1 27:1 34:1 59:1 65:1 66:1 136:1 139:1 145:1 146:1 301:1 302:1 
0.05764104594931061 0.1639489126337871 0 0 0.1412941290726875 0:1 71:1 81:1 104:1 107:1 114:1 162:1 183:1 222:1 224:1 479:1 1428:1 3564:1 
0 0 0.1018318144131615 0 0 1:1 15:1 21:1 27:1 34:1 65:1 66:1 145:1 146:1 281:1 710:1 748:1 749:1 4195:1 
0.01749308153933704 0.02017698210362341 0.02922834747609806 0.03520192486756134 0 0:1 1:1 15:1 21:1 27:1 34:1 65:1 66:1 136:1 139:1 145:1 146:1 2927:1 2928:1 
-0 0.02219107785952754 0.01856030991464464 0.1484852317929013 0 0:1 47:1 91:1 94:1 179:1 279:1 280:1 281:1 282:1 
-0.5075164286235064 0.3989281295317915 1 0.2388572705902167 0.006052723331209727 47:1 104:1 179:1 239:1 240:1 308:1 309:1 310:1 311:1 
-0.1908692586093488 0 0 0.2485265951915248 0 0:1 1:1 15:1 18:1 21:1 27:1 30:1 31:1 34:1 35:1 38:1 61:1 
-0.7699298751207578 0 0 0 0 1:1 6:1 15:1 19:1 20:1 21:1 27:1 34:1 35:1 59:1 171:1 463:1 464:1 
-1 0.07419694150671086 0.02686842787918726 0.4228399262081791 0 1:1 6:1 15:1 19:1 20:1 21:1 27:1 34:1 35:1 59:1 171:1 463:1 464:1 
-0.2820045630591242 0.0747061269268362 0.02750276780775407 0.08901657373881225 0 1:1 6:1 15:1 19:1 20:1 21:1 27:1 34:1 35:1 59:1 171:1 449:1 600:1 
-0 0 0 0 0.01260416954082473 0:1 47:1 91:1 94:1 179:1 279:1 280:1 315:1 740:1 
-0.7216663268765345 0.5848134340143403 1 0.4742243172181536 0.02092818761272152 0:1 1:1 6:1 15:1 19:1 27:1 29:1 34:1 57:1 208:1 
-0 0.1632247247174622 0.01321220090712405 0.02751631198025755 0 29:1 47:1 91:1 94:1 279:1 280:1 379:1 516:1 915:1 
-0 0 0 0.07051283216337981 0 0:1 29:1 47:1 91:1 92:1 94:1 279:1 280:1 636:1 
-0.6448836636321174 0 0 0.3644163794655783 0 1:1 15:1 27:1 34:1 44:1 47:1 49:1 77:1 130:1 388:1 627:1 
-0.7789608922780533 0.3965048050523806 0.2875940051492245 0.3044626927656504 0 1:1 15:1 27:1 34:1 44:1 47:1 65:1 66:1 202:1 206:1 598:1 627:1 
-0.2398660404856051 0.3454960554509688 0.000102602336070821 0.1510371657975124 0 10:1 26:1 44:1 47:1 49:1 388:1 598:1 976:1 1111:1 
-0.8653281281844951 0.1410416154073354 0 0 0 1:1 14:1 15:1 26:1 44:1 47:1 66:1 293:1 294:1 295:1 764:1 976:1 
-0.225325037151506 0 0.08564011209430597 0 0 5:1 47:1 91:1 94:1 279:1 280:1 559:1 818:1 1158:1 
-0.2181528089911936 0 0.06776509584131379 0 0.0261042142435559 0:1 47:1 91:1 94:1 218:1 279:1 280:1 559:1 724:1 
-0.002945346696890053 0 0 0 0 0:1 5:1 44:1 47:1 279:1 280:1 318:1 
-0 1 0 0 0.1161483757704747 0:1 47:1 77:1 91:1 94:1 179:1 279:1 280:1 
-0 0.03646831438565006 0 0.02749798181029713 0 29:1 47:1 91:1 94:1 279:1 280:1 379:1 1219:1 1220:1 
-0.0007305560952572365 0 0 0 0 0:1 1:1 6:1 15:1 19:1 20:1 21:1 27:1 34:1 35:1 179:1 886:1 
-0 0.004091176846099813 0 0 0 0:1 29:1 47:1 91:1 94:1 279:1 280:1 559:1 1452:1 
-0.3759348218349741 0 0 0.3932101352604894 0 0:1 5:1 44:1 47:1 279:1 280:1 318:1 
-0.001308390437453112 0.2484390929786501 0 0 0 0:1 5:1 47:1 59:1 91:1 94:1 279:1 280:1 559:1 
-0.1692321924881572 0 0 0 0 0:1 29:1 47:1 91:1 94:1 279:1 280:1 607:1 1613:1 
-1 0 0.9600327059299838 1 0 0:1 1:1 15:1 21:1 27:1 34:1 35:1 65:1 66:1 145:1 146:1 194:1 195:1 
-0 0 0.07068806311275415 0 0.01804668058972007 1:1 6:1 15:1 19:1 20:1 21:1 27:1 34:1 35:1 173:1 179:1 310:1 312:1 
-0 0 0 0 0.0181309907253876 1:1 6:1 15:1 19:1 20:1 21:1 27:1 34:1 35:1 179:1 214:1 310:1 312:1 
-0.3051560581761209 0.2628889390269591 0.2444732971809387 0.1242275101415097 0.05799908723925594 0:1 57:1 61:1 125:1 162:1 183:1 279:1 427:1 623:1 624:1 1225:1 2104:1 
-0 0.09369998678062995 0.170678967584111 0.2667009940480381 0 1:1 15:1 19:1 20:1 21:1 27:1 34:1 35:1 59:1 449:1 2167:1 2168:1 2169:1 
-0.4558348491730113 0 0.610707952494553 0.07224075618993092 0 0:1 29:1 47:1 87:1 91:1 94:1 279:1 280:1 
-0 1 0.1876069703219397 0 0 0:1 29:1 47:1 59:1 91:1 94:1 279:1 280:1 559:1 
-0.2870168735612049 0.03793308898127803 0 0 0 0:1 29:1 47:1 91:1 94:1 106:1 279:1 280:1 559:1 
-0 0 0 0 0.1545132884350628 0:1 1:1 6:1 21:1 29:1 30:1 31:1 81:1 100:1 101:1 239:1 607:1 962:1 2456:1 
-0.1363601821594541 0.6774203282590353 0.6314371502872101 0.0177203759245638 0 1:1 10:1 15:1 27:1 30:1 34:1 35:1 59:1 81:1 104:1 114:1 130:1 187:1 239:1 540:1 1700:1 
-0 0 0 0 0.04924165105176146 1:1 6:1 21:1 29:1 30:1 31:1 81:1 100:1 101:1 239:1 962:1 2320:1 2785:1 2786:1 
-0 0 0 0.01236678372201655 0 0:1 1:1 10:1 15:1 21:1 27:1 30:1 31:1 34:1 35:1 49:1 59:1 130:1 
-0.3361903575472509 0 0 0 0 0:1 1:1 15:1 18:1 21:1 27:1 30:1 31:1 34:1 35:1 41:1 1937:1 
-0 0 0.00509088176141677 0.01620210984680466 0.1391573248380561 0:1 29:1 47:1 91:1 92:1 94:1 279:1 280:1 
-0.5114886537339078 0.7071191690412011 0.8118444453149921 0.2798052713785993 0.8715973752334958 1:1 65:1 66:1 81:1 91:1 100:1 101:1 107:1 136:1 139:1 301:1 1581:1 3136:1 
-0.1875650585818519 0.1342412854046416 0.1189066355327908 0.2894129708807988 0.04167056366621354 34:1 35:1 69:1 71:1 179:1 323:1 606:1 1019:1 1021:1 1942:1 1943:1 1944:1 1945:1 
-0 0 0 0.003155485438921107 0 0:1 47:1 91:1 94:1 139:1 179:1 279:1 280:1 497:1 
-0.0348312809577174 0 0 0 0 0:1 1:1 14:1 15:1 21:1 26:1 30:1 31:1 54:1 65:1 66:1 136:1 139:1 
-1 1 0.134772116898995 0.3907951815419033 0 0:1 26:1 29:1 44:1 47:1 318:1 976:1 3611:1 
-1 1 0 0 0 0:1 1:1 15:1 21:1 65:1 66:1 136:1 139:1 145:1 146:1 313:1 401:1 405:1 
-1 1 0.4191359403016618 0.7622678653498933 0 0:1 1:1 15:1 21:1 65:1 66:1 136:1 139:1 145:1 146:1 313:1 401:1 405:1 
-0.2070799435943096 0 0 0 0 0:1 1:1 15:1 44:1 47:1 65:1 66:1 136:1 139:1 313:1 314:1 401:1 
-1 0.3876758625703014 0 0 0 0:1 1:1 15:1 44:1 47:1 65:1 66:1 136:1 139:1 313:1 314:1 401:1 
-1 1 0 0.240501264934734 0.0003519165927416575 0:1 44:1 47:1 53:1 179:1 313:1 314:1 318:1 559:1 
-1 0.9895003321307002 0 0 0 0:1 1:1 15:1 44:1 47:1 65:1 66:1 136:1 139:1 313:1 314:1 401:1 
-1 1 0.1438731834717573 0.02322740394810234 0.1193925027357472 1:1 15:1 21:1 65:1 66:1 136:1 139:1 145:1 146:1 291:1 313:1 401:1 405:1 
-0.2960565266286621 0.09460773297232582 0.1715839247021296 0.01647787977605069 0 1:1 15:1 19:1 20:1 21:1 27:1 34:1 35:1 59:1 464:1 2167:1 2168:1 2169:1 
-0.06498540767185228 0 0 0 0 0:1 1:1 6:1 15:1 19:1 20:1 21:1 27:1 34:1 35:1 179:1 606:1 
-0 0 0 0.0002277918879861618 0 0:1 29:1 47:1 91:1 92:1 94:1 279:1 280:1 3821:1 
-0.4701582145548157 0.2156557487625759 0.03071758913480385 0.1762343169802207 0 0:1 1:1 3:1 18:1 21:1 61:1 268:1 270:1 275:1 276:1 1236:1 4034:1 
-0.214718421281541 0.5866499509228242 0.5127148466687281 0.1649913264629423 0.4560691036512165 0:1 1:1 21:1 81:1 100:1 101:1 107:1 114:1 130:1 184:1 288:1 3391:1 3392:1 
-0.4741579550989443 0.7245654353486534 0.8849223898200244 0.2703297966595584 0.3393325877585128 0:1 1:1 47:1 65:1 66:1 101:1 255:1 713:1 1387:1 
-0.07895367799915423 0 0 0 0 1:1 6:1 15:1 21:1 27:1 34:1 35:1 173:1 179:1 649:1 1019:1 1020:1 1021:1 
-0.1263734058661347 0.1129941107574306 0.05866620415591609 0.04175312879439869 0 0:1 1:1 6:1 15:1 19:1 20:1 21:1 27:1 34:1 35:1 179:1 214:1 3663:1 
-0.2355685100121953 0.1437545412168879 0.2187283663627048 0.07694322646731402 0 1:1 15:1 17:1 18:1 21:1 27:1 34:1 35:1 275:1 276:1 931:1 1421:1 2916:1 
-0.5130330720893821 0.1027000469176608 0.3470201274685591 0.1258791895282846 0.005815942862574973 0:1 1:1 15:1 19:1 20:1 21:1 27:1 34:1 35:1 1070:1 2169:1 4162:1 4163:1 
-0.6280391299556076 0.7714264031855869 1 0.08360621591778769 0 0:1 1:1 6:1 15:1 19:1 20:1 21:1 27:1 34:1 35:1 179:1 607:1 
-1 0.2817019520761709 1 0.7839437749203689 0 0:1 1:1 15:1 21:1 27:1 34:1 35:1 65:1 66:1 145:1 146:1 458:1 459:1 
-1 1 1 0.3479138749645229 0.1597447508975489 0:1 1:1 14:1 15:1 21:1 26:1 54:1 65:1 66:1 145:1 146:1 194:1 195:1 
-0.5903494045711758 0.3971723042681757 0.5165287076159324 0.5862451213105009 0.1756519572442312 0:1 1:1 34:1 65:1 66:1 91:1 108:1 145:1 176:1 245:1 410:1 764:1 794:1 3305:1 
-0 0.7217563210783069 0.2837427847131517 0 1 1:1 47:1 65:1 66:1 81:1 100:1 101:1 176:1 245:1 254:1 255:1 661:1 
-0.5846733125683646 0.3206195262786841 0.4492559873721937 0.2373418944587904 0.120832868697506 0:1 1:1 12:1 15:1 65:1 66:1 104:1 289:1 315:1 595:1 2245:1 2336:1 3732:1 
-1 0.2622556699451061 0.1266099540152883 0.2953572051730787 0.03168861005476089 0:1 1:1 15:1 44:1 47:1 66:1 293:1 294:1 295:1 3360:1 3361:1 3362:1 
-1 0.7093612116473881 0 0.1899342853361013 0.1039001378195559 0:1 1:1 3:1 9:1 47:1 65:1 66:1 268:1 270:1 271:1 315:1 595:1 
-1 0.3047317160415016 0 0.08929506288791414 0 1:1 3:1 9:1 47:1 65:1 66:1 268:1 270:1 271:1 1382:1 1383:1 1645:1 
-0 0 0 0.09903168686867983 0 0:1 10:1 47:1 91:1 94:1 179:1 279:1 280:1 
-0 0.004024532944562833 0 0 0 0:1 29:1 47:1 91:1 94:1 279:1 280:1 559:1 4379:1 
-1 0.3651681619956933 1 1 0 0:1 1:1 15:1 19:1 20:1 21:1 27:1 34:1 35:1 65:1 66:1 136:1 139:1 
-0.1182841170312248 0 0 0 0 0:1 1:1 15:1 21:1 27:1 30:1 31:1 34:1 35:1 61:1 130:1 137:1 184:1 465:1 3072:1 4350:1 
-0.2101443207883784 0 0.07482891812292494 0 0 1:1 6:1 15:1 19:1 20:1 21:1 27:1 34:1 35:1 170:1 171:1 172:1 173:1 
-0 0.1043720626677889 0.5701654654633946 0.1118567154261316 0.2609456516722825 0:1 1:1 18:1 21:1 30:1 31:1 80:1 81:1 100:1 101:1 106:1 182:1 374:1 
-0 0.4090901130676775 0 0 0 0:1 47:1 91:1 94:1 179:1 279:1 280:1 607:1 1541:1 
-0.6519986120596705 0.3385039547784433 0.5797449527311511 0.3892907666930611 1 47:1 65:1 66:1 81:1 176:1 245:1 254:1 255:1 1748:1 
-0.7937233946596278 0.3818378491544967 0.4116343454837048 0.2609538966470891 0.03640611249230698 0:1 5:1 47:1 91:1 386:1 416:1 467:1 559:1 1428:1 
-0.3066264696698406 0.4028625310648645 0.5073793549125822 0.4556286640361999 0.07613459373278238 0:1 29:1 47:1 91:1 94:1 3087:1 4678:1 4679:1 4681:1 
-0.6171611039941879 0.09082573052894245 0.08565291662076353 0.1711296988917804 0 0:1 1:1 6:1 15:1 19:1 20:1 21:1 27:1 34:1 35:1 59:1 171:1 2077:1 
-0 0 0 0.003340381068683729 0 0:1 47:1 91:1 94:1 139:1 179:1 279:1 280:1 2164:1 
-0.155466490594442 0.1439290213345303 0.002087315741261844 0.002719786266938369 0.01051537488416442 0:1 47:1 91:1 162:1 794:1 1070:1 3684:1 4678:1 4679:1 
-0.1186522690583105 0 0 0 0 47:1 91:1 94:1 179:1 279:1 280:1 3662:1 3714:1 4812:1 
-1 0.2625388686091723 0.6063063470393452 0.4217738018619245 0.04777670892157284 1:1 10:1 15:1 21:1 27:1 34:1 108:1 114:1 130:1 145:1 146:1 270:1 421:1 467:1 468:1 485:1 
-0.547087020833907 0.2543054974263337 0.2366341635535983 0.3277463818400457 0 0:1 1:1 3:1 9:1 27:1 34:1 65:1 66:1 725:1 1143:1 3268:1 3332:1 
-0.3576852330183506 0.09771081177022249 0.1173715308948511 0.08358193307045787 0 0:1 1:1 6:1 15:1 19:1 20:1 21:1 27:1 34:1 35:1 179:1 886:1 
-0.1880533144355215 0.2468334368538998 0 0.1616430102366067 0 0:1 1:1 3:1 18:1 21:1 29:1 30:1 31:1 50:1 63:1 1094:1 1428:1 
-0.561203098146255 -0.002471625028138779 0.05598123867692271 1 0 0:1 1:1 15:1 21:1 59:1 65:1 66:1 108:1 135:1 136:1 137:1 138:1 139:1 140:1 141:1 
-0 -0 0.5105427954259257 0 0 0:1 47:1 91:1 94:1 174:1 175:1 176:1 179:1 
-0 -0 0 0 0.04549002824180787 0:1 47:1 55:1 56:1 57:1 125:1 162:1 180:1 182:1 183:1 184:1 
-0.1697070379089004 -0.1378545153781098 0 0 0.2416003475443591 0:1 17:1 62:1 81:1 125:1 162:1 222:1 224:1 254:1 255:1 256:1 258:1 
-0.3716247931697127 -0.1807723983541961 0.1853444987373271 0.1002453389454539 0 1:1 12:1 18:1 47:1 104:1 114:1 263:1 287:1 288:1 289:1 290:1 291:1 
-1 -0 0.4711225685244543 0.110070002435701 0 1:1 15:1 66:1 80:1 103:1 104:1 292:1 293:1 294:1 295:1 296:1 297:1 298:1 
-0 -0.5281531054382196 0 0.03554095526088036 0 0:1 44:1 47:1 179:1 313:1 314:1 315:1 318:1 
-0.9058874605736708 -0 0 0.08097834154471516 0 0:1 1:1 12:1 13:1 15:1 59:1 65:1 66:1 320:1 321:1 323:1 324:1 
-0.843621998775927 -0 0 0.1194719595811819 0 1:1 15:1 18:1 44:1 47:1 96:1 97:1 114:1 124:1 327:1 328:1 329:1 
-0.2859000217151164 -0 0 0 0 0:1 29:1 47:1 91:1 381:1 382:1 384:1 386:1 
-0 -0 0.08343154426621043 0.3011248224391901 0.04186277241218155 0:1 1:1 15:1 19:1 20:1 21:1 65:1 66:1 108:1 174:1 176:1 245:1 397:1 400:1 
-0.1974919239599094 -0 0 0 0 0:1 55:1 57:1 125:1 162:1 180:1 182:1 183:1 425:1 426:1 427:1 429:1 
-0.1695925654872218 -0 0 0.05695526710822968 0 0:1 49:1 55:1 57:1 62:1 125:1 162:1 180:1 425:1 426:1 429:1 435:1 
-0.8342833536791484 -0 0.08627930968120313 0 0 42:1 43:1 44:1 47:1 49:1 449:1 450:1 451:1 452:1 
-0.2215845722967504 -0.003741259655784505 0.05847656157541442 0 0 0:1 47:1 57:1 61:1 125:1 162:1 173:1 183:1 453:1 455:1 456:1 
-0 -0.08679552674808136 0 0 0 0:1 47:1 53:1 91:1 94:1 174:1 175:1 179:1 497:1 
-0.4227834734647932 -0.03468490099133194 0.7438840227726087 0.2798091613181637 0 0:1 5:1 47:1 59:1 91:1 92:1 94:1 513:1 514:1 
-0.3611016210789185 -0.03599848072214046 0.1240740439705434 0 0.115169940534809 0:1 1:1 14:1 15:1 26:1 41:1 77:1 91:1 130:1 540:1 545:1 546:1 547:1 
-0 -0 0 0.5459155451042057 0 0:1 47:1 91:1 94:1 179:1 381:1 382:1 579:1 
-0 -0 0.1774732111853158 0 0 0:1 29:1 47:1 91:1 94:1 580:1 581:1 582:1 
-0.4940316798606709 -0 0.7556592227859776 0 0 0:1 29:1 47:1 91:1 94:1 559:1 580:1 581:1 607:1 
-1 -0 0 0.1805050082448822 0 0:1 9:1 29:1 47:1 50:1 51:1 670:1 671:1 672:1 
-0.3869702035780844 -0.00277717890103448 0.2003582299988479 0.8220194888336069 0.02629203070373964 1:1 15:1 18:1 41:1 91:1 120:1 121:1 201:1 209:1 215:1 418:1 666:1 673:1 
-0.1432842504452042 -0.1425539349121485 0.04614100369410599 0 0 0:1 1:1 19:1 20:1 21:1 66:1 110:1 174:1 293:1 294:1 295:1 794:1 795:1 
-1 -0 0 0 0 0:1 42:1 43:1 44:1 47:1 59:1 318:1 390:1 391:1 
-1 -0 0 0 0 0:1 1:1 15:1 17:1 39:1 42:1 43:1 44:1 47:1 77:1 130:1 
-0 -0 0 0 0.1317672779081795 0:1 1:1 18:1 21:1 61:1 81:1 100:1 101:1 107:1 645:1 824:1 825:1 
-0.07004844652399222 -0 0 0 0.2986443971668211 0:1 19:1 20:1 21:1 29:1 81:1 125:1 162:1 222:1 224:1 377:1 607:1 851:1 852:1 
-0.7886176737125883 -0 0 0.1045293600731656 0 0:1 19:1 20:1 21:1 41:1 117:1 118:1 119:1 125:1 162:1 183:1 222:1 224:1 873:1 
-1 -0 0 0.6087778951992696 0 0:1 9:1 29:1 47:1 270:1 271:1 559:1 579:1 672:1 
-1 -0 0 0 0 0:1 9:1 29:1 47:1 270:1 271:1 672:1 914:1 
-0 -0 0 0.02350402953996578 0 0:1 47:1 55:1 56:1 57:1 62:1 125:1 162:1 180:1 182:1 925:1 
-1 -0.07419522966718044 0 0 0 0:1 1:1 14:1 15:1 26:1 44:1 54:1 64:1 65:1 66:1 67:1 935:1 
-0.7161135148221284 -0 0 0 0.01214500792611399 0:1 1:1 14:1 15:1 19:1 21:1 26:1 54:1 64:1 65:1 66:1 67:1 106:1 108:1 145:1 146:1 951:1 
-1 -0.2542950148187119 0 0 0 1:1 14:1 15:1 26:1 44:1 47:1 65:1 66:1 320:1 324:1 976:1 977:1 
-0 -0.082942291955436 0.2329522676007343 0 0 1:1 6:1 21:1 29:1 81:1 100:1 101:1 107:1 607:1 824:1 825:1 993:1 994:1 
-0.270334257741562 -0 0 0 0.1071437315716242 62:1 77:1 81:1 114:1 125:1 162:1 222:1 224:1 254:1 255:1 258:1 552:1 
-1 -0 0 0 0 1:1 15:1 39:1 42:1 43:1 44:1 47:1 77:1 130:1 613:1 1022:1 
-0 -0 0 0.2607305098123827 0 0:1 10:1 29:1 47:1 91:1 94:1 580:1 581:1 
-1 -0 0 0 0 1:1 15:1 39:1 42:1 43:1 44:1 47:1 65:1 66:1 281:1 710:1 1032:1 
-0 -0.6039862910555975 0 0 1 0:1 1:1 65:1 66:1 81:1 91:1 100:1 101:1 107:1 136:1 139:1 381:1 382:1 
-0 -0 0.1516780041804603 0 0 0:1 29:1 57:1 117:1 125:1 162:1 222:1 224:1 389:1 1040:1 1041:1 1042:1 
-1 -1 0 0 0 0:1 1:1 15:1 21:1 65:1 66:1 136:1 139:1 145:1 146:1 313:1 401:1 405:1 
-0.7830060503394832 -0.2850083309580566 0.2637224097701368 0.4763938644585097 0 0:1 1:1 14:1 15:1 26:1 54:1 61:1 77:1 91:1 130:1 504:1 1066:1 
-1 -0.3703395573120152 0.5930007487149944 0.1747240740827701 0.202570102669846 0:1 1:1 6:1 10:1 81:1 100:1 101:1 104:1 107:1 145:1 239:1 240:1 1070:1 1072:1 1073:1 
-0 -0 0.08285231548115961 0.05434311004085299 0.6685587776090761 0:1 29:1 47:1 91:1 92:1 94:1 381:1 382:1 1100:1 
-0 -0 0 0.6699365078299725 0 47:1 49:1 55:1 56:1 57:1 62:1 77:1 1120:1 
-1 -0.2829212590146442 0.4696246031099108 0.1594319596796374 0 0:1 1:1 15:1 19:1 20:1 21:1 27:1 34:1 64:1 65:1 66:1 67:1 1138:1 
-0.05989205875374155 -0 0 0 0 0:1 47:1 57:1 65:1 125:1 162:1 332:1 334:1 335:1 1143:1 
-0 -0 0.0918768716843672 0 0 29:1 47:1 91:1 92:1 94:1 475:1 476:1 1187:1 
-0 -0 0.06330642034360943 0 0 29:1 47:1 91:1 92:1 94:1 475:1 476:1 1205:1 
-0 -0 0.01215606202954496 0 0 0:1 29:1 47:1 91:1 94:1 580:1 581:1 1213:1 
-0 -0 0 0.002845361322939184 0 19:1 20:1 21:1 62:1 77:1 81:1 114:1 125:1 162:1 552:1 561:1 562:1 851:1 852:1 
-0.06649662774493656 -0 0 0 0 0:1 29:1 47:1 91:1 94:1 381:1 382:1 559:1 
-0 -0 0.1758626960062994 0.2669153995617206 0 0:1 29:1 47:1 91:1 94:1 513:1 514:1 516:1 1266:1 
-0 -0 0.03176985670707478 0 0 29:1 47:1 91:1 92:1 94:1 475:1 476:1 1086:1 1242:1 
-0.08891838754247205 -0 0.002631298702777909 0 0 0:1 5:1 47:1 91:1 94:1 475:1 476:1 516:1 1514:1 
-0 -0 0.0634931703404729 0 0 29:1 47:1 91:1 92:1 94:1 475:1 476:1 1538:1 
-0 -0.07584757970358537 0.08057557478685431 0.04286380872120066 0 0:1 1:1 15:1 65:1 66:1 299:1 301:1 775:1 884:1 885:1 1033:1 1034:1 
-0.2432508002819705 -0.2584894288190134 0.5285719002446715 0 0 0:1 29:1 47:1 91:1 94:1 301:1 559:1 1581:1 1582:1 
-0 -0.06179450308808101 0 0 0 0:1 1:1 47:1 57:1 65:1 66:1 125:1 304:1 305:1 332:1 334:1 335:1 
-0.1251107355210762 -0 0 0 0 47:1 55:1 56:1 57:1 65:1 77:1 125:1 162:1 180:1 202:1 1322:1 
-0.5750526974103092 -0 0.6891253795117689 0.4423997446805278 0 0:1 1:1 15:1 18:1 19:1 20:1 21:1 27:1 34:1 114:1 479:1 493:1 494:1 555:1 
-0 -0 0.4083652883248008 1 0.02694003507240405 1:1 15:1 21:1 65:1 66:1 145:1 146:1 176:1 245:1 1870:1 1871:1 1872:1 
-0 -0.1648726883316635 0.2589863607880483 0.02518498668916391 0 47:1 91:1 94:1 179:1 295:1 301:1 740:1 1581:1 1886:1 
-0.4218110278717443 -0.1355364055634558 0.0387234293910006 0.3293641801159976 0 0:1 26:1 29:1 44:1 47:1 318:1 579:1 976:1 1978:1 
-1 -0 0 0.2248447566308089 0 0:1 5:1 10:1 47:1 57:1 125:1 162:1 377:1 550:1 551:1 553:1 
-0.7320028137247468 -0 0 0 0 1:1 15:1 17:1 18:1 39:1 42:1 43:1 44:1 47:1 371:1 2015:1 2016:1 
-1 -0 0 0 0 0:1 1:1 15:1 39:1 42:1 43:1 44:1 47:1 77:1 130:1 613:1 
-0 -0 0 0 1 1:1 65:1 66:1 81:1 91:1 100:1 101:1 107:1 136:1 139:1 381:1 382:1 715:1 
-1 -0 0.4761909525713098 0.008910672868556164 0 1:1 15:1 21:1 34:1 59:1 65:1 66:1 108:1 145:1 146:1 315:1 491:1 495:1 540:1 595:1 855:1 856:1 
-1 -0.1682069956039068 0.6123305171029501 0.6698930587263948 0.0288526042549293 0:1 1:1 15:1 21:1 66:1 108:1 145:1 146:1 160:1 293:1 294:1 295:1 491:1 495:1 598:1 
-0.09926510919773872 -1 0 0.1613276591698937 0 0:1 47:1 59:1 91:1 94:1 179:1 279:1 280:1 559:1 
-0 -0 0 0.01544143256735842 0 62:1 77:1 114:1 125:1 162:1 168:1 327:1 332:1 334:1 519:1 520:1 2182:1 
-0 -0 0 0 1 1:1 65:1 66:1 81:1 91:1 100:1 101:1 107:1 136:1 139:1 381:1 382:1 2196:1 
-0 -0 0.7167040126821654 0 0 0:1 1:1 15:1 21:1 65:1 66:1 145:1 146:1 281:1 299:1 301:1 302:1 710:1 
-1 -0.5110367634465388 1 0.812486397732067 0 0:1 29:1 47:1 91:1 94:1 559:1 1428:1 
-1 -0 0 0 0 1:1 15:1 21:1 65:1 66:1 106:1 137:1 138:1 320:1 324:1 2378:1 2379:1 2380:1 
-0 -0 0.2682771169230448 0 0.1673944838685324 0:1 29:1 47:1 91:1 92:1 94:1 174:1 175:1 218:1 
-0.1283761328661747 -0 0 0 0 47:1 57:1 62:1 77:1 114:1 125:1 162:1 564:1 2565:1 2566:1 2567:1 
-1 -0 0 0.5380458690348259 0 0:1 1:1 15:1 39:1 42:1 43:1 44:1 47:1 59:1 61:1 130:1 389:1 
-0 -0.1005425565459205 0 0 0 1:1 15:1 21:1 65:1 66:1 145:1 146:1 299:1 301:1 302:1 315:1 595:1 2660:1 
-0 -0 0 0 1 1:1 65:1 66:1 81:1 91:1 100:1 101:1 107:1 136:1 139:1 381:1 382:1 
-0.2152613718031021 -0 0.005274602350909928 0 0 0:1 5:1 10:1 47:1 57:1 125:1 162:1 173:1 356:1 358:1 359:1 377:1 
-0.05589245451718586 -0 0.008396779365892802 0.07767880986746936 0 0:1 47:1 57:1 59:1 62:1 125:1 162:1 182:1 453:1 455:1 456:1 2755:1 
-0 -5.501973352998549e-05 0 0 0 1:1 47:1 55:1 56:1 57:1 65:1 66:1 125:1 180:1 315:1 595:1 598:1 
-1 -0.5547745456289159 0.8179447097037409 1 0 0:1 1:1 3:1 9:1 27:1 34:1 35:1 65:1 66:1 202:1 206:1 1035:1 2702:1 
-0.7758220011790332 -0 0 0.09483433741557168 0 0:1 5:1 9:1 10:1 47:1 475:1 476:1 672:1 
-0.3689470004669728 -0.4921579447594995 1 0.4750417240737096 1 0:1 1:1 21:1 65:1 66:1 81:1 100:1 101:1 136:1 139:1 145:1 146:1 2930:1 
-0.1851969941919513 -0.288614463222291 0.3292463156973139 0 1 0:1 1:1 65:1 66:1 81:1 100:1 101:1 107:1 136:1 139:1 1366:1 2936:1 2937:1 
-1 -0 0.07972039764404762 0.2555583195957107 0 0:1 42:1 43:1 44:1 47:1 130:1 613:1 2941:1 
-1 -0.3735425640344509 0.08494756838053057 0 0 1:1 15:1 39:1 42:1 43:1 44:1 47:1 65:1 66:1 713:1 1104:1 1387:1 
-0 -0 0 0 0.1538742665853281 0:1 47:1 57:1 114:1 125:1 162:1 183:1 327:1 332:1 334:1 335:1 652:1 
-1 -0.8007237188731716 0.06423586098953356 0.01322762869429608 0 1:1 15:1 21:1 65:1 66:1 136:1 139:1 145:1 146:1 313:1 401:1 405:1 790:1 
-0 -0.2272679919010847 0.4493805575313956 0.111455762856439 1 1:1 19:1 20:1 21:1 59:1 65:1 66:1 81:1 100:1 101:1 136:1 139:1 851:1 852:1 
-0.4235206687421885 -0 0 0 0 47:1 55:1 56:1 57:1 61:1 125:1 162:1 180:1 183:1 579:1 2104:1 3089:1 
-0.1292630118991739 -0 0.2140736373107052 0.1134877906141873 0.07148634080224718 1:1 17:1 21:1 77:1 81:1 100:1 101:1 107:1 130:1 765:1 824:1 825:1 
-1 -0.3932478444936121 0.9008748529781729 1 0 0:1 1:1 15:1 21:1 27:1 34:1 65:1 66:1 136:1 139:1 145:1 146:1 342:1 343:1 
-0.8777238001005798 -0 0 0.5372309178296021 0 0:1 44:1 47:1 179:1 318:1 379:1 762:1 763:1 889:1 
-1 -1 0.9997106680566125 0.1633589354661405 0 0:1 29:1 47:1 91:1 94:1 279:1 280:1 559:1 607:1 
-0 -0.2038342088885521 0 0 0 0:1 5:1 47:1 91:1 94:1 184:1 475:1 476:1 
-1 -1 0.1025703942340818 0.1827399879667458 0 0:1 1:1 15:1 21:1 65:1 66:1 136:1 139:1 145:1 146:1 313:1 401:1 405:1 
-1 -1 1 0.7318035605168894 0 0:1 1:1 6:1 10:1 15:1 27:1 29:1 34:1 35:1 59:1 104:1 540:1 1700:1 
-0 -0 0.1282229320162355 0 0 0:1 29:1 47:1 91:1 94:1 174:1 175:1 1649:1 
-1 -0.3317504728077337 1 1 0 1:1 15:1 21:1 65:1 66:1 112:1 119:1 194:1 195:1 387:1 465:1 466:1 
-0 -0 0.08937889500529841 0.1734801975509004 0.06288878271889464 0:1 1:1 15:1 21:1 65:1 66:1 145:1 146:1 174:1 176:1 245:1 395:1 2276:1 
-1 -0.05076698144409694 0 0 0.09340202237648715 0:1 1:1 15:1 39:1 41:1 42:1 43:1 44:1 47:1 130:1 291:1 3088:1 
-1 -0 0 0 0 0:1 44:1 47:1 179:1 281:1 313:1 314:1 318:1 
-0.7637902591394314 -0.8729897565308415 0 0 0 0:1 44:1 47:1 179:1 313:1 314:1 318:1 
-0.004398058844484524 -0 0 0.06397487663170805 0 0:1 29:1 44:1 47:1 281:1 313:1 314:1 318:1 2272:1 
-0.0005915263487451189 -0 0 0.03373910070067801 0 0:1 29:1 44:1 47:1 313:1 314:1 318:1 3098:1 3245:1 
-0.230523882848244 -0 0.2601591089228066 0.2215643632105659 0 0:1 47:1 91:1 94:1 139:1 179:1 1873:1 2930:1 
-0 -0.1083803237421979 0 0.3093086641382795 0 0:1 29:1 47:1 53:1 91:1 94:1 580:1 581:1 1213:1 
-1 -0 0.8246997237189775 1 0.1009790969490406 0:1 1:1 21:1 65:1 66:1 101:1 136:1 139:1 145:1 146:1 3271:1 
-1 -0.09021941851717184 1 0.4853347950814317 0 1:1 47:1 65:1 66:1 80:1 103:1 104:1 136:1 139:1 263:1 3274:1 
-0.1317363500706069 -0.124383486138067 0 0 0.3642559236493424 0:1 1:1 18:1 81:1 101:1 108:1 114:1 224:1 228:1 255:1 410:1 479:1 555:1 
-0 -0 0.01923444054317059 0 0 5:1 47:1 91:1 94:1 475:1 476:1 559:1 841:1 3303:1 
-1 -0 0 0 0 0:1 1:1 15:1 39:1 42:1 43:1 44:1 47:1 77:1 130:1 613:1 
-0.9206381194121573 -0 0 0 0 1:1 15:1 39:1 42:1 43:1 44:1 47:1 77:1 130:1 613:1 683:1 
-1 -0 0 0 0 0:1 1:1 15:1 39:1 42:1 43:1 44:1 47:1 65:1 66:1 281:1 710:1 
-0.5858801446487681 -0 0 0 0 1:1 15:1 39:1 42:1 43:1 44:1 47:1 77:1 130:1 613:1 3147:1 
-0.71531008247826 -0.1197789518402803 0.2702895491323716 0.2857627463664273 0 0:1 1:1 15:1 18:1 19:1 20:1 21:1 27:1 34:1 35:1 114:1 187:1 645:1 714:1 911:1 
-0.09756720752455647 -0.04990800809975795 0.2414688961014424 0.5309895072413862 0 0:1 1:1 15:1 18:1 19:1 20:1 21:1 27:1 34:1 35:1 108:1 110:1 114:1 145:1 187:1 248:1 461:1 601:1 911:1 914:1 1031:1 1793:1 3332:1 
-0 -0.02262931028190544 0.02293776556412398 0 0 0:1 47:1 49:1 57:1 125:1 162:1 183:1 332:1 334:1 335:1 2497:1 
-0.103074881569694 -0.08700908209696136 0.06976605090632884 0 0 1:1 14:1 15:1 26:1 54:1 91:1 184:1 504:1 1066:1 
-1 -0.1283486800700917 0.09425318876709508 0.08666493590861422 0 0:1 47:1 57:1 61:1 125:1 162:1 183:1 214:1 
-0 -0 0 0.02274585938657882 0 55:1 57:1 61:1 62:1 77:1 125:1 162:1 180:1 219:1 425:1 426:1 429:1 
-0.5605809844689098 -0 0 0 0.08640105211027171 0:1 49:1 55:1 57:1 125:1 162:1 180:1 183:1 218:1 425:1 426:1 429:1 3406:1 
-1 -0.1889558154682099 0.4633938261340865 0.6139013948163107 0 1:1 15:1 21:1 27:1 34:1 35:1 65:1 66:1 137:1 138:1 320:1 324:1 645:1 
-0.1770180952141382 -0 0.09571829527283106 0.1240698202656129 0 47:1 55:1 56:1 57:1 65:1 218:1 245:1 1322:1 3418:1 
-0.8930587913415492 -0.1318524219081031 0.09742348394946612 0.6488208466138214 0 0:1 1:1 15:1 18:1 19:1 27:1 34:1 114:1 205:1 208:1 228:1 344:1 479:1 555:1 
-1 -0 0 0.411232350058534 0 1:1 3:1 18:1 19:1 20:1 21:1 50:1 63:1 114:1 228:1 390:1 582:1 1094:1 
-1 -0.4094200797488751 0 0.004904881613108951 0 0:1 26:1 44:1 47:1 59:1 179:1 318:1 976:1 
-0.1349603922898823 -0 0 0 0 0:1 49:1 55:1 57:1 125:1 162:1 180:1 183:1 425:1 426:1 429:1 888:1 1937:1 
-0.2736256433613103 -0 0 0 0 0:1 47:1 49:1 55:1 56:1 57:1 87:1 125:1 162:1 180:1 183:1 3480:1 
-1 -0.1382690208398344 0.5745672690145851 0.7493566092052181 0 0:1 1:1 15:1 18:1 19:1 20:1 21:1 27:1 34:1 106:1 114:1 390:1 582:1 
-0 -0 0 0.499556831865374 0 1:1 15:1 27:1 34:1 35:1 44:1 64:1 65:1 66:1 67:1 450:1 1035:1 2702:1 
-0 -0 0 0 0.2742468222918986 0:1 1:1 15:1 21:1 65:1 66:1 136:1 139:1 145:1 146:1 299:1 301:1 302:1 
-1 -0 0 0 0 1:1 15:1 39:1 42:1 43:1 44:1 47:1 77:1 114:1 130:1 390:1 
-0.3776185694164578 -0.03643517330094456 0 0.2362207529184082 0 1:1 15:1 27:1 34:1 35:1 44:1 184:1 408:1 1035:1 1070:1 1072:1 2702:1 3571:1 
-0.4239154296320158 -0 0.09649050697150757 0.1379628117122655 0 0:1 41:1 47:1 57:1 62:1 87:1 125:1 162:1 3227:1 3229:1 3230:1 
-0 -0 0.04061658089877054 0 0 0:1 47:1 55:1 56:1 57:1 65:1 713:1 3389:1 
-1 -0 0 0 0 42:1 43:1 44:1 47:1 77:1 318:1 390:1 391:1 
-0.784995596110033 -0.797950539902363 0.4379855515401321 0.03932162834526822 0 0:1 47:1 179:1 255:1 661:1 1541:1 
-1 -0 0 0 0 1:1 15:1 39:1 41:1 42:1 43:1 44:1 47:1 77:1 130:1 545:1 
-0.8629323098191922 -0.06635424785087253 0 0.001413005152652607 0 0:1 26:1 29:1 44:1 47:1 318:1 582:1 976:1 1336:1 
-0 -0 0.119661897048997 0 0.1583570093139421 19:1 20:1 21:1 41:1 62:1 77:1 81:1 162:1 163:1 164:1 166:1 851:1 852:1 1401:1 
-1 -0 0 0 0 10:1 42:1 43:1 44:1 47:1 318:1 390:1 391:1 2193:1 
-0 -0 0.1239677698018528 0.2236555678776859 0 0:1 29:1 47:1 87:1 91:1 94:1 475:1 476:1 2891:1 
-0.1360876360279766 -0.2013458405003037 0.8193636907212067 0.6498113958126817 0.4808992736732329 0:1 47:1 53:1 91:1 94:1 179:1 3764:1 3765:1 
-0 -0 0.05419341549428585 0 0 0:1 29:1 47:1 91:1 94:1 559:1 580:1 581:1 2559:1 
-0 -0 0.380656948802117 0.09211577018786214 0 29:1 47:1 91:1 94:1 559:1 1582:1 2448:1 2449:1 2701:1 
-0.5094106418705892 -0 0 0.2508099525853268 0 0:1 1:1 15:1 18:1 61:1 775:1 2448:1 2577:1 2578:1 3785:1 
-0 -0 0 0.2873678469361786 0 0:1 29:1 47:1 91:1 94:1 475:1 476:1 559:1 2521:1 
-0.9337219514241919 -0 0.02596965039162241 0.422234820844622 0 0:1 1:1 15:1 18:1 21:1 41:1 112:1 119:1 166:1 649:1 694:1 773:1 1020:1 1863:1 
-0 -0 0 0.09778219960308271 0 0:1 1:1 15:1 21:1 65:1 66:1 145:1 146:1 174:1 395:1 397:1 570:1 2086:1 
-1 -0 0 0 0 0:1 1:1 15:1 18:1 39:1 42:1 43:1 44:1 47:1 61:1 379:1 3812:1 
-0 -0 0.03169746951254601 0 0 29:1 47:1 91:1 92:1 94:1 475:1 476:1 1158:1 2724:1 
-0.3721186614753322 -0 0 0 0 19:1 20:1 21:1 62:1 77:1 81:1 114:1 125:1 162:1 479:1 561:1 562:1 851:1 852:1 
-1 -0 0 0 0 19:1 20:1 21:1 62:1 77:1 81:1 114:1 125:1 162:1 479:1 561:1 562:1 851:1 852:1 
-1 -0 0.1959343589003301 0 0 0:1 1:1 14:1 15:1 26:1 41:1 54:1 77:1 104:1 130:1 540:1 1700:1 
-0.02287429503231371 -0 0 0 0 55:1 57:1 114:1 125:1 162:1 180:1 183:1 425:1 426:1 429:1 480:1 2570:1 3718:1 
-0.2280177844728697 -0 0 0 0 0:1 57:1 59:1 117:1 125:1 144:1 162:1 184:1 222:1 224:1 1041:1 1042:1 1070:1 
-0 -0 0.0003409866519001346 0 0 0:1 29:1 47:1 91:1 94:1 580:1 581:1 582:1 1285:1 
-0.001434674994301009 -0.03160771239155502 0 0 0 0:1 47:1 91:1 475:1 476:1 3054:1 3874:1 
-0.08685335500939502 -0 0.1374066325549201 0.004330363774737441 0.06597076488928488 0:1 1:1 18:1 21:1 61:1 81:1 100:1 101:1 107:1 824:1 825:1 958:1 1295:1 
-0 -0 0.1179384173054914 0 0 55:1 57:1 125:1 162:1 180:1 182:1 183:1 425:1 426:1 429:1 819:1 2855:1 3888:1 
-0.09543305323886578 -0 0.01176112595100051 0.03431368326131695 0 29:1 44:1 47:1 92:1 313:1 314:1 318:1 1607:1 1708:1 
-0.1491723949731585 -0.007286643266760547 0 0.07496741695603425 0 29:1 44:1 47:1 184:1 301:1 318:1 511:1 1581:1 3901:1 
-0.04690602851049501 -0 0.106228782631779 0.06861842314134975 0 29:1 47:1 57:1 77:1 358:1 359:1 1071:1 3901:1 
-0.05940950454920874 -0 0 0.6044643651454561 0 0:1 1:1 15:1 18:1 19:1 20:1 21:1 61:1 112:1 119:1 321:1 387:1 694:1 945:1 1845:1 
-1 -0.02521975996951923 0.05726027265738396 0.5209264436280384 0 1:1 47:1 57:1 65:1 66:1 125:1 304:1 305:1 550:1 551:1 553:1 2036:1 
-0 -0.1740263992943361 0 0 0 1:1 47:1 55:1 56:1 57:1 65:1 66:1 125:1 180:1 315:1 595:1 598:1 
-0 -0 0 0.07402522195055018 0 0:1 47:1 87:1 91:1 94:1 179:1 475:1 476:1 2690:1 
-1 -0.1242561493910813 0.6212182066100024 0.3707221493393175 0 0:1 19:1 20:1 21:1 29:1 34:1 35:1 38:1 162:1 164:1 377:1 561:1 562:1 
-0 -0 0 0.01304728459988565 0 10:1 49:1 55:1 57:1 62:1 125:1 162:1 180:1 425:1 426:1 429:1 451:1 4010:1 
-0.1554844629991444 -0 0 0.1711487121779631 0 21:1 41:1 62:1 77:1 119:1 125:1 162:1 222:1 224:1 387:1 2540:1 3391:1 3392:1 
-1 -0.7445223294885419 0 0.237827872222506 0.01182243088938839 1:1 3:1 9:1 47:1 65:1 66:1 176:1 245:1 268:1 270:1 271:1 296:1 
-1 -1 0 0.4574325291141989 0 1:1 15:1 44:1 47:1 77:1 114:1 130:1 187:1 313:1 314:1 401:1 
-0.3569099870561637 -0 0 1 0 0:1 1:1 15:1 18:1 21:1 114:1 145:1 146:1 187:1 201:1 209:1 461:1 2494:1 
-0 -0.02335702113929279 0 0 0 0:1 47:1 57:1 407:1 555:1 2698:1 3229:1 3230:1 
-1 -0 0 0 0 1:1 15:1 39:1 42:1 43:1 44:1 47:1 77:1 114:1 130:1 288:1 
-1 -0.1657829778578538 0 0 0 9:1 47:1 65:1 66:1 136:1 139:1 270:1 271:1 716:1 
-1 -0.2327025365739471 0 0 0 0:1 5:1 9:1 47:1 184:1 270:1 271:1 1492:1 1645:1 
-1 -0 0 0 0 0:1 44:1 47:1 313:1 314:1 318:1 390:1 391:1 559:1 
-0.1169057457918531 -0 0.03996590509879228 0 0 0:1 29:1 44:1 47:1 313:1 314:1 318:1 559:1 747:1 
-0.9333146764565849 -0.02791655523197735 0.4181813546609688 0.5340134797977095 0 0:1 1:1 10:1 15:1 27:1 34:1 59:1 114:1 130:1 479:1 775:1 2072:1 3463:1 
-0 -0 0 0.1011252595422084 0 0:1 1:1 15:1 21:1 65:1 66:1 145:1 146:1 320:1 324:1 1870:1 1871:1 1872:1 
-0.1322714212542297 -0 0 0 0 10:1 47:1 55:1 56:1 57:1 59:1 64:1 65:1 125:1 162:1 180:1 1322:1 
-0.2517053312831482 -0.2534176314812002 0.0008159832753529063 0 0 26:1 29:1 44:1 47:1 53:1 318:1 516:1 671:1 976:1 
-0 -0 0 0 1 1:1 65:1 66:1 81:1 91:1 100:1 101:1 107:1 136:1 139:1 381:1 382:1 3024:1 
-0 -0 0.9284345887252825 0 0 0:1 29:1 47:1 91:1 92:1 94:1 381:1 382:1 
-0.5525034451879296 -0.01001407781002245 0.2757965101867357 0.2704231127605392 0.06995218711427093 0:1 10:1 17:1 34:1 69:1 71:1 80:1 81:1 103:1 104:1 107:1 108:1 145:1 148:1 275:1 527:1 1049:1 2370:1 
-0.6315767485504897 -0.1421756077442425 0.1664360278816128 0.1277759462059839 0 1:1 15:1 21:1 34:1 65:1 66:1 108:1 143:1 145:1 146:1 148:1 149:1 202:1 206:1 275:1 291:1 
-0.242789853259185 -0 0.04925655677297424 0 0 0:1 41:1 47:1 57:1 87:1 125:1 162:1 183:1 332:1 334:1 335:1 
-1 -0.07543628376777743 0 0 0 0:1 1:1 14:1 15:1 19:1 20:1 21:1 26:1 50:1 64:1 65:1 66:1 67:1 1094:1 
-1 -0.334578352508562 0.06108570942436735 0 0 1:1 14:1 15:1 21:1 26:1 54:1 65:1 66:1 136:1 139:1 145:1 146:1 379:1 
-0 -0 0 0 0.1124479297973449 0:1 47:1 55:1 56:1 57:1 183:1 613:1 1730:1 2108:1 
-0.5377805225270077 -0 0 0.07925400004899232 0 0:1 5:1 18:1 47:1 559:1 4282:1 4283:1 4284:1 
-0.1385376040537754 -0 0 0 0 1:1 14:1 15:1 26:1 44:1 54:1 64:1 65:1 66:1 67:1 331:1 1035:1 2702:1 
-0.212282025478354 -0 0 0.1799434825631834 0 0:1 62:1 77:1 125:1 162:1 332:1 334:1 407:1 1005:1 2182:1 
-0.2353580562580125 -0 0 0.1571667623552327 0 0:1 1:1 15:1 19:1 20:1 21:1 65:1 66:1 110:1 112:1 119:1 145:1 320:1 324:1 387:1 465:1 694:1 753:1 1123:1 1413:1 1414:1 1650:1 2004:1 3833:1 4350:1 
-0.4919771208846664 -0.1250757252474498 0 0.06997301099210942 0 26:1 29:1 44:1 47:1 53:1 318:1 559:1 976:1 4367:1 
-0.8474999869198192 -0 0 0 0 0:1 1:1 15:1 21:1 65:1 66:1 136:1 139:1 145:1 146:1 174:1 395:1 
-0.9235414346084994 -0 0 0 0 1:1 6:1 15:1 29:1 39:1 42:1 43:1 44:1 47:1 379:1 612:1 614:1 
-1 -0 0 0 0 1:1 15:1 39:1 42:1 43:1 44:1 47:1 77:1 114:1 130:1 288:1 
-1 -0.02481594811883997 0 0 0 0:1 42:1 43:1 44:1 47:1 65:1 66:1 713:1 2016:1 
-1 -0 0 0 0 1:1 15:1 39:1 42:1 43:1 44:1 47:1 77:1 114:1 130:1 187:1 
-1 -0 0 0 0 1:1 15:1 18:1 39:1 42:1 43:1 44:1 47:1 114:1 187:1 461:1 4412:1 
-1 -1 1 1 0.004996486028503001 0:1 1:1 15:1 19:1 20:1 21:1 27:1 34:1 65:1 66:1 176:1 245:1 
-0 -0.1475161643478349 0.3427469636744284 0 0.2871313719535351 0:1 1:1 21:1 65:1 66:1 81:1 100:1 101:1 107:1 480:1 824:1 825:1 3137:1 
-0.9173014549167625 -0 0 0.7537621858636537 0 0:1 1:1 15:1 18:1 21:1 49:1 53:1 145:1 146:1 299:1 301:1 302:1 
-1 -0 0 0 0 0:1 1:1 15:1 18:1 21:1 61:1 145:1 146:1 299:1 301:1 302:1 
-0 -0 0.005947350739088387 0 0.02112249957527172 0:1 1:1 15:1 21:1 65:1 66:1 145:1 146:1 174:1 176:1 245:1 395:1 397:1 
-0.2763777679361503 -0 0.001304159485850136 0 0 29:1 47:1 91:1 92:1 94:1 379:1 381:1 382:1 4150:1 
-1 -0 0.9352232434443346 0.0507719653991241 0.1821374155568527 0:1 1:1 12:1 65:1 66:1 80:1 81:1 82:1 100:1 101:1 103:1 104:1 107:1 119:1 320:1 324:1 
-1 -0.09293235615682842 0.4328494465459458 0.06234286635402804 0 0:1 1:1 14:1 15:1 21:1 26:1 54:1 65:1 66:1 145:1 146:1 2971:1 2972:1 
-1 -0 0 0 0 0:1 9:1 29:1 47:1 50:1 51:1 559:1 607:1 672:1 
-0 -0 0.2326489225504227 0 0 1:1 15:1 21:1 65:1 66:1 145:1 146:1 299:1 301:1 302:1 1033:1 1034:1 4134:1 
-0 -0 0.513496823844189 0 0 29:1 47:1 91:1 94:1 475:1 476:1 559:1 3370:1 
-0.002759598320425142 -0 0.3433906915327148 0 0 47:1 55:1 56:1 57:1 65:1 173:1 245:1 312:1 1322:1 
-1 -0 0 0.2501035835553592 0 0:1 5:1 9:1 47:1 50:1 51:1 324:1 672:1 
-0.696483665930528 -0 0.05307273604487656 0 0 0:1 41:1 57:1 117:1 125:1 162:1 183:1 222:1 224:1 258:1 3486:1 
-0 -0 0 0.01454675972259061 0 0:1 1:1 15:1 21:1 65:1 66:1 145:1 146:1 320:1 324:1 1870:1 1871:1 1872:1 
-1 -0.2900587665530557 0.4598921085954936 0.847859803564372 0 0:1 1:1 15:1 17:1 18:1 21:1 27:1 34:1 35:1 145:1 146:1 329:1 2236:1 
-0 -0 0 0.294758858223684 0 1:1 15:1 21:1 59:1 65:1 66:1 145:1 146:1 320:1 324:1 1870:1 1871:1 1872:1 
-0.6288686145354515 -0 0 1 0 1:1 15:1 21:1 65:1 66:1 145:1 146:1 320:1 324:1 715:1 1870:1 1871:1 1872:1 
-1 -0 0.01880326740004795 1 0.06446172534603688 0:1 1:1 15:1 21:1 65:1 66:1 112:1 119:1 145:1 146:1 176:1 245:1 387:1 914:1 
-0.5423752747390396 -0 0.01540156864144795 0 0 0:1 47:1 55:1 56:1 57:1 87:1 
-0 -0 0 0.3091397025314312 0 1:1 15:1 21:1 65:1 66:1 136:1 139:1 145:1 146:1 174:1 395:1 964:1 1332:1 1333:1 
-0 -0 0.0233483061731338 0 0 0:1 29:1 47:1 91:1 92:1 94:1 475:1 476:1 
-0 -0 0 0.08268224648372109 0 5:1 9:1 47:1 77:1 475:1 476:1 672:1 2724:1 
-0.03392779997933663 -0 0 0 0 1:1 15:1 21:1 65:1 66:1 137:1 138:1 320:1 324:1 1870:1 1871:1 1872:1 2047:1 
-0 -0 0 0.013617368015755 0 1:1 15:1 21:1 65:1 66:1 145:1 146:1 320:1 324:1 1870:1 1871:1 1872:1 4670:1 
-0 -0 0.008896496653715221 0 0 0:1 47:1 57:1 62:1 114:1 125:1 162:1 622:1 873:1 3227:1 3229:1 3230:1 
-0 -0 0.03057965844657629 0 0 0:1 47:1 57:1 61:1 125:1 162:1 183:1 332:1 334:1 335:1 529:1 4187:1 
-1 -0 0 0 0 0:1 42:1 43:1 44:1 47:1 318:1 390:1 391:1 1034:1 
-0 -0 0 0 0.07709639896023035 0:1 5:1 47:1 91:1 94:1 218:1 475:1 476:1 559:1 
-0 -0.2269280288098773 0 0 0 1:1 47:1 55:1 56:1 57:1 65:1 66:1 125:1 180:1 291:1 315:1 595:1 
-0.06280161771841695 -0 0 0 0 0:1 47:1 91:1 94:1 179:1 381:1 382:1 1100:1 3099:1 
-0 -0 0 0.1437511087597031 0 47:1 55:1 56:1 57:1 62:1 77:1 114:1 125:1 162:1 180:1 552:1 
-0 -0 0.04795625878548506 0 0 0:1 5:1 47:1 91:1 94:1 281:1 475:1 476:1 1739:1 
-0 -0 0.2301434174382205 0 0 0:1 29:1 47:1 559:1 818:1 1428:1 4282:1 4283:1 4284:1 
-0.2365558751499175 -0 0 0 0 29:1 47:1 91:1 92:1 94:1 379:1 381:1 382:1 4150:1 
-0.2373652771945696 -0.1399892586796361 0 0.1033597993481881 0 1:1 15:1 44:1 47:1 65:1 66:1 320:1 324:1 2448:1 2449:1 3136:1 3785:1 
-1 -0 0 1 0 0:1 1:1 15:1 21:1 65:1 66:1 112:1 119:1 145:1 146:1 281:1 387:1 710:1 
-0 -0 0 0 1 0:1 1:1 65:1 66:1 81:1 91:1 100:1 101:1 107:1 281:1 381:1 382:1 710:1 
-0 -0 0 0.5064992204920492 0 47:1 55:1 56:1 57:1 62:1 125:1 162:1 180:1 182:1 925:1 1801:1 3223:1 
-0.2717121200720393 -0 0 0.2287614780117045 0 0:1 29:1 47:1 91:1 174:1 175:1 661:1 
-1 -0 0.1387643212075093 0.3066587166204322 0 1:1 21:1 47:1 77:1 114:1 130:1 137:1 138:1 187:1 1854:1 1855:1 
-1 -0 0 0.4216912749539136 0 1:1 15:1 21:1 65:1 66:1 112:1 119:1 137:1 138:1 320:1 324:1 387:1 418:1 
-0.1249120695383718 -0.3361357100215034 0.233330113425004 0.7852843073488021 0 0:1 1:1 47:1 65:1 66:1 101:1 255:1 281:1 502:1 506:1 710:1 
-0 -0 0 0.5480390046988033 0 0:1 1:1 65:1 66:1 101:1 281:1 502:1 506:1 710:1 775:1 2072:1 3463:1 4674:1 
-0 -0 -0.7066287361492608 0 1.110223024625157e-16 0:1 29:1 47:1 53:1 91:1 92:1 94:1 
-0 -0 -0.1506101243213351 0.03080484414523466 0 0:1 1:1 18:1 41:1 80:1 81:1 100:1 101:1 102:1 103:1 104:1 105:1 106:1 107:1 108:1 110:1 
-1 -0 -0.7253733693554112 1 0.06849258058863587 0:1 1:1 15:1 21:1 65:1 66:1 145:1 146:1 160:1 161:1 176:1 245:1 
-0.2161818179065463 -0.9159679800592098 -0.929392725302144 0.3403195694364478 0.05271985962254016 0:1 1:1 6:1 14:1 15:1 21:1 26:1 29:1 54:1 431:1 432:1 
-0 -0.0178705892194161 -0.3579261079916098 0 1 0:1 1:1 21:1 65:1 66:1 81:1 100:1 101:1 107:1 136:1 139:1 488:1 489:1 
-0.4478602679782525 -0.0419670920275557 -0.7409360037205752 0.32212035687094 0 1:1 15:1 18:1 19:1 20:1 21:1 114:1 266:1 421:1 491:1 492:1 493:1 494:1 495:1 
-1 -0 -0 0.4493536516834978 0 1:1 15:1 21:1 27:1 34:1 65:1 66:1 120:1 136:1 139:1 145:1 146:1 501:1 
-1 -0.3861717104935837 -0 0.4118662108216173 0 1:1 15:1 21:1 27:1 34:1 59:1 65:1 66:1 108:1 136:1 139:1 145:1 146:1 467:1 468:1 523:1 
-0.4259007888310585 -0 -0.2752280704770807 0.1116897375566574 0 0:1 19:1 20:1 21:1 34:1 35:1 69:1 71:1 114:1 479:1 526:1 527:1 529:1 531:1 
-0.2798375217718848 -0 -0.2531720017854956 0.03479921015903992 0 0:1 1:1 15:1 27:1 34:1 57:1 65:1 66:1 202:1 206:1 538:1 539:1 540:1 
-0 -0 -0 0.09412625826876775 0.001988127051512708 0:1 29:1 47:1 91:1 94:1 516:1 
-0 -0 -0 0.06509419890167252 0 0:1 1:1 19:1 34:1 57:1 65:1 66:1 101:1 108:1 176:1 245:1 617:1 618:1 619:1 
-0.04900791204509769 -0 -0 0 0 1:1 15:1 19:1 20:1 21:1 27:1 34:1 35:1 65:1 66:1 176:1 245:1 637:1 
-0 -0 -0.03661136949112336 0.1117096414172673 0 29:1 47:1 59:1 91:1 92:1 94:1 636:1 663:1 664:1 
-0.157485428504847 -0.08680791761618442 -0 0 0 1:1 15:1 19:1 27:1 34:1 57:1 114:1 130:1 208:1 480:1 564:1 702:1 703:1 704:1 
-0.3075662870277626 -0 -0 0.6583306304413529 0 0:1 1:1 18:1 19:1 49:1 53:1 101:1 104:1 239:1 240:1 531:1 718:1 719:1 
-0.3647509663406053 -0 -0 0 0 1:1 15:1 19:1 27:1 34:1 65:1 66:1 76:1 78:1 79:1 136:1 139:1 203:1 331:1 519:1 520:1 
-0.3300524044288989 -0 -0.4264206514090802 0.6474357128804109 0 0:1 1:1 65:1 66:1 80:1 101:1 103:1 104:1 108:1 145:1 237:1 242:1 243:1 320:1 324:1 
-0 -0 -0 0 0.03584096843452824 0:1 1:1 49:1 77:1 80:1 81:1 100:1 101:1 103:1 104:1 107:1 130:1 
-0 -0 -0 0 0.0185300646127425 0:1 1:1 21:1 65:1 66:1 80:1 81:1 100:1 101:1 136:1 139:1 145:1 146:1 344:1 374:1 864:1 
-0.7963602807772517 -0 -0 0.8722144999007397 0 0:1 29:1 47:1 91:1 94:1 461:1 
-1 -0.5482271306684621 -0.9912455586553592 0.260349250253749 0 1:1 15:1 19:1 20:1 21:1 27:1 34:1 35:1 59:1 65:1 66:1 202:1 206:1 
-0.4652077862083617 -0.1932659719782386 -0.229131875321294 0.2316796330170913 0 47:1 91:1 92:1 114:1 130:1 187:1 970:1 971:1 
-0 -0 -0.116266832818486 0 0 0:1 1:1 65:1 66:1 80:1 81:1 100:1 101:1 103:1 104:1 107:1 136:1 139:1 145:1 248:1 1016:1 
-0 -0 -0 0 0.5482177241769595 0:1 1:1 12:1 21:1 65:1 66:1 81:1 100:1 101:1 145:1 146:1 160:1 161:1 176:1 245:1 601:1 
-0.3163183233674091 -0 -0.4321839685619799 0 0 1:1 65:1 66:1 80:1 81:1 82:1 100:1 101:1 103:1 104:1 107:1 145:1 1033:1 1034:1 1035:1 
-0.8873198351660457 -0.09549713581253882 -0.3799330815692634 0.1899499099298949 0 0:1 1:1 12:1 13:1 15:1 65:1 66:1 81:1 104:1 289:1 320:1 324:1 601:1 1046:1 
-0.1147046621713637 -0 -0.07677594176502775 0.1193689808121772 0.03790884441813568 0:1 47:1 91:1 94:1 179:1 281:1 1058:1 1059:1 1060:1 
-0 -0.04002713635100634 -0.2866955241200942 0 0.7026340682183978 0:1 1:1 21:1 65:1 66:1 81:1 100:1 101:1 108:1 136:1 139:1 145:1 146:1 951:1 1083:1 
-0.7496385968125651 -0 -0.3152652785827678 0 0 1:1 77:1 81:1 100:1 101:1 104:1 107:1 239:1 240:1 
-0.4573065389241966 -0.02884412000061103 -0.2002946704108471 0.129893278690129 0.04182670545081415 0:1 19:1 20:1 21:1 34:1 35:1 49:1 162:1 164:1 183:1 384:1 1120:1 1122:1 1123:1 
-0.02233997417567966 -0 -0.02921678529176637 0 0.01978660930414071 0:1 47:1 91:1 92:1 94:1 407:1 1230:1 1231:1 1232:1 
-0 -0 -0.02850922069255251 0 0 29:1 47:1 59:1 91:1 94:1 559:1 1058:1 1059:1 1187:1 
-0 -0 -0.5267230754969021 0 0 0:1 1:1 18:1 21:1 61:1 80:1 81:1 100:1 101:1 116:1 301:1 302:1 824:1 825:1 
-0 -0.02172081625594863 -0.1772507438491122 0.2899787538100755 0.2353852469589929 0:1 1:1 17:1 21:1 81:1 100:1 101:1 108:1 110:1 117:1 118:1 130:1 145:1 146:1 389:1 1251:1 
-0 -0.03154413811135133 -0.04731920774552974 0.1153973066468722 0.08855300685634129 0:1 47:1 91:1 130:1 182:1 559:1 925:1 1255:1 
-1 -0.2978199315418179 -0.8252876463647225 0.9389577854393159 0 0:1 5:1 47:1 91:1 94:1 559:1 
-0.4446249830922689 -0.0003459310321837035 -0 0 0 0:1 1:1 21:1 65:1 66:1 81:1 100:1 101:1 108:1 136:1 139:1 145:1 146:1 235:1 239:1 467:1 468:1 
-0 -0.5462905109162854 -0 0 0.2657565548089584 0:1 47:1 87:1 91:1 130:1 182:1 
-0 -0 -0.07517532707197844 0 0 1:1 15:1 19:1 21:1 34:1 65:1 66:1 145:1 146:1 224:1 342:1 343:1 713:1 1104:1 1386:1 1387:1 1388:1 
-0 -0 -0.01220589200112318 0 0 0:1 29:1 47:1 91:1 94:1 559:1 817:1 
-0 -0.003711399479517217 -0.02224821599248858 0.1122487728881092 0.001633390813859526 0:1 1:1 10:1 15:1 19:1 20:1 21:1 50:1 61:1 66:1 248:1 291:1 465:1 747:1 1386:1 1388:1 1412:1 1413:1 1414:1 1416:1 
-0.2917988160895381 -0 -0.7404454235885143 0.2298498444560078 0.002113421196762751 0:1 29:1 47:1 91:1 94:1 582:1 
-0.910638587634086 -0.02224478746801949 -0.3235674675986327 0.3556446982860999 0 0:1 41:1 47:1 91:1 130:1 559:1 1501:1 
-0 -0 -0.01226695936297869 0 0 0:1 29:1 47:1 91:1 94:1 559:1 1526:1 
-0 -0 -0.02216917058825183 0.3241884033931982 0.0006865183525812562 0:1 29:1 38:1 47:1 91:1 94:1 1535:1 
-0.08922017387202001 -0.03982324526647116 -0.2287047705822797 0.1474273733516892 0.0003562512871810739 0:1 47:1 91:1 94:1 179:1 1319:1 1320:1 1541:1 
-0 -0 -0.08820840700644697 0 0.0001700671816878459 0:1 47:1 53:1 91:1 94:1 179:1 1541:1 1543:1 1544:1 
-1 -0 -0 0 0.1298031026395327 0:1 5:1 47:1 77:1 91:1 94:1 1476:1 1477:1 
-0.01411820267508954 -0 -0 0 0 0:1 1:1 18:1 41:1 81:1 100:1 101:1 104:1 107:1 239:1 240:1 388:1 460:1 
-0 -0 -0.04196681252502066 0 0.3765327246407222 0:1 1:1 57:1 65:1 66:1 81:1 100:1 101:1 136:1 139:1 413:1 566:1 1596:1 1597:1 
-0.9572508490227918 -0 -0.1748357561274258 0.5751555038503525 0 0:1 1:1 15:1 21:1 27:1 34:1 65:1 66:1 145:1 146:1 176:1 245:1 1608:1 
-0 -0 -0 0.0002921248021890532 0.0001795408350331318 0:1 29:1 47:1 91:1 94:1 516:1 1514:1 
-0.01290827669353039 -0 -0 0.07940353685511711 0 0:1 5:1 47:1 91:1 94:1 559:1 1682:1 
-0.2716001210912213 -0.04174519355209976 -0.1483597292948326 0.08397891740420113 0 0:1 5:1 47:1 67:1 91:1 94:1 1692:1 1693:1 
-0 -0 -0 0 0.06146822784184231 1:1 66:1 81:1 100:1 101:1 293:1 294:1 295:1 323:1 531:1 628:1 647:1 1305:1 1306:1 1696:1 1697:1 1698:1 
-0.5855330033914998 -0 -0 0 0 1:1 15:1 21:1 27:1 34:1 65:1 66:1 145:1 146:1 157:1 158:1 160:1 161:1 1748:1 
-0.6056640507159967 -0 -0.03652383862249952 0.1952339848253309 0 0:1 1:1 15:1 19:1 20:1 21:1 27:1 34:1 35:1 65:1 66:1 108:1 110:1 281:1 647:1 710:1 904:1 1659:1 
-0 -0 -1 0 0 0:1 29:1 47:1 91:1 94:1 559:1 
-0 -0.09528412929095889 -0.05775666412119201 0.06277817950487143 0 0:1 1:1 18:1 21:1 41:1 80:1 81:1 84:1 100:1 101:1 106:1 108:1 145:1 146:1 374:1 1578:1 1762:1 1763:1 
-0 -0 -0.02740474764781026 0 0 29:1 47:1 59:1 91:1 92:1 94:1 1783:1 1784:1 1785:1 
-0 -0.04525711298752697 -0 0 0 1:1 10:1 19:1 34:1 81:1 100:1 101:1 104:1 107:1 179:1 239:1 240:1 310:1 408:1 598:1 
-0.1570767394024253 -0.001387014501655792 -0 0 0 0:1 1:1 15:1 19:1 20:1 21:1 27:1 34:1 35:1 65:1 66:1 176:1 245:1 
-0 -0 -0.01751734694073189 0 0.06409584168563724 29:1 47:1 91:1 92:1 94:1 218:1 1384:1 1903:1 1904:1 
-0 -0 -0.1023207631730018 0 2.035118857456199e-05 0:1 29:1 47:1 91:1 92:1 94:1 352:1 1428:1 
